{"learner":{"attributes":{"best_iteration":"328","best_score":"0.01251292157894552","scikit_learn":"{\"_estimator_type\": \"classifier\"}"},"feature_names":[],"feature_types":[],"gradient_booster":{"model":{"gbtree_model_param":{"num_parallel_tree":"1","num_trees":"379"},"iteration_indptr":[0,1,2,3,4,5,6,7,8,9,10,11,12,13,14,15,16,17,18,19,20,21,22,23,24,25,26,27,28,29,30,31,32,33,34,35,36,37,38,39,40,41,42,43,44,45,46,47,48,49,50,51,52,53,54,55,56,57,58,59,60,61,62,63,64,65,66,67,68,69,70,71,72,73,74,75,76,77,78,79,80,81,82,83,84,85,86,87,88,89,90,91,92,93,94,95,96,97,98,99,100,101,102,103,104,105,106,107,108,109,110,111,112,113,114,115,116,117,118,119,120,121,122,123,124,125,126,127,128,129,130,131,132,133,134,135,136,137,138,139,140,141,142,143,144,145,146,147,148,149,150,151,152,153,154,155,156,157,158,159,160,161,162,163,164,165,166,167,168,169,170,171,172,173,174,175,176,177,178,179,180,181,182,183,184,185,186,187,188,189,190,191,192,193,194,195,196,197,198,199,200,201,202,203,204,205,206,207,208,209,210,211,212,213,214,215,216,217,218,219,220,221,222,223,224,225,226,227,228,229,230,231,232,233,234,235,236,237,238,239,240,241,242,243,244,245,246,247,248,249,250,251,252,253,254,255,256,257,258,259,260,261,262,263,264,265,266,267,268,269,270,271,272,273,274,275,276,277,278,279,280,281,282,283,284,285,286,287,288,289,290,291,292,293,294,295,296,297,298,299,300,301,302,303,304,305,306,307,308,309,310,311,312,313,314,315,316,317,318,319,320,321,322,323,324,325,326,327,328,329,330,331,332,333,334,335,336,337,338,339,340,341,342,343,344,345,346,347,348,349,350,351,352,353,354,355,356,357,358,359,360,361,362,363,364,365,366,367,368,369,370,371,372,373,374,375,376,377,378,379],"tree_info":[0,0,0,0,0,0,0,0,0,0,0,0,0,0,0,0,0,0,0,0,0,0,0,0,0,0,0,0,0,0,0,0,0,0,0,0,0,0,0,0,0,0,0,0,0,0,0,0,0,0,0,0,0,0,0,0,0,0,0,0,0,0,0,0,0,0,0,0,0,0,0,0,0,0,0,0,0,0,0,0,0,0,0,0,0,0,0,0,0,0,0,0,0,0,0,0,0,0,0,0,0,0,0,0,0,0,0,0,0,0,0,0,0,0,0,0,0,0,0,0,0,0,0,0,0,0,0,0,0,0,0,0,0,0,0,0,0,0,0,0,0,0,0,0,0,0,0,0,0,0,0,0,0,0,0,0,0,0,0,0,0,0,0,0,0,0,0,0,0,0,0,0,0,0,0,0,0,0,0,0,0,0,0,0,0,0,0,0,0,0,0,0,0,0,0,0,0,0,0,0,0,0,0,0,0,0,0,0,0,0,0,0,0,0,0,0,0,0,0,0,0,0,0,0,0,0,0,0,0,0,0,0,0,0,0,0,0,0,0,0,0,0,0,0,0,0,0,0,0,0,0,0,0,0,0,0,0,0,0,0,0,0,0,0,0,0,0,0,0,0,0,0,0,0,0,0,0,0,0,0,0,0,0,0,0,0,0,0,0,0,0,0,0,0,0,0,0,0,0,0,0,0,0,0,0,0,0,0,0,0,0,0,0,0,0,0,0,0,0,0,0,0,0,0,0,0,0,0,0,0,0,0,0,0,0,0,0,0,0,0,0,0,0,0,0,0,0,0,0,0,0,0,0,0,0,0,0,0,0,0,0,0,0,0,0,0,0,0,0,0,0,0,0,0,0,0,0,0,0],"trees":[{"base_weights":[-5.070953E-3,-1.2526231E0,6.69574E-1,-1.4845383E0,-5.4984915E-1,3.45757E-1,1.5639709E0,-1.6139916E0,-9.6964145E-1,-1.5396627E0,-1.6857965E-1,7.318887E-1,-1.1807135E-1,-4.6416155E-1,1.676886E0,1.9211478E0,-1.6191386E0,-1.1145968E0,8.1634283E-1,-1.6293803E0,1.517317E0,1.7265341E0,-3.3893728E-1,1.6277211E0,5.5247873E-1,-5.775448E-1,6.650336E-1,-1.4569174E0,7.8508544E-1,1.3108081E0,2.0382693E0,-4.110695E-1,7.17165E-1,-1.6242914E0,1.5488803E0,-1.173442E0,2.2542245E0,-4.9959478E-1,1.8402768E0,-5.0286895E-1,9.591803E-1,-4.768977E-1,2.3680625E0,2.0583537E0,-4.9444982E-1,-8.634421E-1,2.227639E-1,2.0272796E0,6.6383576E-1,-8.5736796E-2,8.227496E-1,-1.3823894E0,-2.7247772E-1,-5.1635784E-1,1.3185923E0,7.214827E-1,-5.0220567E-1,-9.7211564E-1,1.9135315E0,1.5461307E0,1.259539E-1,2.08889E0,-4.9942386E-1,-4.917384E-1,-3.0490494E-1,7.17165E-1,-4.5242938E-1,-4.144243E-1,-1.3692828E-1,-4.1678467E-1,7.328796E-1,6.092155E-1,-4.767325E-1,-4.770608E-1,7.0862025E-1,-2.620248E-1,7.2999316E-1,-4.804447E-1,6.5938246E-1,-1.13762334E-1,-4.7512662E-1,-1.5405655E-1,2.9708746E-1,6.3027E-1,-4.963901E-1,-3.1909317E-1,4.047165E-1,8.617327E-2,-2.5357014E-1,2.6714236E-1,-4.2784375E-1,-4.3916625E-1,3.3314976E-1,1.1911186E-1,-2.2352397E-1,-2.809613E-1,3.0254883E-1,4.4653422E-1,-3.958017E-1,7.214827E-1,-4.9998704E-1,-4.889076E-1,7.1070904E-1,5.0515467E-1,6.673457E-2,-2.7825066E-1,6.4235777E-1,-2.868807E-1,6.4438707E-1],"categories":[],"categories_nodes":[],"categories_segments":[],"categories_sizes":[],"default_left":[0,0,0,0,0,0,0,0,0,0,0,0,0,0,0,0,0,0,0,0,0,0,0,0,0,0,0,0,0,0,0,0,0,0,0,0,0,0,0,0,0,0,0,0,0,0,0,0,0,0,0,0,0,0,0,0,0,0,0,0,0,0,0,0,0,0,0,0,0,0,0,0,0,0,0,0,0,0,0,0,0,0,0,0,0,0,0,0,0,0,0,0,0,0,0,0,0,0,0,0,0,0,0,0,0,0,0,0,0],"id":0,"left_children":[1,3,5,7,9,11,13,15,17,19,21,23,25,27,29,31,33,35,37,39,41,43,45,47,49,51,53,55,57,59,61,-1,-1,63,65,67,69,-1,71,-1,73,-1,75,77,-1,79,81,83,85,87,89,91,93,95,97,-1,-1,99,101,103,105,107,-1,-1,-1,-1,-1,-1,-1,-1,-1,-1,-1,-1,-1,-1,-1,-1,-1,-1,-1,-1,-1,-1,-1,-1,-1,-1,-1,-1,-1,-1,-1,-1,-1,-1,-1,-1,-1,-1,-1,-1,-1,-1,-1,-1,-1,-1,-1],"loss_changes":[1.0507235E5,7.1404688E3,2.3465785E4,2.1943047E3,4.10313E3,1.0654367E4,4.9328984E3,4.8207812E2,1.7150259E3,8.31708E2,2.5351653E3,5.2166367E3,9.724779E3,1.4107612E3,2.6963281E3,6.310875E1,4.3160938E2,1.2167485E3,1.2675442E3,3.578794E2,2.3299316E2,7.286605E2,2.1226077E3,2.0845693E3,4.665627E3,4.181772E3,7.717129E3,5.3530347E2,1.0011223E3,2.8264219E3,1.9275977E3,0E0,0E0,2.3504688E2,1.14749214E2,8.970615E2,7.592078E1,0E0,2.3360535E2,0E0,1.9281146E2,0E0,1.6609375E1,3.0500586E2,0E0,1.2988796E3,1.9668207E3,1.0412334E3,1.8819778E3,2.279951E3,2.8953105E3,9.527246E2,3.9088564E3,2.2820764E3,2.885128E3,0E0,0E0,4.677638E2,4.996731E2,1.5414375E3,3.5704712E3,1.8235273E3,0E0,0E0,0E0,0E0,0E0,0E0,0E0,0E0,0E0,0E0,0E0,0E0,0E0,0E0,0E0,0E0,0E0,0E0,0E0,0E0,0E0,0E0,0E0,0E0,0E0,0E0,0E0,0E0,0E0,0E0,0E0,0E0,0E0,0E0,0E0,0E0,0E0,0E0,0E0,0E0,0E0,0E0,0E0,0E0,0E0,0E0,0E0],"parents":[2147483647,0,0,1,1,2,2,3,3,4,4,5,5,6,6,7,7,8,8,9,9,10,10,11,11,12,12,13,13,14,14,15,15,16,16,17,17,18,18,19,19,20,20,21,21,22,22,23,23,24,24,25,25,26,26,27,27,28,28,29,29,30,30,33,33,34,34,35,35,36,36,38,38,40,40,42,42,43,43,45,45,46,46,47,47,48,48,49,49,50,50,51,51,52,52,53,53,54,54,57,57,58,58,59,59,60,60,61,61],"right_children":[2,4,6,8,10,12,14,16,18,20,22,24,26,28,30,32,34,36,38,40,42,44,46,48,50,52,54,56,58,60,62,-1,-1,64,66,68,70,-1,72,-1,74,-1,76,78,-1,80,82,84,86,88,90,92,94,96,98,-1,-1,100,102,104,106,108,-1,-1,-1,-1,-1,-1,-1,-1,-1,-1,-1,-1,-1,-1,-1,-1,-1,-1,-1,-1,-1,-1,-1,-1,-1,-1,-1,-1,-1,-1,-1,-1,-1,-1,-1,-1,-1,-1,-1,-1,-1,-1,-1,-1,-1,-1,-1],"split_conditions":[1.5384616E-1,3.625E-1,1.0261699E0,1.8153846E-1,1.5527374E-1,2.3333333E-2,2.820513E-1,-2.088125E-1,4.7454545E-1,3E-1,2.2709506E0,-9.61061E-1,1.9058E3,1.3335E3,1.252596E0,1.4012139E-1,2.57125E-1,2.5155875E-1,3.7704885E-1,9.0256274E-1,6.578016E-2,9.4E-2,3.193E0,2.15E-1,2.6E-1,-1.1084827E0,2.2725596E-1,-3.549091E1,7.972222E-1,7.6619434E-1,1.38E2,-4.110695E-1,7.17165E-1,3.623077E-1,8.73046E-3,3.5E-1,1.11E2,-4.9959478E-1,4.6511628E-2,-5.0286895E-1,4.9166667E-1,-4.768977E-1,5.942857E-1,9.408585E-1,-4.9444982E-1,1.23708375E-1,6.416327E-1,3.809091E-1,5.996E0,9.066757E-2,8.527132E-2,1.6261111E0,-8.967808E-1,9.216428E1,6.521739E-2,7.214827E-1,-5.0220567E-1,1.82625E3,1.5487036E1,5.6179777E-2,8.9E1,1.0433E3,-4.9942386E-1,-4.917384E-1,-3.0490494E-1,7.17165E-1,-4.5242938E-1,-4.144243E-1,-1.3692828E-1,-4.1678467E-1,7.328796E-1,6.092155E-1,-4.767325E-1,-4.770608E-1,7.0862025E-1,-2.620248E-1,7.2999316E-1,-4.804447E-1,6.5938246E-1,-1.13762334E-1,-4.7512662E-1,-1.5405655E-1,2.9708746E-1,6.3027E-1,-4.963901E-1,-3.1909317E-1,4.047165E-1,8.617327E-2,-2.5357014E-1,2.6714236E-1,-4.2784375E-1,-4.3916625E-1,3.3314976E-1,1.1911186E-1,-2.2352397E-1,-2.809613E-1,3.0254883E-1,4.4653422E-1,-3.958017E-1,7.214827E-1,-4.9998704E-1,-4.889076E-1,7.1070904E-1,5.0515467E-1,6.673457E-2,-2.7825066E-1,6.4235777E-1,-2.868807E-1,6.4438707E-1],"split_indices":[17,74,155,72,127,89,14,110,67,156,8,194,23,23,155,137,107,129,194,182,151,80,1,61,132,81,135,3,74,143,25,0,0,71,153,51,26,0,175,0,140,0,177,149,0,186,178,95,1,147,167,50,44,3,159,0,0,4,148,169,25,4,0,0,0,0,0,0,0,0,0,0,0,0,0,0,0,0,0,0,0,0,0,0,0,0,0,0,0,0,0,0,0,0,0,0,0,0,0,0,0,0,0,0,0,0,0,0,0],"split_type":[0,0,0,0,0,0,0,0,0,0,0,0,0,0,0,0,0,0,0,0,0,0,0,0,0,0,0,0,0,0,0,0,0,0,0,0,0,0,0,0,0,0,0,0,0,0,0,0,0,0,0,0,0,0,0,0,0,0,0,0,0,0,0,0,0,0,0,0,0,0,0,0,0,0,0,0,0,0,0,0,0,0,0,0,0,0,0,0,0,0,0,0,0,0,0,0,0,0,0,0,0,0,0,0,0,0,0,0,0],"sum_hessian":[1.248382E5,4.3814906E4,8.10233E4,3.294271E4,1.0872197E4,5.9487277E4,2.1536021E4,2.6322643E4,6.6200674E3,3.0224856E3,7.849712E3,3.2462252E4,2.7025025E4,1.1356073E3,2.0400414E4,3.7727444E1,2.6284914E4,6.1234473E3,4.9662003E2,2.9367632E3,8.572247E1,6.466815E2,7.203031E3,5.4151553E3,2.7047098E4,1.7032033E4,9.992992E3,6.326693E2,5.0293805E2,1.0136679E4,1.0263734E4,4.46942E0,3.3258026E1,2.6242719E4,4.2196865E1,6.0189624E3,1.04485085E2,1.4487273E2,3.517473E2,2.8849026E3,5.1860474E1,1.8240065E1,6.7482414E1,5.891437E2,5.7537846E1,3.7245688E3,3.4784617E3,3.8274592E3,1.587696E3,8.046601E3,1.9000496E4,4.6804043E3,1.2351629E4,3.5593035E3,6.433689E3,3.313723E1,5.995321E2,1.967305E2,3.0620755E2,8.456782E3,1.6798967E3,1.0125749E4,1.379847E2,2.5615875E4,6.268426E2,3.3258026E1,8.93884E0,4.664952E3,1.3540104E3,4.831805E0,9.965328E1,3.3362805E2,1.811927E1,1.8360859E1,3.3499615E1,1.0871562E0,6.6395256E1,2.1259943E1,5.678838E2,2.2281858E3,1.496383E3,1.7755325E3,1.7029292E3,3.7528499E3,7.460932E1,4.5075726E2,1.1369388E3,5.3968745E3,2.6497268E3,1.8445615E4,5.5487994E2,4.5326353E3,1.477691E2,5.111096E3,7.2405327E3,2.7907002E3,7.686032E2,6.044897E3,3.8879205E2,3.313723E1,1.6359326E2,3.4586773E1,2.716208E2,7.659593E3,7.971896E2,1.1035573E3,5.763394E2,1.9238187E2,9.933367E3],"tree_param":{"num_deleted":"0","num_feature":"276","num_nodes":"109","size_leaf_vector":"1"}},{"base_weights":[-1.9825414E-2,-1.0294707E0,4.5220798E-1,-1.3239465E0,-6.4532924E-1,1.8459032E-1,1.0034505E0,-4.2060025E-2,-1.3909674E0,-2.925109E-1,-9.830123E-1,-7.647746E-1,3.0900398E-1,-1.3782343E0,1.076591E0,-7.354761E-1,1.6205958E0,-1.3962328E0,5.047177E-1,-4.9466035E-1,6.257426E-1,-1.2028443E-1,-1.2612063E0,2.0994349E0,-8.6727464E-1,-5.2154917E-1,4.258128E-1,4.9479434E-1,-1.5141231E0,1.1378195E0,-9.9633574E-1,8.716518E-1,-4.3162844E-1,-4.470192E-1,2.0876102E0,-1.4212022E0,-8.23821E-1,-1.512754E-1,-1.1786116E0,-4.2031687E-1,1.2784173E0,-1.2878363E0,4.7193643E-1,-1.3169748E0,2.9335088E-1,2.4010184E0,-4.461026E-1,-9.6056485E-1,1.4160045E0,-1.2214042E0,-1.01428114E-1,4.9944526E-1,-1.2606596E0,-5.237818E-1,-4.3957117E-1,7.472073E-1,1.3162984E0,-1.614188E0,1.1933632E0,4.488665E-1,-4.4025984E-1,8.8250583E-1,4.149112E-1,-4.2482734E-1,-4.4567758E-1,6.1518216E-1,-3.820682E-1,-1.9870533E-1,1.949826E-1,-4.022124E-1,4.3891144E-1,3.5579985E-1,-4.474915E-1,4.6108875E-1,-4.70459E-1,-4.4394192E-1,7.2726184E-1,-3.8343123E-1,3.328562E-1,-4.0772843E-1,3.3032402E-2,-4.2866877E-1,5.5164635E-1,-3.9134443E-1,7.5337106E-1,2.4316527E-1,-3.1896162E-1,5.31399E-1,-4.7639102E-1,-4.311963E-1,2.1960683E-1,-1.2165837E-1,4.0709645E-1,1.0865324E-1,3.189765E-1,4.3798286E-1,-4.419563E-1,2.7123895E-1,-2.14312E-1,1.0480573E-1,4.2525408E-1,5.221519E-1,-5.50262E-1,-5.908683E-1,4.7794187E-1],"categories":[],"categories_nodes":[],"categories_segments":[],"categories_sizes":[],"default_left":[0,0,0,0,0,0,0,0,0,0,0,0,0,0,0,0,0,0,0,0,0,0,0,0,0,0,0,0,0,0,0,0,0,0,0,0,0,0,0,0,0,0,0,0,0,0,0,0,0,0,0,0,0,0,0,0,0,0,0,0,0,0,0,0,0,0,0,0,0,0,0,0,0,0,0,0,0,0,0,0,0,0,0,0,0,0,0,0,0,0,0,0,0,0,0,0,0,0,0,0,0,0,0,0,0],"id":1,"left_children":[1,3,5,7,9,11,13,15,17,19,21,23,25,27,29,31,33,35,-1,37,39,41,43,45,47,49,51,-1,53,55,57,59,-1,-1,61,63,65,67,69,71,73,75,77,79,81,83,-1,85,87,89,91,93,95,-1,-1,97,99,101,103,-1,-1,-1,-1,-1,-1,-1,-1,-1,-1,-1,-1,-1,-1,-1,-1,-1,-1,-1,-1,-1,-1,-1,-1,-1,-1,-1,-1,-1,-1,-1,-1,-1,-1,-1,-1,-1,-1,-1,-1,-1,-1,-1,-1,-1,-1],"loss_changes":[5.7192965E4,4.3238945E3,1.206332E4,1.8591367E3,1.976481E3,6.5024297E3,4.656912E3,1.2420082E3,3.3515234E2,1.5067488E3,2.0344609E3,1.8744875E3,4.722228E3,3.302666E2,3.2921348E3,8.6046576E2,4.6371405E2,2.9227344E2,0E0,1.5620612E3,1.0005345E3,1.4306348E3,5.561201E2,2.4225677E2,1.3132759E3,1.7645245E3,5.299571E3,0E0,6.088623E0,1.754873E3,1.009086E3,3.4117462E2,0E0,0E0,1.6207166E2,4.3671875E0,1.1150415E3,1.8142825E3,9.539458E2,9.714934E2,6.663988E2,4.997511E2,1.5332856E3,3.7212402E2,5.9568866E2,8.656836E1,0E0,1.0766567E3,2.613032E2,9.505803E2,1.6643419E3,3.164005E3,1.034489E3,0E0,0E0,1.8128052E3,1.691252E3,4.3205286E2,2.1101817E2,0E0,0E0,0E0,0E0,0E0,0E0,0E0,0E0,0E0,0E0,0E0,0E0,0E0,0E0,0E0,0E0,0E0,0E0,0E0,0E0,0E0,0E0,0E0,0E0,0E0,0E0,0E0,0E0,0E0,0E0,0E0,0E0,0E0,0E0,0E0,0E0,0E0,0E0,0E0,0E0,0E0,0E0,0E0,0E0,0E0,0E0],"parents":[2147483647,0,0,1,1,2,2,3,3,4,4,5,5,6,6,7,7,8,8,9,9,10,10,11,11,12,12,13,13,14,14,15,15,16,16,17,17,19,19,20,20,21,21,22,22,23,23,24,24,25,25,26,26,28,28,29,29,30,30,31,31,34,34,35,35,36,36,37,37,38,38,39,39,40,40,41,41,42,42,43,43,44,44,45,45,47,47,48,48,49,49,50,50,51,51,52,52,55,55,56,56,57,57,58,58],"right_children":[2,4,6,8,10,12,14,16,18,20,22,24,26,28,30,32,34,36,-1,38,40,42,44,46,48,50,52,-1,54,56,58,60,-1,-1,62,64,66,68,70,72,74,76,78,80,82,84,-1,86,88,90,92,94,96,-1,-1,98,100,102,104,-1,-1,-1,-1,-1,-1,-1,-1,-1,-1,-1,-1,-1,-1,-1,-1,-1,-1,-1,-1,-1,-1,-1,-1,-1,-1,-1,-1,-1,-1,-1,-1,-1,-1,-1,-1,-1,-1,-1,-1,-1,-1,-1,-1,-1,-1],"split_conditions":[1.5E-1,6.25E-2,1.411792E-1,-4.56E-1,1E0,-1.1084827E0,2.631579E-1,5.2444446E-1,3.25E2,8.3333336E-2,-3.068182E-1,4.424E-1,1.580081E-3,-1.1755556E0,5.263158E-2,2.1971598E0,6.600974E-1,1.6666667E-1,5.047177E-1,3.331468E-1,3.1694737E-1,5.7265306E-1,2E-1,-6.005585E-1,4.689735E-1,2.7123928E-1,1E-1,4.9479434E-1,-5.1166666E-1,-3.0177423E-1,1.4010277E0,7.8158684E-2,-4.3162844E-1,-4.470192E-1,4.1322613E-1,3.7E-1,-5.2721256E-1,3.601909E-1,9.168207E-1,-4.4E-1,9.2285717E-1,2.46126E-1,-2.6363635E-1,1.0364516E-1,5.257143E-1,1.2401367E1,-4.461026E-1,-1.15384616E-1,-5.0857115E-1,1.3107097E-1,4.611111E-1,6.131589E-1,-7.382231E-1,-5.237818E-1,-4.3957117E-1,5.5555556E-2,-1.6167428E0,-1.5585744E0,-7.373333E-2,4.488665E-1,-4.4025984E-1,8.8250583E-1,4.149112E-1,-4.2482734E-1,-4.4567758E-1,6.1518216E-1,-3.820682E-1,-1.9870533E-1,1.949826E-1,-4.022124E-1,4.3891144E-1,3.5579985E-1,-4.474915E-1,4.6108875E-1,-4.70459E-1,-4.4394192E-1,7.2726184E-1,-3.8343123E-1,3.328562E-1,-4.0772843E-1,3.3032402E-2,-4.2866877E-1,5.5164635E-1,-3.9134443E-1,7.5337106E-1,2.4316527E-1,-3.1896162E-1,5.31399E-1,-4.7639102E-1,-4.311963E-1,2.1960683E-1,-1.2165837E-1,4.0709645E-1,1.0865324E-1,3.189765E-1,4.3798286E-1,-4.419563E-1,2.7123895E-1,-2.14312E-1,1.0480573E-1,4.2525408E-1,5.221519E-1,-5.50262E-1,-5.908683E-1,4.7794187E-1],"split_indices":[17,17,151,88,29,81,14,84,6,162,75,128,19,66,157,8,155,161,0,186,55,178,157,201,200,135,167,0,92,197,141,129,0,0,145,74,195,204,184,104,177,137,66,77,177,2,0,106,193,137,85,152,41,0,0,169,45,185,38,0,0,0,0,0,0,0,0,0,0,0,0,0,0,0,0,0,0,0,0,0,0,0,0,0,0,0,0,0,0,0,0,0,0,0,0,0,0,0,0,0,0,0,0,0,0],"split_type":[0,0,0,0,0,0,0,0,0,0,0,0,0,0,0,0,0,0,0,0,0,0,0,0,0,0,0,0,0,0,0,0,0,0,0,0,0,0,0,0,0,0,0,0,0,0,0,0,0,0,0,0,0,0,0,0,0,0,0,0,0,0,0,0,0,0,0,0,0,0,0,0,0,0,0,0,0,0,0,0,0,0,0,0,0,0,0,0,0,0,0,0,0,0,0,0,0,0,0,0,0,0,0,0,0],"sum_hessian":[1.200035E5,3.8230355E4,8.177315E4,2.163948E4,1.6590875E4,5.5049168E4,2.6723979E4,1.0752451E3,2.0564236E4,8.1145205E3,8.4763545E3,6.3776904E3,4.8671477E4,7.956981E2,2.592828E4,7.5918304E2,3.1606213E2,2.052961E4,3.462673E1,6.650831E3,1.4636897E3,2.067161E3,6.4091934E3,2.1967656E2,6.1580137E3,6.0007197E3,4.2670758E4,3.3701626E1,7.619965E2,2.518484E4,7.434393E2,2.3102097E2,5.281621E2,4.0971455E1,2.7509067E2,1.967009E4,8.595185E2,4.4286177E3,2.2222131E3,5.625045E2,9.0118524E2,6.9527167E2,1.3718892E3,6.1873784E3,2.2181453E2,2.0294174E2,1.6734816E1,5.916843E3,2.411709E2,2.2502512E3,3.7504688E3,4.088634E4,1.7844198E3,1.2666049E2,6.35336E2,7.900116E3,1.7284725E4,5.8003705E2,1.6340222E2,1.8262096E2,4.840001E1,1.2291693E2,1.5217374E2,1.8244857E4,1.4252336E3,1.15805984E2,7.437125E2,2.7039878E3,1.72463E3,2.0942017E3,1.280115E2,2.2501491E2,3.3748956E2,8.265716E2,7.461368E1,6.616552E2,3.3616455E1,3.66077E2,1.00581226E3,6.010042E3,1.7733673E2,1.0494309E2,1.1687144E2,5.5490475E0,1.973927E2,3.2373483E2,5.593108E3,2.160283E2,2.5142582E1,2.0265194E3,2.2373167E2,3.1039705E3,6.464985E2,3.28823E4,8.0040386E3,1.2886983E2,1.6555499E3,7.1345024E3,7.6561395E2,1.6382616E3,1.5646463E4,3.5275124E1,5.4476196E2,1.789501E1,1.4550722E2],"tree_param":{"num_deleted":"0","num_feature":"276","num_nodes":"105","size_leaf_vector":"1"}},{"base_weights":[-2.6449436E-2,-9.1338265E-1,3.1785306E-1,-4.7009653E-1,-1.1622527E0,9.0477355E-2,7.063944E-1,-1.1195276E0,-2.7125177E-1,-6.234343E-1,-1.2285533E0,5.1110953E-1,-1.312681E-1,8.070353E-1,-5.125689E-1,-1.2478374E0,1.2808061E0,-1.02903776E-1,-9.966657E-1,-1.1659127E0,2.3191446E-1,-1.2593678E0,-7.3223275E-1,-6.539554E-1,6.3491035E-1,-4.9961096E-1,6.862172E-2,-2.296904E-1,8.9088386E-1,-1.2910155E0,8.3880985E-1,-3.8596463E-1,5.6219614E-1,-4.7128865E-1,1.4451904E0,-6.931293E-1,2.6753482E-1,-1.2181357E0,7.680556E-1,-1.3537272E0,5.046755E-1,8.781255E-1,-4.2136776E-1,-1.2672542E0,2.5964057E-1,-3.8816085E-1,3.6396E-1,4.733914E-1,-1.1623598E0,-1.6811122E0,6.9286245E-1,1.0872439E0,-6.4670384E-1,-1.8055698E-1,5.952421E-1,-5.159351E-1,1.4820502E0,2.8526607E-1,1.033522E0,-1.4456275E0,1.3071586E0,1.5830452E0,-1.0132469E0,-3.9094225E-1,4.640034E-1,-3.28069E-1,4.5187646E-1,2.3890296E-1,-2.735753E-1,-2.8954008E-1,1.5401982E-1,-4.025558E-1,3.8297686E-1,4.882153E-1,-4.2889798E-1,-3.936093E-1,-4.7904357E-1,6.31275E-1,-3.9627245E-1,-4.2435062E-1,3.7182704E-1,-1.9884345E-1,-3.825845E-1,-3.8241157E-1,9.6002364E-1,4.353676E-1,-3.871331E-1,-5.483422E-1,2.9381087E-1,4.9155214E-1,-3.995611E-1,5.3885037E-1,-6.124437E-1,2.3481536E-1,-2.3972161E-1,4.8639902E-1,-2.5028428E-2,-2.2508031E-1,1.547788E-1,-2.9158187E-1,7.801084E-4,-5.491394E-2,3.1505877E-1,-2.3062624E-2,-4.8460197E-1,-3.8815227E-1,5.346264E-1,-1.8749547E-1,3.2491276E-1,-1.9021563E-1,3.2657033E-1,-4.595694E-1,5.3439355E-1,5.4635835E-1,-6.25001E-1,5.171421E-1,-5.350891E-1,-5.6579036E-1,3.901394E-1],"categories":[],"categories_nodes":[],"categories_segments":[],"categories_sizes":[],"default_left":[0,0,0,0,0,0,0,0,0,0,0,0,0,0,0,0,0,0,0,0,0,0,0,0,0,0,0,0,0,0,0,0,0,0,0,0,0,0,0,0,0,0,0,0,0,0,0,0,0,0,0,0,0,0,0,0,0,0,0,0,0,0,0,0,0,0,0,0,0,0,0,0,0,0,0,0,0,0,0,0,0,0,0,0,0,0,0,0,0,0,0,0,0,0,0,0,0,0,0,0,0,0,0,0,0,0,0,0,0,0,0,0,0,0,0,0,0,0,0],"id":2,"left_children":[1,3,5,7,9,11,13,15,17,19,21,23,25,27,29,31,33,35,37,39,41,43,45,47,49,51,53,55,57,59,61,-1,63,-1,65,67,69,71,73,75,77,79,-1,81,83,-1,85,87,89,91,93,95,97,99,101,103,105,107,109,111,113,115,117,-1,-1,-1,-1,-1,-1,-1,-1,-1,-1,-1,-1,-1,-1,-1,-1,-1,-1,-1,-1,-1,-1,-1,-1,-1,-1,-1,-1,-1,-1,-1,-1,-1,-1,-1,-1,-1,-1,-1,-1,-1,-1,-1,-1,-1,-1,-1,-1,-1,-1,-1,-1,-1,-1,-1,-1],"loss_changes":[3.421729E4,3.4562227E3,7.1308604E3,1.4547996E3,7.1610156E2,4.7495522E3,3.6559385E3,8.149961E2,1.0535631E3,1.0214042E3,2.7233594E2,2.5357324E3,2.4550525E3,2.3929473E3,2.3924053E3,1.764209E2,6.532463E1,1.5315422E3,6.3605505E2,4.2325305E2,9.0528503E2,2.0183789E2,6.4497144E2,9.6853394E2,2.1338506E3,2.7385522E3,2.8364854E3,1.01033154E3,2.199584E3,5.8144507E2,1.1476404E3,0E0,9.971375E1,0E0,2.144345E1,8.809404E2,1.3048738E3,4.4745874E2,3.4569186E2,1.0178955E1,4.0236868E2,5.0992166E2,0E0,8.0353516E1,3.9980585E2,0E0,6.412073E2,6.1381146E2,5.5494434E2,4.9009558E2,2.0788643E3,6.2250085E2,1.2929692E3,2.1268555E3,2.458519E3,8.52326E2,2.4837823E2,3.5269453E3,1.8926582E3,3.8194287E2,1.4593423E2,2.8433325E2,4.8493866E2,0E0,0E0,0E0,0E0,0E0,0E0,0E0,0E0,0E0,0E0,0E0,0E0,0E0,0E0,0E0,0E0,0E0,0E0,0E0,0E0,0E0,0E0,0E0,0E0,0E0,0E0,0E0,0E0,0E0,0E0,0E0,0E0,0E0,0E0,0E0,0E0,0E0,0E0,0E0,0E0,0E0,0E0,0E0,0E0,0E0,0E0,0E0,0E0,0E0,0E0,0E0,0E0,0E0,0E0,0E0,0E0],"parents":[2147483647,0,0,1,1,2,2,3,3,4,4,5,5,6,6,7,7,8,8,9,9,10,10,11,11,12,12,13,13,14,14,15,15,16,16,17,17,18,18,19,19,20,20,21,21,22,22,23,23,24,24,25,25,26,26,27,27,28,28,29,29,30,30,32,32,34,34,35,35,36,36,37,37,38,38,39,39,40,40,41,41,43,43,44,44,46,46,47,47,48,48,49,49,50,50,51,51,52,52,53,53,54,54,55,55,56,56,57,57,58,58,59,59,60,60,61,61,62,62],"right_children":[2,4,6,8,10,12,14,16,18,20,22,24,26,28,30,32,34,36,38,40,42,44,46,48,50,52,54,56,58,60,62,-1,64,-1,66,68,70,72,74,76,78,80,-1,82,84,-1,86,88,90,92,94,96,98,100,102,104,106,108,110,112,114,116,118,-1,-1,-1,-1,-1,-1,-1,-1,-1,-1,-1,-1,-1,-1,-1,-1,-1,-1,-1,-1,-1,-1,-1,-1,-1,-1,-1,-1,-1,-1,-1,-1,-1,-1,-1,-1,-1,-1,-1,-1,-1,-1,-1,-1,-1,-1,-1,-1,-1,-1,-1,-1,-1,-1,-1,-1],"split_conditions":[1.1456634E-3,1E0,8.6042607E-1,6.25E-2,-3.068182E-1,-3.9083335E-1,5.6179777E-2,2.57125E-1,5.169758E-1,1E-1,1.5E-1,2.777778E-1,7.172061E-1,2.972973E-1,-3.621375E-2,2.5E-1,1.04E0,6.008911E-1,4.2E-1,1.4E0,3.6585364E-2,6.089474E-1,2.8052527E-1,8.322875E-2,4.4E1,-5.232667E-1,8.4E1,8.445E-1,7.0199023E2,7.342891E-1,7.49783E-2,-3.8596463E-1,1.1E0,-4.7128865E-1,3.42343E-1,-5.1681113E-1,8.752E2,6.505882E-1,-4.233333E0,6.9777446E-4,2.0187423E-1,7.1202315E-2,-4.2136776E-1,-1.0536083E0,8.492026E-1,-3.8816085E-1,2.8756213E-1,4.3925855E-2,-8.35E-1,-6.944444E-1,2.8778794E-1,-6.323697E-1,4.2912972E-1,-6.8E-1,7.001827E-1,-1.5554054E-1,-2.8416422E-1,5.1724136E-1,1.0685303E1,3.8E1,-6.3529587E-1,2.4988313E-1,8.633182E-1,-3.9094225E-1,4.640034E-1,-3.28069E-1,4.5187646E-1,2.3890296E-1,-2.735753E-1,-2.8954008E-1,1.5401982E-1,-4.025558E-1,3.8297686E-1,4.882153E-1,-4.2889798E-1,-3.936093E-1,-4.7904357E-1,6.31275E-1,-3.9627245E-1,-4.2435062E-1,3.7182704E-1,-1.9884345E-1,-3.825845E-1,-3.8241157E-1,9.6002364E-1,4.353676E-1,-3.871331E-1,-5.483422E-1,2.9381087E-1,4.9155214E-1,-3.995611E-1,5.3885037E-1,-6.124437E-1,2.3481536E-1,-2.3972161E-1,4.8639902E-1,-2.5028428E-2,-2.2508031E-1,1.547788E-1,-2.9158187E-1,7.801084E-4,-5.491394E-2,3.1505877E-1,-2.3062624E-2,-4.8460197E-1,-3.8815227E-1,5.346264E-1,-1.8749547E-1,3.2491276E-1,-1.9021563E-1,3.2657033E-1,-4.595694E-1,5.3439355E-1,5.4635835E-1,-6.25001E-1,5.171421E-1,-5.350891E-1,-5.6579036E-1,3.901394E-1],"split_indices":[19,29,155,132,75,62,169,107,187,17,157,14,40,14,185,167,177,155,67,176,174,51,210,131,25,41,21,118,16,145,147,0,177,0,125,39,23,64,3,19,180,131,0,190,197,0,201,131,70,91,194,196,190,81,139,110,186,14,2,0,187,185,55,0,0,0,0,0,0,0,0,0,0,0,0,0,0,0,0,0,0,0,0,0,0,0,0,0,0,0,0,0,0,0,0,0,0,0,0,0,0,0,0,0,0,0,0,0,0,0,0,0,0,0,0,0,0,0,0],"split_type":[0,0,0,0,0,0,0,0,0,0,0,0,0,0,0,0,0,0,0,0,0,0,0,0,0,0,0,0,0,0,0,0,0,0,0,0,0,0,0,0,0,0,0,0,0,0,0,0,0,0,0,0,0,0,0,0,0,0,0,0,0,0,0,0,0,0,0,0,0,0,0,0,0,0,0,0,0,0,0,0,0,0,0,0,0,0,0,0,0,0,0,0,0,0,0,0,0,0,0,0,0,0,0,0,0,0,0,0,0,0,0,0,0,0,0,0,0,0,0],"sum_hessian":[1.12048734E5,3.1332822E4,8.0715914E4,1.1266994E4,2.0065828E4,5.091911E4,2.9796803E4,2.6400166E3,8.626978E3,2.1996802E3,1.7866148E4,1.7576564E4,3.3342547E4,2.752463E4,2.2721714E3,2.506511E3,1.3350545E2,7.0029365E3,1.624041E3,1.3457908E3,8.538893E2,1.6820307E4,1.0458413E3,1.6878892E3,1.5888675E4,1.1728532E4,2.1614014E4,2.0594387E3,2.5465193E4,1.4417261E3,8.3044543E2,2.4543098E3,5.220123E1,6.8098807E0,1.2669557E2,2.7000437E3,4.3028926E3,1.4432277E3,1.8081328E2,1.2099526E3,1.3583823E2,6.1249176E2,2.4139748E2,1.6733596E4,8.671221E1,6.914137E2,3.5442764E2,5.246307E2,1.1632584E3,3.871814E2,1.5501493E4,9.944033E2,1.0734129E4,1.467226E4,6.9417534E3,1.7649882E3,2.9445044E2,4.8549365E3,2.0610256E4,1.3611693E3,8.0556755E1,5.924992E2,2.3794624E2,1.7921316E1,3.4279915E1,2.5786703E0,1.24116905E2,3.4547455E2,2.354569E3,7.150395E2,3.5878533E3,1.375478E3,6.774973E1,1.3017361E2,5.063967E1,1.0382578E3,1.7169473E2,7.23194E1,6.351883E1,8.2986046E1,5.2950574E2,2.2041528E2,1.651318E4,5.735196E1,2.9360252E1,2.1394615E2,1.4048148E2,9.4090904E1,4.305398E2,6.58891E1,1.0973694E3,3.5983387E1,3.51198E2,1.4621361E4,8.8013184E2,6.826009E2,3.1180243E2,9.856497E3,8.776324E2,2.75673E3,1.191553E4,2.5610933E3,4.38066E3,1.2620458E3,5.0294235E2,2.8398724E1,2.660517E2,2.2677195E3,2.587217E3,6.58258E2,1.9951998E4,1.3262383E3,3.4931007E1,7.035329E1,1.020347E1,5.691892E2,2.3309986E1,1.7291022E2,6.5036026E1],"tree_param":{"num_deleted":"0","num_feature":"276","num_nodes":"119","size_leaf_vector":"1"}},{"base_weights":[-2.8802162E-2,-7.940917E-1,2.3825328E-1,-1.1213056E0,-4.5093676E-1,1.4580572E-1,9.1015023E-1,-1.1397127E0,1.0513136E0,-7.848788E-1,-1.017304E-1,1.9773881E-1,-7.7533597E-1,-6.1335063E-1,1.0072843E0,-1.1673781E0,-5.8855826E-1,-3.7120938E-1,1.2329262E0,-1.2684883E0,-5.7968295E-1,1.9078463E-1,-8.461616E-1,-7.532946E-1,2.4599856E-1,-1.2592901E0,5.376363E-1,7.164405E-1,-1.6988859E0,-1.6717039E0,1.046157E0,-4.503977E-1,-1.189961E0,6.835979E-1,-1.2312158E0,-3.5471416E-1,3.9000836E-1,-1.3599159E0,-3.609831E-1,2.980675E0,-6.2966263E-1,-4.7771752E-1,8.434235E-1,-9.6953726E-1,1.7708894E0,-9.825542E-1,9.585405E-1,8.728565E-2,5.141624E-1,2.8645358E0,-1.3105754E0,1.1690259E0,-1.2441745E0,-7.730689E-1,1.3122052E0,-1.1358519E0,-2.953816E0,-4.5935178E-1,-5.704985E-1,1.0925859E0,-1.2375252E0,-3.611393E-1,4.433213E-1,-3.564512E-1,-3.8170806E-1,-3.7609068E-1,4.7805148E-1,-4.608653E-1,-3.644256E-1,-4.0118164E-1,-5.287893E-1,-3.515755E-1,1.2271324E0,-1.51744215E-2,-2.7351972E-1,-2.4442843E-1,2.4372217E-1,-2.7663353E-1,3.450759E-1,-3.6529565E-1,6.8773255E-2,-3.823144E-1,8.4431535E-1,2.5996605E-1,-3.8334808E-1,4.3180907E-1,-5.7669955E-1,5.637151E-2,-3.0475417E-1,6.3943215E-2,2.6414934E-1,1.0245476E0,-3.7514672E-1,-4.0866408E-1,7.2788244E-1,-4.8415136E-1,4.260987E-1,-4.849717E-1,4.2736182E-1,-6.4556223E-1,4.2780825E-1,-4.250845E-1,3.5897857E-1,-6.976745E-1,-9.8294514E-1,-8.4344333E-1,3.3282244E-1,4.1175687E-1,-5.3164905E-1],"categories":[],"categories_nodes":[],"categories_segments":[],"categories_sizes":[],"default_left":[0,0,0,0,0,0,0,0,0,0,0,0,0,0,0,0,0,0,0,0,0,0,0,0,0,0,0,0,0,0,0,0,0,0,0,0,0,0,0,0,0,0,0,0,0,0,0,0,0,0,0,0,0,0,0,0,0,0,0,0,0,0,0,0,0,0,0,0,0,0,0,0,0,0,0,0,0,0,0,0,0,0,0,0,0,0,0,0,0,0,0,0,0,0,0,0,0,0,0,0,0,0,0,0,0,0,0,0,0],"id":3,"left_children":[1,3,5,7,9,11,13,15,17,19,21,23,25,27,29,31,33,-1,35,37,39,41,43,45,47,49,51,53,55,57,59,61,63,65,67,-1,-1,69,-1,71,73,75,77,79,81,83,85,87,89,91,93,95,97,-1,99,101,103,-1,-1,105,107,-1,-1,-1,-1,-1,-1,-1,-1,-1,-1,-1,-1,-1,-1,-1,-1,-1,-1,-1,-1,-1,-1,-1,-1,-1,-1,-1,-1,-1,-1,-1,-1,-1,-1,-1,-1,-1,-1,-1,-1,-1,-1,-1,-1,-1,-1,-1,-1],"loss_changes":[2.1086127E4,2.9963652E3,4.750694E3,5.475488E2,1.519323E3,3.2164995E3,1.3695508E3,2.0588086E2,4.9447433E1,6.601719E2,1.3873225E3,2.9213682E3,2.280885E3,8.024679E2,9.073994E2,2.0831445E2,5.3186755E2,0E0,1.8930176E1,1.0187744E1,8.342798E2,1.996013E3,5.819894E2,1.2073505E3,2.578048E3,5.583584E2,1.0895387E3,4.9422473E2,2.1277942E2,1.1202698E0,9.1031055E2,5.762728E2,3.3203125E-1,3.873933E2,3.0255127E-1,0E0,0E0,5.1018066E0,0E0,3.040277E2,7.5359766E2,9.8346045E2,1.255053E3,5.1094946E2,2.6182025E2,1.4815254E3,5.063835E2,4.2240264E3,2.48331E3,7.796805E1,5.0323828E2,5.0206726E2,2.5427188E2,0E0,8.685812E1,1.4120398E2,1.1457764E1,0E0,0E0,5.549512E2,2.4145041E2,0E0,0E0,0E0,0E0,0E0,0E0,0E0,0E0,0E0,0E0,0E0,0E0,0E0,0E0,0E0,0E0,0E0,0E0,0E0,0E0,0E0,0E0,0E0,0E0,0E0,0E0,0E0,0E0,0E0,0E0,0E0,0E0,0E0,0E0,0E0,0E0,0E0,0E0,0E0,0E0,0E0,0E0,0E0,0E0,0E0,0E0,0E0,0E0],"parents":[2147483647,0,0,1,1,2,2,3,3,4,4,5,5,6,6,7,7,8,8,9,9,10,10,11,11,12,12,13,13,14,14,15,15,16,16,18,18,19,19,20,20,21,21,22,22,23,23,24,24,25,25,26,26,27,27,28,28,29,29,30,30,31,31,32,32,33,33,34,34,37,37,39,39,40,40,41,41,42,42,43,43,44,44,45,45,46,46,47,47,48,48,49,49,50,50,51,51,52,52,54,54,55,55,56,56,59,59,60,60],"right_children":[2,4,6,8,10,12,14,16,18,20,22,24,26,28,30,32,34,-1,36,38,40,42,44,46,48,50,52,54,56,58,60,62,64,66,68,-1,-1,70,-1,72,74,76,78,80,82,84,86,88,90,92,94,96,98,-1,100,102,104,-1,-1,106,108,-1,-1,-1,-1,-1,-1,-1,-1,-1,-1,-1,-1,-1,-1,-1,-1,-1,-1,-1,-1,-1,-1,-1,-1,-1,-1,-1,-1,-1,-1,-1,-1,-1,-1,-1,-1,-1,-1,-1,-1,-1,-1,-1,-1,-1,-1,-1,-1],"split_conditions":[1.6666667E-1,6.25E-2,1.2396128E0,2.57125E-1,5.9387755E-1,4.8780486E-2,-4.38E-2,1.6666667E-1,3.42343E-1,7.421356E-4,3.939999E-1,-3.5142857E-1,8.5325E-1,2.7176344E-1,5.1483234E2,-4.56E-1,8.923077E-2,-3.7120938E-1,1.0342857E0,1E0,-4.7333333E-1,3.201585E-1,1.0493723E0,5.7E1,1.1762255E3,-1.2830769E0,2.5705883E-1,-2.5596477E-2,1.58398E3,5.1724136E-1,1.38E2,5.824E-1,4.8E-1,6.857143E-1,-5.2721256E-1,-3.5471416E-1,3.9000836E-1,1.0607142E0,-3.609831E-1,3.1112513E-1,-1.01136364E-1,6.666667E-2,3.723077E-1,1.2E0,7.780681E-1,-1.3436496E0,-5.915916E-1,7.236842E-2,6.008911E-1,-5.051834E-1,3.587E4,-2.8570125E-1,2.0202099E-1,-7.730689E-1,1.1248535E1,9.2017645E-1,2.972973E-1,-4.5935178E-1,-5.704985E-1,-6.021429E-1,6.649167E-1,-3.611393E-1,4.433213E-1,-3.564512E-1,-3.8170806E-1,-3.7609068E-1,4.7805148E-1,-4.608653E-1,-3.644256E-1,-4.0118164E-1,-5.287893E-1,-3.515755E-1,1.2271324E0,-1.51744215E-2,-2.7351972E-1,-2.4442843E-1,2.4372217E-1,-2.7663353E-1,3.450759E-1,-3.6529565E-1,6.8773255E-2,-3.823144E-1,8.4431535E-1,2.5996605E-1,-3.8334808E-1,4.3180907E-1,-5.7669955E-1,5.637151E-2,-3.0475417E-1,6.3943215E-2,2.6414934E-1,1.0245476E0,-3.7514672E-1,-4.0866408E-1,7.2788244E-1,-4.8415136E-1,4.260987E-1,-4.849717E-1,4.2736182E-1,-6.4556223E-1,4.2780825E-1,-4.250845E-1,3.5897857E-1,-6.976745E-1,-9.8294514E-1,-8.4344333E-1,3.3282244E-1,4.1175687E-1,-5.3164905E-1],"split_indices":[132,17,155,107,178,159,116,161,125,19,187,86,40,133,16,88,94,0,177,29,104,201,181,27,16,83,88,182,4,14,25,84,74,177,195,0,0,84,0,127,110,168,86,177,191,190,183,167,155,182,9,200,151,0,2,118,14,0,0,90,128,0,0,0,0,0,0,0,0,0,0,0,0,0,0,0,0,0,0,0,0,0,0,0,0,0,0,0,0,0,0,0,0,0,0,0,0,0,0,0,0,0,0,0,0,0,0,0,0],"split_type":[0,0,0,0,0,0,0,0,0,0,0,0,0,0,0,0,0,0,0,0,0,0,0,0,0,0,0,0,0,0,0,0,0,0,0,0,0,0,0,0,0,0,0,0,0,0,0,0,0,0,0,0,0,0,0,0,0,0,0,0,0,0,0,0,0,0,0,0,0,0,0,0,0,0,0,0,0,0,0,0,0,0,0,0,0,0,0,0,0,0,0,0,0,0,0,0,0,0,0,0,0,0,0,0,0,0,0,0,0],"sum_hessian":[1.03171914E5,2.6688844E4,7.648307E4,1.3660584E4,1.3028261E4,6.72335E4,9.249566E3,1.3546291E4,1.1429296E2,6.659045E3,6.3692153E3,6.364599E4,3.5875146E3,5.540614E2,8.695505E3,1.2897766E4,6.485247E2,7.9752927E0,1.06317665E2,1.9821926E3,4.6768525E3,4.5730396E3,1.7961757E3,3.073007E3,6.057298E4,2.6213433E3,9.661714E2,2.4916812E2,3.048933E2,1.2376838E2,8.571736E3,3.9447806E2,1.2503288E4,2.1763913E2,4.3088562E2,2.4245849E0,1.0389308E2,8.169543E2,1.1652383E3,6.3932213E1,4.6129204E3,2.2591975E3,2.3138423E3,1.7159119E3,8.0263695E1,2.7104346E3,3.6257233E2,3.8052758E4,2.252022E4,3.1525654E1,2.5898174E3,7.136363E2,2.5253513E2,3.766023E1,2.1150789E2,2.1178116E2,9.3112144E1,8.157491E1,4.2193466E1,8.40145E3,1.7028615E2,2.8391623E2,1.1056181E2,1.2252502E4,2.5078607E2,6.943375E1,1.4820538E2,1.7340172E1,4.1354544E2,7.7755493E2,3.939939E1,1.3470697E1,5.0461517E1,1.511347E3,3.1015732E3,1.7915303E3,4.6766714E2,3.422852E2,1.9715571E3,1.4216531E3,2.9425885E2,2.042765E1,5.9836044E1,3.7294965E2,2.337485E3,3.1114246E2,5.1429882E1,3.487276E4,3.1799983E3,1.2363059E4,1.0157162E4,2.7955116E1,3.5705383E0,2.5551445E3,3.4673077E1,5.8657417E1,6.549789E2,2.2195705E2,3.0578083E1,6.1589837E0,2.053489E2,1.8935358E2,2.2427576E1,3.438055E1,5.8731598E1,3.5332947E1,8.366117E3,2.868445E1,1.416017E2],"tree_param":{"num_deleted":"0","num_feature":"276","num_nodes":"109","size_leaf_vector":"1"}},{"base_weights":[-2.9356794E-2,-8.5451174E-1,1.3879363E-1,-4.4506353E-1,-1.0905948E0,4.6321765E-1,-5.750267E-3,-8.2532406E-1,6.595733E-2,-1.108406E0,-1.2015764E-1,5.233819E-1,-7.653933E-1,-4.531754E-1,1.3837808E-1,-2.2119299E-2,-9.881183E-1,-4.1083527E-1,9.0324426E-1,-6.379418E-1,-1.140457E0,-3.526367E-1,1.0230063E0,5.500307E-1,-1.4650503E0,-1.4126023E0,1.2017766E0,-6.7764443E-1,4.0571517E-1,-3.32532E-1,2.8098857E-1,1.103262E0,-5.9444934E-1,-1.0628616E0,6.7407143E-1,5.823893E-1,-9.256729E-1,1.1787896E0,-4.053891E-1,7.0970875E-1,-3.4502625E-1,-3.3982736E-1,-1.1776654E0,1.672389E0,-3.7393612E-1,5.9268576E-1,-6.7815435E-1,-2.103241E0,1.2429502E0,-1.5589113E0,1.7819126E0,-5.7551837E-1,1.6641098E0,7.21896E-1,-8.266002E-1,-4.2538822E-1,8.024406E-1,5.9172325E-3,-8.095463E-1,-6.879053E-1,3.351871E-1,-3.8124982E-1,4.7072956E-1,-2.847933E-1,3.4830925E-1,-8.700226E-2,-3.504004E-1,-3.976809E-1,4.3610057E-1,-2.964865E-1,5.3462195E-1,-3.413239E-1,3.7514603E-1,-3.9876163E-1,4.0972292E-1,-3.4411508E-1,4.1529438E-1,-3.453088E-1,-3.7347752E-1,-2.5891966E-1,5.3053397E-1,1.3338532E-1,2.879651E-1,-5.660074E-1,-4.2395904E-3,-5.052897E-1,-7.2052574E-1,-7.3206764E-1,4.2798567E-1,-5.095537E-1,3.5075718E-1,6.2624174E-1,-4.0320185E-1,-5.1294446E-1,5.621364E-1,-5.228679E-1,3.283377E-1,-2.688486E-1,4.4519976E-1,1.0637858E-1,-4.7354314E-1,2.875632E-1,-4.202552E-1,1.377178E-1,-2.1176556E-1,-3.008336E-1,2.7254194E-1,-3.5907865E-1,8.05917E-2,3.185616E-2,1.785465E-1],"categories":[],"categories_nodes":[],"categories_segments":[],"categories_sizes":[],"default_left":[0,0,0,0,0,0,0,0,0,0,0,0,0,0,0,0,0,0,0,0,0,0,0,0,0,0,0,0,0,0,0,0,0,0,0,0,0,0,0,0,0,0,0,0,0,0,0,0,0,0,0,0,0,0,0,0,0,0,0,0,0,0,0,0,0,0,0,0,0,0,0,0,0,0,0,0,0,0,0,0,0,0,0,0,0,0,0,0,0,0,0,0,0,0,0,0,0,0,0,0,0,0,0,0,0,0,0,0,0,0,0],"id":4,"left_children":[1,3,5,7,9,11,13,15,17,19,21,23,25,27,29,31,33,35,37,39,41,-1,43,45,47,49,51,53,55,57,59,61,63,65,67,69,71,73,-1,75,-1,-1,77,79,-1,81,83,85,87,89,91,-1,93,95,97,99,101,103,105,107,109,-1,-1,-1,-1,-1,-1,-1,-1,-1,-1,-1,-1,-1,-1,-1,-1,-1,-1,-1,-1,-1,-1,-1,-1,-1,-1,-1,-1,-1,-1,-1,-1,-1,-1,-1,-1,-1,-1,-1,-1,-1,-1,-1,-1,-1,-1,-1,-1,-1,-1],"loss_changes":[1.3304118E4,1.5685459E3,3.7352468E3,1.1539293E3,1.7780957E2,1.815146E3,3.5535403E3,4.4516016E2,1.0121085E3,1.5170801E2,2.2639099E2,1.2410288E3,1.4614006E3,2.5887322E3,2.7991238E3,3.7087106E2,3.5241528E2,8.266136E2,5.7303314E2,4.4740405E2,1.3759766E0,0E0,1.3492361E2,1.2103794E3,5.380142E2,4.0619922E2,4.1340933E2,2.2196616E3,9.17772E2,1.564182E3,1.6801877E3,2.1668137E2,2.3886214E2,2.1982324E2,1.9278621E2,1.0421351E3,4.9262933E2,3.8639404E2,0E0,2.2554996E2,0E0,0E0,1.4284668E0,1.8699036E1,0E0,1.213209E3,6.2245483E2,2.7355103E1,4.3876694E1,3.1651672E2,3.935688E1,0E0,1.7879321E2,9.426702E2,1.5477192E3,8.097378E2,6.4924524E2,1.8286676E3,1.3358418E3,8.2566327E2,1.8036206E3,0E0,0E0,0E0,0E0,0E0,0E0,0E0,0E0,0E0,0E0,0E0,0E0,0E0,0E0,0E0,0E0,0E0,0E0,0E0,0E0,0E0,0E0,0E0,0E0,0E0,0E0,0E0,0E0,0E0,0E0,0E0,0E0,0E0,0E0,0E0,0E0,0E0,0E0,0E0,0E0,0E0,0E0,0E0,0E0,0E0,0E0,0E0,0E0,0E0,0E0],"parents":[2147483647,0,0,1,1,2,2,3,3,4,4,5,5,6,6,7,7,8,8,9,9,10,10,11,11,12,12,13,13,14,14,15,15,16,16,17,17,18,18,19,19,20,20,22,22,23,23,24,24,25,25,26,26,27,27,28,28,29,29,30,30,31,31,32,32,33,33,34,34,35,35,36,36,37,37,39,39,42,42,43,43,45,45,46,46,47,47,48,48,49,49,50,50,52,52,53,53,54,54,55,55,56,56,57,57,58,58,59,59,60,60],"right_children":[2,4,6,8,10,12,14,16,18,20,22,24,26,28,30,32,34,36,38,40,42,-1,44,46,48,50,52,54,56,58,60,62,64,66,68,70,72,74,-1,76,-1,-1,78,80,-1,82,84,86,88,90,92,-1,94,96,98,100,102,104,106,108,110,-1,-1,-1,-1,-1,-1,-1,-1,-1,-1,-1,-1,-1,-1,-1,-1,-1,-1,-1,-1,-1,-1,-1,-1,-1,-1,-1,-1,-1,-1,-1,-1,-1,-1,-1,-1,-1,-1,-1,-1,-1,-1,-1,-1,-1,-1,-1,-1,-1,-1],"split_conditions":[7.711441E-4,1E0,6.666667E-2,3.7421054E-1,7.08E-1,5.8139535E-3,-1.3714285E-1,-2.652E-1,7.4285716E-1,-3.7306756E-1,-2.275E-2,1E0,2.8715155E0,9.994E0,2.2978732E-1,9E0,2.5155875E-1,2.1948911E-2,2.0428571E-1,-3.9728838E-1,6.25E-2,-3.526367E-1,2.0187423E-1,4.054054E-2,1.9560786E0,3.123077E-1,8.332395E-2,-7.382231E-1,-5.496196E-1,5.8616945E-3,6.076923E-2,6.4E-1,2.1619944E-1,4.3457142E-1,1.11E2,2.4291979E-1,1.06467285E1,5.767016E-1,-4.053891E-1,5E-2,-3.4502625E-1,-3.3982736E-1,5.9387755E-1,1.9561017E-1,-3.7393612E-1,1.0910921E0,-4.8155066E-1,8.8763416E-2,3.103671E-1,1.3142858E0,2.5192112E-1,-5.7551837E-1,1E2,-1.0827273E0,1.2571429E0,3.4E1,2.38E2,6.4E-1,5.01875E-1,1.6251166E-1,3.23E3,-3.8124982E-1,4.7072956E-1,-2.847933E-1,3.4830925E-1,-8.700226E-2,-3.504004E-1,-3.976809E-1,4.3610057E-1,-2.964865E-1,5.3462195E-1,-3.413239E-1,3.7514603E-1,-3.9876163E-1,4.0972292E-1,-3.4411508E-1,4.1529438E-1,-3.453088E-1,-3.7347752E-1,-2.5891966E-1,5.3053397E-1,1.3338532E-1,2.879651E-1,-5.660074E-1,-4.2395904E-3,-5.052897E-1,-7.2052574E-1,-7.3206764E-1,4.2798567E-1,-5.095537E-1,3.5075718E-1,6.2624174E-1,-4.0320185E-1,-5.1294446E-1,5.621364E-1,-5.228679E-1,3.283377E-1,-2.688486E-1,4.4519976E-1,1.0637858E-1,-4.7354314E-1,2.875632E-1,-4.202552E-1,1.377178E-1,-2.1176556E-1,-3.008336E-1,2.7254194E-1,-3.5907865E-1,8.05917E-2,3.185616E-2,1.785465E-1],"split_indices":[19,29,13,74,122,166,144,88,177,54,109,12,149,1,135,3,129,131,96,186,17,0,180,159,139,94,187,41,211,191,95,176,147,136,26,125,2,155,0,160,0,0,178,180,0,155,186,151,186,177,149,0,26,49,177,28,25,176,67,151,10,0,0,0,0,0,0,0,0,0,0,0,0,0,0,0,0,0,0,0,0,0,0,0,0,0,0,0,0,0,0,0,0,0,0,0,0,0,0,0,0,0,0,0,0,0,0,0,0,0,0],"split_type":[0,0,0,0,0,0,0,0,0,0,0,0,0,0,0,0,0,0,0,0,0,0,0,0,0,0,0,0,0,0,0,0,0,0,0,0,0,0,0,0,0,0,0,0,0,0,0,0,0,0,0,0,0,0,0,0,0,0,0,0,0,0,0,0,0,0,0,0,0,0,0,0,0,0,0,0,0,0,0,0,0,0,0,0,0,0,0,0,0,0,0,0,0,0,0,0,0,0,0,0,0,0,0,0,0,0,0,0,0,0,0],"sum_hessian":[9.588357E4,1.6230838E4,7.9652734E4,5.936982E3,1.0293855E4,2.454965E4,5.5103086E4,3.4036472E3,2.533335E3,1.010819E4,1.8566487E2,2.340414E4,1.1455106E3,1.3425003E4,4.1678082E4,5.7378845E2,2.8298586E3,1.6144796E3,9.188553E2,6.460473E2,9.462144E3,9.6527985E1,8.913688E1,2.3095342E4,3.087985E2,8.6214307E2,2.8336758E2,1.0643548E4,2.7814553E3,9.687601E3,3.1990482E4,1.9312202E2,3.806664E2,2.70843E3,1.2142883E2,5.511227E2,1.0633569E3,8.192102E2,9.9645035E1,1.7780055E2,4.6824677E2,7.865958E3,1.5961858E3,6.951031E1,1.9626574E1,2.232066E4,7.746822E2,2.5008473E2,5.8713776E1,8.248757E2,3.7267384E1,3.6163025E1,2.4720456E2,1.0234735E3,9.620074E3,8.986964E2,1.8827589E3,5.667446E3,4.0201548E3,1.6940831E3,3.0296398E4,3.1394526E1,1.617275E2,3.17038E2,6.3628414E1,3.247842E2,2.3836458E3,3.386483E1,8.7564E1,2.3873576E2,3.1238693E2,9.693664E2,9.399053E1,5.6406223E1,7.62804E2,4.7197006E1,1.3060355E2,1.156359E3,4.398267E2,2.2458506E0,6.726446E1,1.5908116E4,6.412543E3,2.740547E2,5.006275E2,1.0681666E2,1.4326807E2,2.2052414E0,5.6508533E1,7.8507947E2,3.979621E1,3.425149E1,3.0158925E0,1.4045435E1,2.3315912E2,1.3390582E2,8.895677E2,9.339516E3,2.8055875E2,5.3649066E2,3.6220575E2,1.7587185E3,1.2404046E2,3.46313E3,2.2043157E3,3.6140813E3,4.060736E2,1.1055273E3,5.885557E2,1.6108336E4,1.4188063E4],"tree_param":{"num_deleted":"0","num_feature":"276","num_nodes":"111","size_leaf_vector":"1"}},{"base_weights":[-2.9007642E-2,-5.307653E-1,1.7126395E-1,-1.0238814E0,-2.9359987E-1,2.1307787E-1,-7.654162E-1,-1.0401499E0,8.286497E-1,-2.0696916E-1,-1.1303939E0,1.2993918E-1,6.857337E-1,-1.3818724E0,5.339027E-1,-3.951569E-1,-1.064933E0,-3.2747352E-1,1.0133675E0,-1.192082E-1,-1.1583027E0,-1.2289894E0,2.317606E-1,1.975748E-3,4.1803327E-1,-1.0757735E0,7.545819E-1,8.503187E-1,-1.4821714E0,1.0627574E0,-9.286059E-1,-3.3421603E-1,1.0068272E0,-1.0972139E0,-4.9542236E-1,-2.8198776E-1,3.2600194E-1,-3.843318E-2,-1.1523795E0,1.7261142E0,-1.2397186E0,-1.3698041E0,-3.9893487E-1,-4.0112987E-1,9.630911E-1,-2.404537E-1,2.7092195E-1,4.4814235E-1,-2.1344717E0,1.622116E0,-1.7507077E0,-1.9221429E0,7.9737693E-1,-4.9388975E-1,1.363915E0,-1.5478398E0,1.4986943E0,1.239451E0,-5.4498553E-1,1.0117854E0,-1.7906265E0,-3.8415268E-1,4.0113583E-1,-4.1935295E-1,-3.2871997E-1,1.438985E-1,-3.3631217E-1,1.0911549E-1,-6.752151E-2,-3.3685023E-1,-3.8269374E-1,5.520027E-1,-2.8533342E-1,6.7722894E-2,-4.1937006E-1,-3.547145E-1,-4.5892248E-1,-3.8779184E-1,2.905619E-1,3.6337575E-1,-4.0161937E-1,-3.37763E-2,-2.669496E-1,2.2448603E-2,2.0943008E-1,1.4400949E-1,-6.12129E-1,-5.6452954E-1,-6.836555E-1,5.8642286E-1,-6.443367E-1,-6.6451436E-1,-4.9636027E-1,3.5651082E-1,-7.692245E-1,-4.9664634E-1,2.479089E-1,4.520078E-1,-5.127244E-1,-4.950272E-1,1.2804794E-1,-4.3056175E-1,5.4479116E-1,-5.287123E-1,4.0791765E-1,-5.0208014E-1,4.3846503E-1,-4.9180245E-1,-7.3876005E-1],"categories":[],"categories_nodes":[],"categories_segments":[],"categories_sizes":[],"default_left":[0,0,0,0,0,0,0,0,0,0,0,0,0,0,0,0,0,0,0,0,0,0,0,0,0,0,0,0,0,0,0,0,0,0,0,0,0,0,0,0,0,0,0,0,0,0,0,0,0,0,0,0,0,0,0,0,0,0,0,0,0,0,0,0,0,0,0,0,0,0,0,0,0,0,0,0,0,0,0,0,0,0,0,0,0,0,0,0,0,0,0,0,0,0,0,0,0,0,0,0,0,0,0,0,0,0,0,0,0],"id":5,"left_children":[1,3,5,7,9,11,13,15,17,19,21,23,25,27,29,31,33,-1,35,37,39,41,43,45,47,49,51,53,55,57,59,-1,61,63,65,-1,-1,67,69,71,73,75,77,-1,79,81,83,85,87,89,91,93,95,-1,97,99,101,103,-1,105,107,-1,-1,-1,-1,-1,-1,-1,-1,-1,-1,-1,-1,-1,-1,-1,-1,-1,-1,-1,-1,-1,-1,-1,-1,-1,-1,-1,-1,-1,-1,-1,-1,-1,-1,-1,-1,-1,-1,-1,-1,-1,-1,-1,-1,-1,-1,-1,-1],"loss_changes":[8.946824E3,2.9701333E3,2.492503E3,2.4944434E2,1.2431471E3,2.3936782E3,2.179002E3,1.3028613E2,2.6772163E1,1.2976361E3,2.1636108E2,1.9098308E3,1.1058799E3,4.1426733E2,6.7838336E2,3.076681E2,1.4420898E2,0E0,1.054763E1,1.1877091E3,3.1041663E2,1.7483154E2,1.2684871E2,2.3390034E3,1.225492E3,6.276912E2,1.0061162E3,1.0477408E2,3.4796362E2,3.2973572E2,3.917503E2,0E0,7.999607E1,1.7851562E0,2.592999E2,0E0,0E0,9.909363E2,2.3261719E0,1.2865669E1,2.9639832E2,3.6632324E1,2.6893896E2,0E0,4.4590225E1,1.566501E3,1.4245618E3,1.2507546E3,2.4956055E0,9.0957855E1,8.614441E0,2.791923E2,6.151289E2,0E0,3.1912025E1,3.4964453E2,3.8508575E1,2.2157062E2,0E0,8.982755E1,1.2407715E1,0E0,0E0,0E0,0E0,0E0,0E0,0E0,0E0,0E0,0E0,0E0,0E0,0E0,0E0,0E0,0E0,0E0,0E0,0E0,0E0,0E0,0E0,0E0,0E0,0E0,0E0,0E0,0E0,0E0,0E0,0E0,0E0,0E0,0E0,0E0,0E0,0E0,0E0,0E0,0E0,0E0,0E0,0E0,0E0,0E0,0E0,0E0,0E0],"parents":[2147483647,0,0,1,1,2,2,3,3,4,4,5,5,6,6,7,7,8,8,9,9,10,10,11,11,12,12,13,13,14,14,15,15,16,16,18,18,19,19,20,20,21,21,22,22,23,23,24,24,25,25,26,26,27,27,28,28,29,29,30,30,32,32,33,33,34,34,37,37,38,38,39,39,40,40,41,41,42,42,44,44,45,45,46,46,47,47,48,48,49,49,50,50,51,51,52,52,54,54,55,55,56,56,57,57,59,59,60,60],"right_children":[2,4,6,8,10,12,14,16,18,20,22,24,26,28,30,32,34,-1,36,38,40,42,44,46,48,50,52,54,56,58,60,-1,62,64,66,-1,-1,68,70,72,74,76,78,-1,80,82,84,86,88,90,92,94,96,-1,98,100,102,104,-1,106,108,-1,-1,-1,-1,-1,-1,-1,-1,-1,-1,-1,-1,-1,-1,-1,-1,-1,-1,-1,-1,-1,-1,-1,-1,-1,-1,-1,-1,-1,-1,-1,-1,-1,-1,-1,-1,-1,-1,-1,-1,-1,-1,-1,-1,-1,-1,-1,-1],"split_conditions":[2.0833333E-1,6.25E-2,5.4054055E-2,2.57125E-1,7.821229E-2,5.4334515E-1,2.2591075E-1,-4.56E-1,3.42343E-1,6.092629E-1,4.1666666E-1,1.1608334E0,9.4E1,-3.275E-1,-6.9041096E-2,5.824E-1,1.6666667E-1,-3.2747352E-1,1.0342857E0,5.8E1,-1.329009E0,6E-2,5.4165965E-1,1.1762255E3,3.335E4,-3.2153845E-1,-6.8E-1,8.332395E-2,9.5973533E-1,1.805592E-1,-7.6714287E0,-3.3421603E-1,1.153649E-1,1.5674771E1,8.923077E-2,-2.8198776E-1,3.2600194E-1,9.547692E-2,1.5384616E-1,1.425E-1,7.3728815E-2,1.1254854E-3,1.705E-1,-4.0112987E-1,4.2984226E-1,1.264256E-1,4.159512E-1,1.0209912E0,-4.1666668E-2,4.8157143E1,-4.1166667E-2,-7.588E-1,3.1089166E-1,-4.9388975E-1,9.217496E-2,4.8357564E-1,4.3470588E-1,-1.75E-1,-5.4498553E-1,7.620588E-1,9.211481E-1,-3.8415268E-1,4.0113583E-1,-4.1935295E-1,-3.2871997E-1,1.438985E-1,-3.3631217E-1,1.0911549E-1,-6.752151E-2,-3.3685023E-1,-3.8269374E-1,5.520027E-1,-2.8533342E-1,6.7722894E-2,-4.1937006E-1,-3.547145E-1,-4.5892248E-1,-3.8779184E-1,2.905619E-1,3.6337575E-1,-4.0161937E-1,-3.37763E-2,-2.669496E-1,2.2448603E-2,2.0943008E-1,1.4400949E-1,-6.12129E-1,-5.6452954E-1,-6.836555E-1,5.8642286E-1,-6.443367E-1,-6.6451436E-1,-4.9636027E-1,3.5651082E-1,-7.692245E-1,-4.9664634E-1,2.479089E-1,4.520078E-1,-5.127244E-1,-4.950272E-1,1.2804794E-1,-4.3056175E-1,5.4479116E-1,-5.287123E-1,4.0791765E-1,-5.0208014E-1,4.3846503E-1,-4.9180245E-1,-7.3876005E-1],"split_indices":[132,17,166,107,172,127,204,88,125,187,165,81,26,123,78,84,161,0,177,0,194,121,187,16,9,97,140,187,182,125,3,0,137,148,94,0,0,125,17,7,17,19,95,0,185,129,135,179,60,3,76,87,152,0,185,188,67,100,0,72,155,0,0,0,0,0,0,0,0,0,0,0,0,0,0,0,0,0,0,0,0,0,0,0,0,0,0,0,0,0,0,0,0,0,0,0,0,0,0,0,0,0,0,0,0,0,0,0,0],"split_type":[0,0,0,0,0,0,0,0,0,0,0,0,0,0,0,0,0,0,0,0,0,0,0,0,0,0,0,0,0,0,0,0,0,0,0,0,0,0,0,0,0,0,0,0,0,0,0,0,0,0,0,0,0,0,0,0,0,0,0,0,0,0,0,0,0,0,0,0,0,0,0,0,0,0,0,0,0,0,0,0,0,0,0,0,0,0,0,0,0,0,0,0,0,0,0,0,0,0,0,0,0,0,0,0,0,0,0,0,0],"sum_hessian":[8.9032016E4,2.5398162E4,6.3633855E4,8.247202E3,1.715096E4,6.0915332E4,2.7185217E3,8.175843E3,7.135969E1,1.5543081E4,1.60788E3,5.180438E4,9.110955E3,1.8437155E3,8.7480634E2,3.031493E2,7.8726934E3,5.8312874E0,6.5528404E1,1.4231356E4,1.3117239E3,1.4994448E3,1.08435104E2,3.5872023E4,1.5932355E4,3.4215564E2,8.768799E3,7.895974E1,1.7647557E3,6.426811E2,2.3212524E2,2.0052917E2,1.02620125E2,7.449514E3,4.231792E2,1.9426053E0,6.3585796E1,1.3200367E4,1.0309891E3,3.545395E1,1.2762699E3,1.2814095E3,2.1803528E2,3.421287E1,7.422224E1,1.8866117E4,1.7005906E4,1.5747425E4,1.8493054E2,6.818778E1,2.7396783E2,1.3729669E2,8.631502E3,1.3095655E1,6.586408E1,1.7271866E3,3.756909E1,6.0605963E2,3.6621475E1,7.134817E1,1.6077707E2,1.2585591E1,9.003453E1,3.1890123E1,7.417624E3,1.6548648E2,2.5769272E2,4.1840386E3,9.016329E3,8.39806E2,1.9118306E2,3.4307167E1,1.1467825E0,1.2429751E2,1.1519724E3,5.938728E2,6.875368E2,1.3189249E2,8.614279E1,6.74267E1,6.7955403E0,1.5763394E4,3.1027234E3,1.1656326E4,5.3495806E3,1.5548982E4,1.9844186E2,7.234282E1,1.12587715E2,6.3101677E1,5.086109E0,4.3227455E1,2.3074039E2,2.3341986E1,1.13954704E2,1.0015385E2,8.531349E3,6.3426846E1,2.4372416E0,1.6423099E3,8.487673E1,3.3224425E0,3.424665E1,2.2821608E1,5.8323804E2,9.845154E0,6.1503017E1,1.3403737E2,2.6739702E1],"tree_param":{"num_deleted":"0","num_feature":"276","num_nodes":"109","size_leaf_vector":"1"}},{"base_weights":[-2.634689E-2,-9.446313E-1,5.1299233E-2,6.1455186E-2,-1.0280561E0,-2.6700415E-2,3.9736623E-1,-1.1654873E0,4.6923423E-1,-1.0656823E0,-4.38024E-1,3.3962823E-2,-5.7590836E-1,5.6938964E-1,-1.9350663E-1,-4.5812154E-1,-3.3166668E-1,-5.635898E-1,8.609479E-1,-3.2104573E-1,2.638414E-1,4.673847E-1,-3.3313465E-1,1.0661645E-1,-3.5378572E-1,-9.527278E-1,3.6330137E-3,9.597863E-2,8.047594E-1,6.1692726E-2,-1.5473282E0,-3.3759713E-1,5.777857E-1,-3.990119E-1,1.025268E0,-3.3569267E-1,1.0273758E0,1.7929482E-1,-3.7802476E-1,-9.138933E-1,1.2888595E-1,-1.1768879E0,-4.170447E-1,-1.4253817E0,2.7973193E-1,-4.5699912E-1,5.07231E-1,9.0485734E-1,-1.7527308E-1,-5.613355E-1,5.9671634E-1,-1.9865335E0,8.9430235E-2,2.8886214E-1,-3.597552E-1,3.2896286E-1,-3.895453E-1,-3.7833735E-1,3.7093985E-1,-4.3722436E-2,9.466048E-2,6.727424E-2,-2.139213E-1,-1.1852524E-1,-4.23126E-1,1.9107644E-1,-1.363566E-1,-3.676333E-1,5.985355E-1,-2.4788013E-1,2.8592497E-1,-5.552423E-1,-3.8642204E-1,1.5797305E-1,-4.2563275E-1,-2.7407077E-1,1.9860977E-1,2.3197982E-1,-5.0373495E-1,2.8092563E-1,-5.1010984E-1,-6.1216897E-1,1.12708494E-1,-4.6085003E-1,2.5633135E-1,-1.1411278E0,2.0811309E-1,-1.144813E0,-5.495156E-1,-4.996735E-1,3.3988142E-1],"categories":[],"categories_nodes":[],"categories_segments":[],"categories_sizes":[],"default_left":[0,0,0,0,0,0,0,0,0,0,0,0,0,0,0,0,0,0,0,0,0,0,0,0,0,0,0,0,0,0,0,0,0,0,0,0,0,0,0,0,0,0,0,0,0,0,0,0,0,0,0,0,0,0,0,0,0,0,0,0,0,0,0,0,0,0,0,0,0,0,0,0,0,0,0,0,0,0,0,0,0,0,0,0,0,0,0,0,0,0,0],"id":6,"left_children":[1,3,5,7,9,11,13,15,17,19,21,23,25,27,29,-1,-1,31,33,-1,-1,35,-1,37,39,41,43,45,47,49,51,-1,53,-1,55,-1,57,59,61,63,65,67,69,71,73,75,77,79,81,83,85,87,89,-1,-1,-1,-1,-1,-1,-1,-1,-1,-1,-1,-1,-1,-1,-1,-1,-1,-1,-1,-1,-1,-1,-1,-1,-1,-1,-1,-1,-1,-1,-1,-1,-1,-1,-1,-1,-1,-1],"loss_changes":[5.966253E3,5.476167E2,2.0826184E3,2.5094327E2,1.3327441E2,2.0977495E3,1.4425464E3,1.0233307E0,1.5274246E2,5.017627E1,2.2141852E2,1.5973896E3,1.3677207E3,1.2246592E3,1.1059028E3,0E0,0E0,6.738707E1,9.974094E1,0E0,0E0,1.3913849E2,0E0,1.6821162E3,2.419183E3,4.5523926E2,9.7441614E2,8.3054803E2,7.203335E2,8.983299E2,3.6513416E2,0E0,2.5099607E1,0E0,4.3617523E1,0E0,5.674356E1,1.8390083E3,1.256866E3,1.0663997E3,1.4250735E3,4.1446387E2,6.294198E2,2.0976196E1,8.6853955E2,7.9649243E2,1.2194762E3,5.4929785E2,7.008158E2,1.7197788E3,6.214558E2,1.0639319E2,2.0034282E2,0E0,0E0,0E0,0E0,0E0,0E0,0E0,0E0,0E0,0E0,0E0,0E0,0E0,0E0,0E0,0E0,0E0,0E0,0E0,0E0,0E0,0E0,0E0,0E0,0E0,0E0,0E0,0E0,0E0,0E0,0E0,0E0,0E0,0E0,0E0,0E0,0E0,0E0],"parents":[2147483647,0,0,1,1,2,2,3,3,4,4,5,5,6,6,7,7,8,8,9,9,10,10,11,11,12,12,13,13,14,14,17,17,18,18,21,21,23,23,24,24,25,25,26,26,27,27,28,28,29,29,30,30,32,32,34,34,36,36,37,37,38,38,39,39,40,40,41,41,42,42,43,43,44,44,45,45,46,46,47,47,48,48,49,49,50,50,51,51,52,52],"right_children":[2,4,6,8,10,12,14,16,18,20,22,24,26,28,30,-1,-1,32,34,-1,-1,36,-1,38,40,42,44,46,48,50,52,-1,54,-1,56,-1,58,60,62,64,66,68,70,72,74,76,78,80,82,84,86,88,90,-1,-1,-1,-1,-1,-1,-1,-1,-1,-1,-1,-1,-1,-1,-1,-1,-1,-1,-1,-1,-1,-1,-1,-1,-1,-1,-1,-1,-1,-1,-1,-1,-1,-1,-1,-1,-1,-1],"split_conditions":[6.25E-2,-4.56E-1,1.6174717E-1,1.6031161E-1,1.6666667E-1,3.448276E-2,-1.23E-2,2.1971598E0,9.858126E-1,3.25E2,-6.1174784E-2,9.2285717E-1,8.352E-1,-3.9133507E-1,-6.636363E-2,-4.5812154E-1,-3.3166668E-1,5.714286E-1,-2.15E-1,-3.2104573E-1,2.638414E-1,6.857143E-1,-3.3313465E-1,3.0461565E-1,1.1714286E0,2.9086342E-1,-5.253757E-1,3.1846154E-1,4.6511628E-2,1.62515E3,3.2E1,-3.3759713E-1,4.105753E-2,-3.990119E-1,-1.875E-2,-3.3569267E-1,-6.844961E-2,-1.8571429E-2,-7.5714284E-1,-5.971429E-1,8.522727E-2,9.0256274E-1,7.0585E-1,4.4444446E-2,1.7299524E-1,1.3636364E-1,-2.1411765E-1,5.6466293E-1,4.984127E-2,6.4330035E-1,-6.75E-3,-1.0161111E0,1.9541347E0,2.8886214E-1,-3.597552E-1,3.2896286E-1,-3.895453E-1,-3.7833735E-1,3.7093985E-1,-4.3722436E-2,9.466048E-2,6.727424E-2,-2.139213E-1,-1.1852524E-1,-4.23126E-1,1.9107644E-1,-1.363566E-1,-3.676333E-1,5.985355E-1,-2.4788013E-1,2.8592497E-1,-5.552423E-1,-3.8642204E-1,1.5797305E-1,-4.2563275E-1,-2.7407077E-1,1.9860977E-1,2.3197982E-1,-5.0373495E-1,2.8092563E-1,-5.1010984E-1,-6.1216897E-1,1.12708494E-1,-4.6085003E-1,2.5633135E-1,-1.1411278E0,2.0811309E-1,-1.144813E0,-5.495156E-1,-4.996735E-1,3.3988142E-1],"split_indices":[17,88,151,182,161,159,114,8,139,6,185,177,84,199,75,0,0,20,89,0,0,177,0,187,177,200,204,101,175,4,27,0,129,0,99,0,66,96,178,47,163,182,46,159,125,163,92,183,95,127,114,63,149,0,0,0,0,0,0,0,0,0,0,0,0,0,0,0,0,0,0,0,0,0,0,0,0,0,0,0,0,0,0,0,0,0,0,0,0,0,0],"split_type":[0,0,0,0,0,0,0,0,0,0,0,0,0,0,0,0,0,0,0,0,0,0,0,0,0,0,0,0,0,0,0,0,0,0,0,0,0,0,0,0,0,0,0,0,0,0,0,0,0,0,0,0,0,0,0,0,0,0,0,0,0,0,0,0,0,0,0,0,0,0,0,0,0,0,0,0,0,0,0,0,0,0,0,0,0,0,0,0,0,0,0],"sum_hessian":[8.367505E4,6.52272E3,7.715233E4,4.99471E2,6.023249E3,6.2962258E4,1.4190068E4,1.2412885E2,3.7534216E2,5.6614165E3,3.6183273E2,5.6700312E4,6.2619443E3,1.0990417E4,3.1996516E3,1.4168197E1,1.09960655E2,1.0308943E2,2.7225275E2,5.648885E3,1.2531595E1,1.5433208E2,2.0750066E2,4.7753348E4,8.946966E3,3.7942607E3,2.4676833E3,3.6501316E3,7.3402856E3,2.6929727E3,5.0667883E2,6.909703E1,3.39924E1,1.849901E1,2.5375374E2,4.0005386E1,1.143267E2,4.1526523E4,6.2268228E3,4.140872E3,4.8060938E3,2.6740786E3,1.1201823E3,3.9890326E2,2.06878E3,1.5567648E3,2.0933667E3,6.660115E3,6.801704E2,1.2441392E3,1.4488336E3,3.9931387E2,1.07364975E2,2.831449E1,5.677912E0,2.4671454E2,7.0392003E0,9.14985E0,1.0517685E2,1.226503E4,2.9261494E4,2.2259077E3,4.0009153E3,2.0258766E3,2.1149956E3,2.5689463E3,2.2371472E3,2.634366E3,3.9712696E1,8.628638E2,2.5731854E2,9.4288216E1,3.0461505E2,1.806876E3,2.619041E2,1.1057836E3,4.509812E2,1.866854E3,2.2651268E2,6.5810293E3,7.90862E1,1.5447958E2,5.256908E2,7.367587E2,5.0738046E2,3.0421844E1,1.4184117E3,2.9308975E1,3.7000488E2,3.981185E1,6.755312E1],"tree_param":{"num_deleted":"0","num_feature":"276","num_nodes":"91","size_leaf_vector":"1"}},{"base_weights":[-2.340868E-2,-9.2139924E-1,3.6466494E-2,4.3669224E-2,-1.0071845E0,8.588368E-2,-4.2629004E-1,-3.381347E-1,4.055769E-1,-1.0463316E0,-4.1905436E-1,1.0192054E-1,-1.1322055E0,-8.247922E-1,7.0391886E-2,6.3213354E-1,-3.1961465E-1,-3.1527972E-1,2.3945203E-1,4.0274578E-1,-3.2400364E-1,7.898391E-2,8.8356954E-1,-1.1784831E0,3.1724364E-1,-1.1385667E0,-3.181331E-1,-1.134621E0,2.734668E-1,7.897251E-1,-3.451484E-1,-3.2239634E-1,8.8045174E-1,9.464727E-2,-1.1064515E0,-1.7730716E0,9.754629E-1,-3.2572514E-1,-1.3988961E0,-1.3778292E0,-1.4133102E-1,2.83769E-1,-1.0591536E0,1.5496923E0,-1.3814193E0,-6.2087905E-1,5.596343E-1,-3.554731E-1,2.734123E-1,-4.2961025E-1,3.238902E-1,1.8593458E-2,1.9208328E-1,-4.1154808E-1,3.676696E-1,-3.5022792E-1,-6.1680496E-1,-5.994083E-1,3.11609E-1,-7.1176744E-1,-4.0696874E-1,2.1762213E-1,-4.4228226E-1,-3.9096248E-1,2.4231635E-1,-4.1115358E-1,2.0755474E-1,1.4775014E-1,-3.9021412E-1,-2.998493E-1,5.570933E-1,-3.5727835E-1,-4.882698E-1,-3.9052776E-1,2.282071E-1,2.1831031E-1,-2.8195378E-1],"categories":[],"categories_nodes":[],"categories_segments":[],"categories_sizes":[],"default_left":[0,0,0,0,0,0,0,0,0,0,0,0,0,0,0,0,0,0,0,0,0,0,0,0,0,0,0,0,0,0,0,0,0,0,0,0,0,0,0,0,0,0,0,0,0,0,0,0,0,0,0,0,0,0,0,0,0,0,0,0,0,0,0,0,0,0,0,0,0,0,0,0,0,0,0,0,0],"id":7,"left_children":[1,3,5,7,9,11,13,-1,15,17,19,21,23,25,27,29,-1,-1,-1,31,-1,33,35,37,-1,39,41,43,45,47,-1,-1,49,51,53,55,57,-1,59,61,63,65,67,69,71,73,75,-1,-1,-1,-1,-1,-1,-1,-1,-1,-1,-1,-1,-1,-1,-1,-1,-1,-1,-1,-1,-1,-1,-1,-1,-1,-1,-1,-1,-1,-1],"loss_changes":[4.2564854E3,4.097246E2,1.6972345E3,1.7203029E2,1.0419385E2,1.3100242E3,1.4174235E3,0E0,1.039984E2,3.6992676E1,1.5539543E2,1.1865442E3,8.955347E1,6.312942E2,7.806156E2,7.656081E1,0E0,0E0,0E0,9.121206E1,0E0,1.194032E3,4.6232544E2,1.5934082E1,0E0,5.851658E2,6.786821E2,3.0693152E2,6.98954E2,6.0656128E1,0E0,0E0,4.6315872E1,1.1312034E3,5.206659E2,8.470093E0,3.4508313E2,0E0,7.06131E0,4.0239624E2,5.257403E2,5.6804846E2,2.562329E2,3.256974E1,1.7842285E1,6.23879E2,5.219677E2,0E0,0E0,0E0,0E0,0E0,0E0,0E0,0E0,0E0,0E0,0E0,0E0,0E0,0E0,0E0,0E0,0E0,0E0,0E0,0E0,0E0,0E0,0E0,0E0,0E0,0E0,0E0,0E0,0E0,0E0],"parents":[2147483647,0,0,1,1,2,2,3,3,4,4,5,5,6,6,8,8,9,9,10,10,11,11,12,12,13,13,14,14,15,15,19,19,21,21,22,22,23,23,25,25,26,26,27,27,28,28,29,29,32,32,33,33,34,34,35,35,36,36,38,38,39,39,40,40,41,41,42,42,43,43,44,44,45,45,46,46],"right_children":[2,4,6,8,10,12,14,-1,16,18,20,22,24,26,28,30,-1,-1,-1,32,-1,34,36,38,-1,40,42,44,46,48,-1,-1,50,52,54,56,58,-1,60,62,64,66,68,70,72,74,76,-1,-1,-1,-1,-1,-1,-1,-1,-1,-1,-1,-1,-1,-1,-1,-1,-1,-1,-1,-1,-1,-1,-1,-1,-1,-1,-1,-1,-1,-1],"split_conditions":[6.25E-2,-4.56E-1,3.7433155E-2,1.6031161E-1,1.6666667E-1,9.3E1,4.12125E-1,-3.381347E-1,1E0,3.25E2,-6.1174784E-2,1.4854802E0,9.125423E-1,3.0782608E-2,2.2978732E-1,1.344251E-1,-3.1961465E-1,-3.1527972E-1,2.3945203E-1,6.857143E-1,-3.2400364E-1,7.1981305E-1,5.3E1,1.580081E-3,3.1724364E-1,5.8125E-1,-2.3335277E-1,5.552963E-3,-3.26E-1,8.081536E-2,-3.451484E-1,-3.2239634E-1,5.4609537E-2,4E0,4.0470588E-1,4.6428473E2,2.1085258E-1,-3.2572514E-1,-1.9642857E-1,-3.275E-1,3.5664335E-1,1.185625E-1,-5.052381E-1,3.909091E-1,1.580081E-3,4.5851666E-1,3.3607066E0,-3.554731E-1,2.734123E-1,-4.2961025E-1,3.238902E-1,1.8593458E-2,1.9208328E-1,-4.1154808E-1,3.676696E-1,-3.5022792E-1,-6.1680496E-1,-5.994083E-1,3.11609E-1,-7.1176744E-1,-4.0696874E-1,2.1762213E-1,-4.4228226E-1,-3.9096248E-1,2.4231635E-1,-4.1115358E-1,2.0755474E-1,1.4775014E-1,-3.9021412E-1,-2.998493E-1,5.570933E-1,-3.5727835E-1,-4.882698E-1,-3.9052776E-1,2.282071E-1,2.1831031E-1,-2.8195378E-1],"split_indices":[17,88,166,182,161,27,55,0,29,6,185,155,135,56,135,129,0,0,0,177,0,187,25,19,0,74,179,147,83,151,0,0,151,29,95,16,131,0,97,123,20,118,91,17,19,203,8,0,0,0,0,0,0,0,0,0,0,0,0,0,0,0,0,0,0,0,0,0,0,0,0,0,0,0,0,0,0],"split_type":[0,0,0,0,0,0,0,0,0,0,0,0,0,0,0,0,0,0,0,0,0,0,0,0,0,0,0,0,0,0,0,0,0,0,0,0,0,0,0,0,0,0,0,0,0,0,0,0,0,0,0,0,0,0,0,0,0,0,0,0,0,0,0,0,0,0,0,0,0,0,0,0,0,0,0,0,0],"sum_hessian":[7.916326E4,4.947512E3,7.421574E4,4.0392487E2,4.5435874E3,6.705576E4,7.159985E3,9.487768E1,3.0904718E2,4.2593013E3,2.8428635E2,6.6185305E4,8.704523E2,3.9722634E3,3.1877214E3,2.6829477E2,4.075241E1,4.249133E3,1.0168526E1,1.26898315E2,1.5738805E2,6.429961E4,1.8857002E3,8.528888E2,1.7563473E1,2.4523025E3,1.5199609E3,4.5907272E2,2.7286487E3,2.4701465E2,2.1280111E1,3.0700703E1,9.619762E1,6.3461996E4,8.3761395E2,6.2434067E1,1.8232661E3,6.044917E2,2.4839711E2,1.9774741E3,4.748285E2,8.390502E2,6.8091077E2,3.82092E1,4.2086353E2,6.6116656E2,2.0674822E3,1.3827248E1,2.3318741E2,7.137884E0,8.905973E1,5.9877973E4,3.584021E3,7.5240466E2,8.52093E1,2.1512459E1,4.0921604E1,3.732877E1,1.7859374E3,8.056457E0,2.4034065E2,8.641637E1,1.8910577E3,2.1331024E2,2.6151825E2,1.6555649E2,6.7349365E2,9.158413E1,5.8932666E2,3.8680246E0,3.434118E1,2.4054527E2,1.8031825E2,4.429332E2,2.1823341E2,1.8595702E3,2.0791206E2],"tree_param":{"num_deleted":"0","num_feature":"276","num_nodes":"77","size_leaf_vector":"1"}},{"base_weights":[-2.1097787E-2,-9.014704E-1,2.4378704E-2,2.6702298E-2,-9.9110913E-1,-5.9490595E-2,2.2468488E-1,-3.3004287E-1,3.430189E-1,-1.0322958E0,-4.0147993E-1,-2.3508392E-1,1.08289056E-1,-7.80086E-1,2.7439216E-1,-3.4763372E-1,5.3807956E-1,-3.111322E-1,2.1515504E-1,3.434233E-1,-3.169998E-1,-3.876229E-1,1.3933039E-1,8.4777373E-1,3.0552095E-2,1.4676578E0,-1.134588E0,3.212016E-1,-8.3676064E-1,6.7231154E-1,-3.3108756E-1,7.639675E-1,-3.3840445E-1,3.2401004E-1,-4.9100214E-1,4.6715686E-1,-5.0661427E-1,-7.249004E-1,1.0617558E0,-1.917236E-1,3.429944E-1,1.7576793E0,-4.5259106E-1,3.1921872E-1,-1.3853216E0,-1.291368E-1,4.3573776E-1,-1.1442828E0,1.1180557E0,2.3670678E-1,-3.027545E-1,2.9775015E-1,-3.562306E-1,3.1495917E-1,-1.4144662E-1,-1.7170496E-1,1.12187356E-1,1.7870468E-1,-2.7265343E-1,9.423413E-2,-3.026794E-1,3.0055088E-1,-4.7164622E-1,2.9490155E-1,1.3866313E0,1.9021313E-1,-8.432488E-2,1.2826145E-1,-2.579415E-1,4.2744133E-1,7.972968E-1,-4.622096E-1,5.5115503E-1,3.58843E-1,-4.5478433E-1,-2.682325E-1,8.135135E-2,1.4667794E-1,-1.955214E-1,-4.6208772E-1,1.1444635E-1,4.3855894E-1,-3.96098E-1],"categories":[],"categories_nodes":[],"categories_segments":[],"categories_sizes":[],"default_left":[0,0,0,0,0,0,0,0,0,0,0,0,0,0,0,0,0,0,0,0,0,0,0,0,0,0,0,0,0,0,0,0,0,0,0,0,0,0,0,0,0,0,0,0,0,0,0,0,0,0,0,0,0,0,0,0,0,0,0,0,0,0,0,0,0,0,0,0,0,0,0,0,0,0,0,0,0,0,0,0,0,0,0],"id":8,"left_children":[1,3,5,7,9,11,13,-1,15,17,19,21,23,25,27,-1,29,-1,-1,31,-1,33,35,37,39,41,43,45,47,49,-1,51,-1,53,55,57,59,61,63,65,67,69,-1,71,73,75,77,79,81,-1,-1,-1,-1,-1,-1,-1,-1,-1,-1,-1,-1,-1,-1,-1,-1,-1,-1,-1,-1,-1,-1,-1,-1,-1,-1,-1,-1,-1,-1,-1,-1,-1,-1],"loss_changes":[3.0533826E3,3.1169873E2,1.218313E3,1.1831941E2,8.2546875E1,1.5060029E3,1.069181E3,0E0,7.653237E1,2.7616455E1,1.1001895E2,1.4265916E3,1.5027051E3,8.0581555E2,1.06106E3,0E0,5.143164E1,0E0,0E0,6.639128E1,0E0,1.3058069E3,1.5314727E3,8.3756995E2,1.6429033E3,1.2170007E2,3.1840076E2,1.0095408E3,4.9706073E2,4.264769E1,0E0,3.817297E1,0E0,1.3006967E3,1.0906025E3,8.4893274E2,1.0041296E3,4.381385E2,6.0926196E2,1.0201677E3,1.00034656E3,3.4000183E1,0E0,3.6737775E2,2.5274524E2,1.2156799E3,9.028252E2,4.3146344E2,9.633592E1,0E0,0E0,0E0,0E0,0E0,0E0,0E0,0E0,0E0,0E0,0E0,0E0,0E0,0E0,0E0,0E0,0E0,0E0,0E0,0E0,0E0,0E0,0E0,0E0,0E0,0E0,0E0,0E0,0E0,0E0,0E0,0E0,0E0,0E0],"parents":[2147483647,0,0,1,1,2,2,3,3,4,4,5,5,6,6,8,8,9,9,10,10,11,11,12,12,13,13,14,14,16,16,19,19,21,21,22,22,23,23,24,24,25,25,26,26,27,27,28,28,29,29,31,31,33,33,34,34,35,35,36,36,37,37,38,38,39,39,40,40,41,41,43,43,44,44,45,45,46,46,47,47,48,48],"right_children":[2,4,6,8,10,12,14,-1,16,18,20,22,24,26,28,-1,30,-1,-1,32,-1,34,36,38,40,42,44,46,48,50,-1,52,-1,54,56,58,60,62,64,66,68,70,-1,72,74,76,78,80,82,-1,-1,-1,-1,-1,-1,-1,-1,-1,-1,-1,-1,-1,-1,-1,-1,-1,-1,-1,-1,-1,-1,-1,-1,-1,-1,-1,-1,-1,-1,-1,-1,-1,-1],"split_conditions":[6.25E-2,-4.56E-1,7.5130767E-1,1.6031161E-1,1.6666667E-1,1.1662664E3,-1.4666666E-1,-3.3004287E-1,1.7373846E-1,3.25E2,-6.1174784E-2,5.6938773E-1,-1.159568E0,-1.411287E0,5.3444165E-1,-3.4763372E-1,3.2871814E0,-3.111322E-1,2.1515504E-1,3.0753332E-1,-3.169998E-1,-3.5533333E-1,8E-1,-3.2761905E-1,6.008911E-1,-5.8822525E-1,-9.4745183E-1,-5.6975144E-1,3.7766979E0,1E0,-3.3108756E-1,8.281691E-3,-3.3840445E-1,-3.879009E-1,4.3E-1,7.236842E-2,-6.533334E-2,-2.250775E0,9.051852E-2,-3.7526315E-1,4.7368422E-2,5.7238095E-2,-4.5259106E-1,-9.7764266E-1,-1.7683332E1,-3.098709E-1,8.259475E-1,1.587969E-1,-1.614054E-1,2.3670678E-1,-3.027545E-1,2.9775015E-1,-3.562306E-1,3.1495917E-1,-1.4144662E-1,-1.7170496E-1,1.12187356E-1,1.7870468E-1,-2.7265343E-1,9.423413E-2,-3.026794E-1,3.0055088E-1,-4.7164622E-1,2.9490155E-1,1.3866313E0,1.9021313E-1,-8.432488E-2,1.2826145E-1,-2.579415E-1,4.2744133E-1,7.972968E-1,-4.622096E-1,5.5115503E-1,3.58843E-1,-4.5478433E-1,-2.682325E-1,8.135135E-2,1.4667794E-1,-1.955214E-1,-4.6208772E-1,1.1444635E-1,4.3855894E-1,-3.96098E-1],"split_indices":[17,88,128,182,161,16,94,0,125,6,185,178,194,180,189,0,149,0,0,39,0,87,177,68,155,188,199,185,149,29,0,213,0,179,65,167,76,37,76,92,175,76,0,199,3,180,179,151,79,0,0,0,0,0,0,0,0,0,0,0,0,0,0,0,0,0,0,0,0,0,0,0,0,0,0,0,0,0,0,0,0,0,0],"split_type":[0,0,0,0,0,0,0,0,0,0,0,0,0,0,0,0,0,0,0,0,0,0,0,0,0,0,0,0,0,0,0,0,0,0,0,0,0,0,0,0,0,0,0,0,0,0,0,0,0,0,0,0,0,0,0,0,0,0,0,0,0,0,0,0,0,0,0,0,0,0,0,0,0,0,0,0,0,0,0,0,0,0,0],"sum_hessian":[7.626388E4,3.745057E3,7.251883E4,3.298891E2,3.415168E3,5.111669E4,2.1402137E4,7.176297E1,2.5812613E2,3.1914858E3,2.2368195E2,2.4976553E4,2.6140139E4,1.00818713E3,2.039395E4,2.9104689E1,2.2902144E2,3.183139E3,8.347088E0,1.0489691E2,1.1878503E2,1.7746479E4,7.2300737E3,2.4855984E3,2.365454E4,1.3691682E2,8.7127026E2,1.9570227E4,8.237224E2,2.1225699E2,1.6764454E1,8.1954666E1,2.2942244E1,2.25076E3,1.5495719E4,4.796205E3,2.4338684E3,2.9740616E2,2.1881921E3,1.3821864E4,9.832676E3,1.2513285E2,1.1783981E1,1.2812148E2,7.431488E2,3.9681099E3,1.5602117E4,7.121112E2,1.1161123E2,1.9897693E2,1.3280056E1,7.380286E1,8.151816E0,1.1767308E3,1.074029E3,1.4163965E4,1.331754E3,4.3870044E3,4.0920108E2,9.2420264E2,1.5096658E3,9.7834045E1,1.9957211E2,2.142088E3,4.6104362E1,1.3490675E3,1.2472796E4,9.187536E3,6.4513983E2,9.323216E1,3.1900684E1,5.7568954E1,7.055252E1,3.540042E1,7.077484E2,1.3627394E3,2.6053706E3,1.4875122E4,7.269953E2,5.653632E2,1.46748E2,9.816993E1,1.3441295E1],"tree_param":{"num_deleted":"0","num_feature":"276","num_nodes":"83","size_leaf_vector":"1"}},{"base_weights":[-1.7529672E-2,-8.8309556E-1,1.7504534E-2,9.974331E-3,-9.7843564E-1,-4.35172E-2,2.7144393E-1,-6.7609084E-1,4.840203E-1,-1.0219315E0,-3.8605478E-1,2.5417632E-1,-1.1321995E-1,1.4848661E0,2.2889273E-1,-1.1487751E0,5.151869E-1,6.753999E-1,-3.351264E-1,-3.0811417E-1,1.9090234E-1,2.9182526E-1,-3.114049E-1,-6.345116E-2,6.275058E-1,-4.0951893E-2,-5.2503026E-1,-1.9758736E0,1.6001108E0,4.7214812E-1,-1.9077187E-2,-4.6648708E-1,-3.1880924E-1,2.8958398E-1,-3.3751124E-1,-3.3855876E-1,8.079484E-1,-3.2559136E-1,6.8978494E-1,-3.2974312E-1,8.317866E-1,-1.8954481E0,7.0192325E-1,1.0248985E-1,-3.38496E-1,-2.930494E-1,-1.1463176E0,-1.730937E-1,-6.1057067E-1,-4.9951717E-1,1.6685187E0,6.816331E-1,-4.362774E-2,-7.393602E-1,1.9060892E-1,-3.4538582E-1,2.641297E-1,-3.2834768E-1,2.7013087E-1,2.4967336E-3,-3.278131E-1,-4.266186E-1,3.0027846E-1,-4.3415585E-1,-7.1218365E-1,-4.70464E-1,2.2927313E-1,1.4771189E-1,-6.2668826E-3,-1.4128916E-1,1.11411154E-1,-5.110177E-1,-5.329544E-2,1.3769536E-1,-4.146031E-1,4.2813805E-1,7.3973954E-1,2.5473207E-1,-6.014594E-2,1.435908E-1,-3.9067134E-1,9.02821E-2,-3.342331E-1,-4.2400202E-1,8.281065E-2],"categories":[],"categories_nodes":[],"categories_segments":[],"categories_sizes":[],"default_left":[0,0,0,0,0,0,0,0,0,0,0,0,0,0,0,0,0,0,0,0,0,0,0,0,0,0,0,0,0,0,0,0,0,0,0,0,0,0,0,0,0,0,0,0,0,0,0,0,0,0,0,0,0,0,0,0,0,0,0,0,0,0,0,0,0,0,0,0,0,0,0,0,0,0,0,0,0,0,0,0,0,0,0,0,0],"id":9,"left_children":[1,3,5,7,9,11,13,15,17,19,21,23,25,27,29,31,33,35,-1,-1,-1,37,-1,39,41,43,45,47,49,51,53,-1,-1,-1,-1,-1,55,-1,57,59,61,63,65,67,69,71,73,-1,-1,-1,75,77,79,81,83,-1,-1,-1,-1,-1,-1,-1,-1,-1,-1,-1,-1,-1,-1,-1,-1,-1,-1,-1,-1,-1,-1,-1,-1,-1,-1,-1,-1,-1,-1],"loss_changes":[2.20978E3,2.4137671E2,1.0852935E3,8.957772E1,6.560132E1,1.1717568E3,7.0028186E2,6.3970436E1,5.0661724E1,2.089038E1,7.844452E1,1.2704546E3,1.3617128E3,1.8643903E2,7.9085516E2,1.175705E0,2.519999E1,3.5846947E1,0E0,0E0,0E0,4.868187E1,0E0,1.3804714E3,9.2601746E2,1.661416E3,9.841709E2,9.2674255E-2,1.0223694E2,7.1512695E2,9.808706E2,0E0,0E0,0E0,0E0,0E0,2.0425095E1,0E0,2.6719059E1,1.1511519E3,5.07528E2,2.6888977E1,6.781145E2,1.2634631E3,1.1908364E3,8.093917E2,7.0316187E2,0E0,0E0,0E0,8.05155E1,6.955112E2,1.2578234E3,5.712075E2,6.8961865E2,0E0,0E0,0E0,0E0,0E0,0E0,0E0,0E0,0E0,0E0,0E0,0E0,0E0,0E0,0E0,0E0,0E0,0E0,0E0,0E0,0E0,0E0,0E0,0E0,0E0,0E0,0E0,0E0,0E0,0E0],"parents":[2147483647,0,0,1,1,2,2,3,3,4,4,5,5,6,6,7,7,8,8,9,9,10,10,11,11,12,12,13,13,14,14,15,15,16,16,17,17,21,21,23,23,24,24,25,25,26,26,27,27,28,28,29,29,30,30,36,36,38,38,39,39,40,40,41,41,42,42,43,43,44,44,45,45,46,46,50,50,51,51,52,52,53,53,54,54],"right_children":[2,4,6,8,10,12,14,16,18,20,22,24,26,28,30,32,34,36,-1,-1,-1,38,-1,40,42,44,46,48,50,52,54,-1,-1,-1,-1,-1,56,-1,58,60,62,64,66,68,70,72,74,-1,-1,-1,76,78,80,82,84,-1,-1,-1,-1,-1,-1,-1,-1,-1,-1,-1,-1,-1,-1,-1,-1,-1,-1,-1,-1,-1,-1,-1,-1,-1,-1,-1,-1,-1,-1],"split_conditions":[6.25E-2,-4.56E-1,1.0261699E0,1.3741112E-1,1.6666667E-1,-8.9202565E-1,-1.2992857E-1,1.1E0,1.1650544E-1,3.25E2,-6.1174784E-2,7.24E3,5.758824E-1,2.0363636E0,5.344828E-1,2.1258147E0,1.93586E-1,1.7373846E-1,-3.351264E-1,-3.0811417E-1,1.9090234E-1,-6.844961E-2,-3.114049E-1,4.7904444E-1,1.9358188E-1,-6.420769E-1,2.8279884E-2,1.3125E-1,6.7043787E2,1.984986E-1,1.23E2,-4.6648708E-1,-3.1880924E-1,2.8958398E-1,-3.3751124E-1,-3.3855876E-1,-2.0408163E-2,-3.2559136E-1,2.4778128E-1,2.755102E-1,-1.805E-1,5.715769E-1,1.6660887E1,-8.877551E-1,1.15384616E-1,7.9444446E-2,1.5692309E-2,-1.730937E-1,-6.1057067E-1,-4.9951717E-1,7.5976473E-1,2.7169913E-1,-2.825E-1,-7.45E-1,-4.72E-2,-3.4538582E-1,2.641297E-1,-3.2834768E-1,2.7013087E-1,2.4967336E-3,-3.278131E-1,-4.266186E-1,3.0027846E-1,-4.3415585E-1,-7.1218365E-1,-4.70464E-1,2.2927313E-1,1.4771189E-1,-6.2668826E-3,-1.4128916E-1,1.11411154E-1,-5.110177E-1,-5.329544E-2,1.3769536E-1,-4.146031E-1,4.2813805E-1,7.3973954E-1,2.5473207E-1,-6.014594E-2,1.435908E-1,-3.9067134E-1,9.02821E-2,-3.342331E-1,-4.2400202E-1,8.281065E-2],"split_indices":[17,88,155,40,161,194,53,177,129,6,185,10,64,124,136,8,179,125,0,0,0,66,0,181,139,44,179,17,16,125,26,0,0,0,0,0,178,0,181,178,100,57,148,178,162,50,117,0,0,0,136,131,142,47,60,0,0,0,0,0,0,0,0,0,0,0,0,0,0,0,0,0,0,0,0,0,0,0,0,0,0,0,0,0,0],"split_type":[0,0,0,0,0,0,0,0,0,0,0,0,0,0,0,0,0,0,0,0,0,0,0,0,0,0,0,0,0,0,0,0,0,0,0,0,0,0,0,0,0,0,0,0,0,0,0,0,0,0,0,0,0,0,0,0,0,0,0,0,0,0,0,0,0,0,0,0,0,0,0,0,0,0,0,0,0,0,0,0,0,0,0,0,0],"sum_hessian":[7.2869805E4,2.8337637E3,7.003605E4,2.734257E2,2.560338E3,5.6467668E4,1.3568373E4,1.1155337E2,1.6187233E2,2.3845276E3,1.7581029E2,1.0712596E4,4.5755074E4,4.5853552E2,1.3109838E4,7.988977E1,3.1663595E1,1.4510605E2,1.676628E1,2.3775737E3,6.953985E0,8.646269E1,8.9347595E1,5.7885483E3,4.9240474E3,3.8925234E4,6.8298394E3,1.4257098E1,4.4427844E2,6.617373E3,6.4924644E3,1.0985765E1,6.890401E1,2.5168592E1,6.4950037E0,9.41793E0,1.3568811E2,1.8996971E1,6.746572E1,4.461954E3,1.326594E3,1.4037813E2,4.7836694E3,2.6264266E4,1.266097E4,4.97406E3,1.8557794E3,1.01674E0,1.3240358E1,8.638017E0,4.356404E2,4.7057764E3,1.9115967E3,1.4633281E3,5.029136E3,4.3098464E0,1.3137827E2,6.6808906E0,6.0784832E1,3.0926228E3,1.3693312E3,9.20884E1,1.2345056E3,7.455683E1,6.58213E1,1.2716839E2,4.656501E3,6.3127573E3,1.9951508E4,1.0670154E4,1.9908156E3,3.751675E2,4.5988926E3,2.3746423E2,1.6183152E3,3.3653723E2,9.910317E1,3.9549514E3,7.50825E2,1.3514348E3,5.601619E2,3.8758768E2,1.0757405E3,2.5352205E2,4.7756143E3],"tree_param":{"num_deleted":"0","num_feature":"276","num_nodes":"85","size_leaf_vector":"1"}},{"base_weights":[-1.3910032E-2,3.054706E-2,-5.5369854E-1,6.547992E-2,-4.1035238E-1,5.334545E-1,-7.53007E-1,7.6895766E-2,-1.2287772E0,-8.166721E-1,9.166235E-2,-7.218623E-1,9.713906E-1,-4.4902274E-1,-1.0654635E0,1.011357E-1,-4.8268643E-1,-1.473989E0,8.8318056E-1,-9.6906585E-1,1.5848017E0,-7.0758206E-1,6.1369944E-1,-1.1991686E0,1.2344255E0,-1.2360668E0,1.1386187E0,8.13367E-2,-1.0374571E0,-1.0838188E0,1.6141498E-1,-6.1883503E-1,1.2283528E-1,-9.9448913E-1,2.2870786E-1,3.8448057E-1,-1.7177792E0,3.783943E-1,-2.06875E0,3.3058423E-1,-1.1466973E0,1.9502572E0,-4.799333E-1,3.2715125E0,-8.613973E-1,1.2195923E0,-2.4661146E-1,-1.1117557E0,-5.197666E-1,-2.908184E-1,1.4829233E0,-3.2571757E-1,-4.762317E-1,1.2611724E0,-4.1361833E-1,-1.3403193E0,4.5817485E-1,2.6033533E0,-1.1547524E0,-1.0331643E0,-1.2656131E0,-3.0586943E-1,9.521533E-1,6.466463E-2,-3.715919E-1,3.146061E-2,2.764456E-1,-3.4868833E-1,2.7532703E-1,-1.6888359E-1,2.375182E-1,3.3238414E-1,-3.4794295E-1,-9.848661E-1,-4.66713E-1,-3.134221E-1,-7.603529E-1,4.8398685E-1,-2.0881663E-1,-4.2421472E-1,-1.2331297E-1,6.233649E-1,-3.310656E-1,1.9039176E0,-3.0573678E-1,8.3637424E-2,-3.2321674E-1,-4.635504E-1,4.3976197E-1,1.2691407E-1,-3.138794E-1,-3.0341792E-1,-3.6837763E-1,4.7959352E-1,1.5930583E-1,2.756118E-1,6.211002E-1,-4.5049304E-1,1.4036238E-1,-3.9056456E-1,2.2353303E-1,8.839536E-1,-3.219015E-1,-3.9304814E-1,6.360643E-2,-3.117418E-1,5.907757E-2,-3.6281836E-1,-5.729025E-1,3.1784007E-1,1.5977421E-1],"categories":[],"categories_nodes":[],"categories_segments":[],"categories_sizes":[],"default_left":[0,0,0,0,0,0,0,0,0,0,0,0,0,0,0,0,0,0,0,0,0,0,0,0,0,0,0,0,0,0,0,0,0,0,0,0,0,0,0,0,0,0,0,0,0,0,0,0,0,0,0,0,0,0,0,0,0,0,0,0,0,0,0,0,0,0,0,0,0,0,0,0,0,0,0,0,0,0,0,0,0,0,0,0,0,0,0,0,0,0,0,0,0,0,0,0,0,0,0,0,0,0,0,0,0,0,0,0,0,0,0],"id":10,"left_children":[1,3,5,7,9,11,13,15,17,19,21,23,25,27,29,31,33,35,37,39,41,43,45,47,49,51,53,55,57,59,61,63,65,67,69,71,73,-1,75,77,79,81,-1,83,85,87,89,91,-1,-1,93,-1,-1,95,-1,97,99,101,103,105,107,-1,109,-1,-1,-1,-1,-1,-1,-1,-1,-1,-1,-1,-1,-1,-1,-1,-1,-1,-1,-1,-1,-1,-1,-1,-1,-1,-1,-1,-1,-1,-1,-1,-1,-1,-1,-1,-1,-1,-1,-1,-1,-1,-1,-1,-1,-1,-1,-1,-1],"loss_changes":[1.6764592E3,9.9413153E2,1.1522362E3,8.837418E2,9.666501E2,4.5378162E2,4.2624707E2,8.04202E2,2.7213354E2,9.6001697E2,8.8522064E2,2.0105124E2,2.2711566E2,7.113041E2,5.0050293E1,8.878432E2,8.964953E2,2.1312476E2,6.403339E1,5.6906714E2,1.8544534E2,5.159015E2,6.69221E2,6.108139E0,2.4664368E1,5.763626E-1,1.772475E2,6.4325555E2,4.643916E2,1.8787842E1,3.227013E1,8.6014594E2,7.914303E2,4.6052356E2,4.598891E2,6.2954254E1,1.0009387E2,0E0,5.129471E-1,3.9220303E2,4.256958E2,5.7240906E1,0E0,4.208384E2,1.9926337E2,5.150901E2,2.8486264E2,5.168152E-1,0E0,0E0,3.3931732E0,0E0,0E0,1.4857007E2,0E0,7.4094696E1,4.802138E2,4.6090378E1,2.2274768E2,1.278833E1,1.4748169E1,0E0,3.629303E-1,0E0,0E0,0E0,0E0,0E0,0E0,0E0,0E0,0E0,0E0,0E0,0E0,0E0,0E0,0E0,0E0,0E0,0E0,0E0,0E0,0E0,0E0,0E0,0E0,0E0,0E0,0E0,0E0,0E0,0E0,0E0,0E0,0E0,0E0,0E0,0E0,0E0,0E0,0E0,0E0,0E0,0E0,0E0,0E0,0E0,0E0,0E0,0E0],"parents":[2147483647,0,0,1,1,2,2,3,3,4,4,5,5,6,6,7,7,8,8,9,9,10,10,11,11,12,12,13,13,14,14,15,15,16,16,17,17,18,18,19,19,20,20,21,21,22,22,23,23,24,24,25,25,26,26,27,27,28,28,29,29,30,30,31,31,32,32,33,33,34,34,35,35,36,36,38,38,39,39,40,40,41,41,43,43,44,44,45,45,46,46,47,47,50,50,53,53,55,55,56,56,57,57,58,58,59,59,60,60,62,62],"right_children":[2,4,6,8,10,12,14,16,18,20,22,24,26,28,30,32,34,36,38,40,42,44,46,48,50,52,54,56,58,60,62,64,66,68,70,72,74,-1,76,78,80,82,-1,84,86,88,90,92,-1,-1,94,-1,-1,96,-1,98,100,102,104,106,108,-1,110,-1,-1,-1,-1,-1,-1,-1,-1,-1,-1,-1,-1,-1,-1,-1,-1,-1,-1,-1,-1,-1,-1,-1,-1,-1,-1,-1,-1,-1,-1,-1,-1,-1,-1,-1,-1,-1,-1,-1,-1,-1,-1,-1,-1,-1,-1,-1,-1],"split_conditions":[4.597701E-2,4.5751635E-2,-4.4583333E-1,7.68563E-1,1.6825132E-1,-3.2052022E-1,-6.00008E-1,5.4054055E-2,9.729285E-1,7.3571426E-1,3.65E-1,3.673077E-1,5.690855E-1,3.3857143E-1,5.170038E-1,4.7E1,2.2591075E-1,-1.43625E-1,6.93E-1,-1.3436496E0,3.399898E-1,1.1633337E-2,-1.0608187E-1,1.028166E-3,3.0254552E-1,2.0775E-1,3.8388988E-1,-3.6609745E-1,-2.1233334E-1,2.4368422E-1,4.0396306E-1,1.7285714E-1,1.4854802E0,3.9894736E-1,1.1055048E-1,-6.1866665E-1,-7.844806E-1,3.783943E-1,4.3E1,4.6823528E-2,2.4732073E-1,-3.209375E-1,-4.799333E-1,-1.0536083E0,-1.6666667E-1,7.870464E-2,-7.06072E-1,6.25E-2,-5.197666E-1,-2.908184E-1,-1.1044445E0,-3.2571757E-1,-4.762317E-1,3.3846045E-1,-4.1361833E-1,9.5E-1,-5.1652926E-1,-1.3695043E0,4.454275E-1,7.5777775E-1,1.0195041E0,-3.0586943E-1,1.5053252E-2,6.466463E-2,-3.715919E-1,3.146061E-2,2.764456E-1,-3.4868833E-1,2.7532703E-1,-1.6888359E-1,2.375182E-1,3.3238414E-1,-3.4794295E-1,-9.848661E-1,-4.66713E-1,-3.134221E-1,-7.603529E-1,4.8398685E-1,-2.0881663E-1,-4.2421472E-1,-1.2331297E-1,6.233649E-1,-3.310656E-1,1.9039176E0,-3.0573678E-1,8.3637424E-2,-3.2321674E-1,-4.635504E-1,4.3976197E-1,1.2691407E-1,-3.138794E-1,-3.0341792E-1,-3.6837763E-1,4.7959352E-1,1.5930583E-1,2.756118E-1,6.211002E-1,-4.5049304E-1,1.4036238E-1,-3.9056456E-1,2.2353303E-1,8.839536E-1,-3.219015E-1,-3.9304814E-1,6.360643E-2,-3.117418E-1,5.907757E-2,-3.6281836E-1,-5.729025E-1,3.1784007E-1,1.5977421E-1],"split_indices":[159,158,73,199,181,112,44,166,141,67,74,94,139,64,125,25,204,57,128,190,155,137,194,19,125,101,183,180,96,72,182,101,155,94,137,39,187,0,21,112,198,98,0,190,126,137,37,132,0,0,7,0,0,183,0,86,196,181,182,51,155,0,181,0,0,0,0,0,0,0,0,0,0,0,0,0,0,0,0,0,0,0,0,0,0,0,0,0,0,0,0,0,0,0,0,0,0,0,0,0,0,0,0,0,0,0,0,0,0,0,0],"split_type":[0,0,0,0,0,0,0,0,0,0,0,0,0,0,0,0,0,0,0,0,0,0,0,0,0,0,0,0,0,0,0,0,0,0,0,0,0,0,0,0,0,0,0,0,0,0,0,0,0,0,0,0,0,0,0,0,0,0,0,0,0,0,0,0,0,0,0,0,0,0,0,0,0,0,0,0,0,0,0,0,0,0,0,0,0,0,0,0,0,0,0,0,0,0,0,0,0,0,0,0,0,0,0,0,0,0,0,0,0,0,0],"sum_hessian":[6.985824E4,6.4543383E4,5.3148623E3,5.980577E4,4.7376133E3,8.2315936E2,4.491703E3,5.92838E4,5.2196533E2,2.618019E3,2.119594E3,2.1273093E2,6.104284E2,2.2779536E3,2.2137495E3,5.682316E4,2.4606418E3,4.6793695E2,5.40284E1,2.4623582E3,1.5566087E2,8.373092E2,1.2822849E3,1.7131863E2,4.141228E1,4.2537E1,5.678914E2,1.1985527E3,1.079401E3,2.181233E3,3.251661E1,1.6617106E3,5.516145E4,1.4308435E3,1.0297983E3,5.4197727E1,4.1373923E2,4.8401077E1,5.627322E0,2.9597565E2,2.1663826E3,1.3998419E2,1.5676692E1,3.0407936E1,8.0690125E2,7.521494E2,5.3013544E2,1.4984581E2,2.1472824E1,3.902413E0,3.750987E1,3.2654896E1,9.882101E0,5.420037E2,2.5887728E1,2.5059682E2,9.479559E2,3.302797E1,1.0463729E3,1.7111326E3,4.7010034E2,1.2924415E1,1.9592194E1,7.085328E2,9.531778E2,5.3948934E4,1.2125146E3,1.3157728E3,1.1507077E2,4.2799756E2,6.0180084E2,3.709982E1,1.7097908E1,3.701622E1,3.76723E2,2.7732353E0,2.8540869E0,1.3132455E2,1.646511E2,1.5882557E3,5.7812683E2,1.3467537E2,5.3088226E0,1.7434439E1,1.2973498E1,1.2846463E2,6.7843665E2,6.108887E1,6.9106055E2,2.8877545E2,2.4136E2,8.5599754E1,6.4246056E1,3.2838337E1,4.671532E0,3.823252E2,1.596785E2,2.3022597E2,2.0370852E1,1.3238303E2,8.155729E2,3.0389847E1,2.6381233E0,9.3958014E2,1.06792816E2,1.7030157E3,8.116855E0,4.3500735E2,3.509299E1,1.4387271E1,5.204922E0],"tree_param":{"num_deleted":"0","num_feature":"276","num_nodes":"111","size_leaf_vector":"1"}},{"base_weights":[-1.3979948E-2,5.143219E-3,-1.0550406E0,-2.8517222E-1,5.1041435E-2,-1.0718403E0,2.68364E-1,-4.4890472E-1,5.267148E-1,1.0375369E-2,5.8950424E-1,-3.080567E-1,-1.2548995E0,-6.582573E-1,3.4930587E-2,-5.622121E-1,9.0692437E-1,4.1018613E-2,-6.4858955E-1,9.061692E-1,-5.80296E-1,-3.6877885E-1,-6.676421E-1,-1.1936834E0,-4.0644854E-1,5.1550126E-1,-5.262428E-1,5.112355E-1,-1.4550775E0,2.6854476E-1,1.2619905E0,6.887085E-2,-6.284584E-1,1.1039724E0,-7.5904596E-1,-6.6547644E-1,1.0009179E0,3.7244472E-1,-1.4017779E0,-3.7897027E-1,1.2608878E-2,-1.5590669E-1,2.6144472E-1,-1.1961498E-1,2.714787E-1,-2.8175935E-1,1.56552E-1,3.6972654E-1,-3.8821313E-1,-3.6255366E-1,-5.6764877E-1,1.687061E-1,-4.3013015E-1,-3.154517E-1,4.0427566E-1,-3.9068894E-3,1.00111835E-1,-3.367586E-1,1.4996074E-1,-6.2660325E-1,4.2429787E-1,-3.639E-1,-3.777678E-2,-4.967463E-1,2.8693405E-1,-3.4314078E-1,3.1569052E-1,-4.9884436E-1,2.4130784E-1,3.3983207E-1,-4.559445E-1],"categories":[],"categories_nodes":[],"categories_segments":[],"categories_sizes":[],"default_left":[0,0,0,0,0,0,0,0,0,0,0,0,0,0,0,0,0,0,0,0,0,0,0,0,0,0,0,0,0,0,0,0,0,0,0,0,0,0,0,0,0,0,0,0,0,0,0,0,0,0,0,0,0,0,0,0,0,0,0,0,0,0,0,0,0,0,0,0,0,0,0],"id":11,"left_children":[1,3,5,7,9,11,-1,13,15,17,19,-1,21,23,25,27,29,31,33,35,37,-1,-1,39,41,43,45,47,49,51,53,55,57,59,61,63,65,67,69,-1,-1,-1,-1,-1,-1,-1,-1,-1,-1,-1,-1,-1,-1,-1,-1,-1,-1,-1,-1,-1,-1,-1,-1,-1,-1,-1,-1,-1,-1,-1,-1],"loss_changes":[1.3450328E3,8.840356E2,4.0872192E1,1.204204E3,1.2544219E3,8.664673E0,0E0,7.635187E2,6.300045E2,1.0756091E3,1.4906569E3,0E0,3.0849E0,7.088501E2,6.1444806E2,3.784716E2,2.551914E2,9.491396E2,4.5903674E2,4.7213306E2,6.7170294E2,0E0,0E0,1.4464185E2,5.185001E2,4.3730963E2,4.554133E2,2.3554819E2,2.0927948E1,2.029641E2,1.4481506E2,1.0598611E3,1.1339574E3,1.4240802E2,6.399679E2,2.9170667E2,3.3032422E2,3.510715E2,1.395539E2,0E0,0E0,0E0,0E0,0E0,0E0,0E0,0E0,0E0,0E0,0E0,0E0,0E0,0E0,0E0,0E0,0E0,0E0,0E0,0E0,0E0,0E0,0E0,0E0,0E0,0E0,0E0,0E0,0E0,0E0,0E0,0E0],"parents":[2147483647,0,0,1,1,2,2,3,3,4,4,5,5,7,7,8,8,9,9,10,10,12,12,13,13,14,14,15,15,16,16,17,17,18,18,19,19,20,20,23,23,24,24,25,25,26,26,27,27,28,28,29,29,30,30,31,31,32,32,33,33,34,34,35,35,36,36,37,37,38,38],"right_children":[2,4,6,8,10,12,-1,14,16,18,20,-1,22,24,26,28,30,32,34,36,38,-1,-1,40,42,44,46,48,50,52,54,56,58,60,62,64,66,68,70,-1,-1,-1,-1,-1,-1,-1,-1,-1,-1,-1,-1,-1,-1,-1,-1,-1,-1,-1,-1,-1,-1,-1,-1,-1,-1,-1,-1,-1,-1,-1,-1],"split_conditions":[9.3E1,3.958E0,6.892582E-1,2.2765554E-1,7.573154E-1,1.563322E-3,2.68364E-1,3.2076922E-1,-1.8166667E-1,6.632653E-1,5.477778E-1,-3.080567E-1,4.5757142E-1,-1.1805091E-3,1.091853E-1,-6.396923E-2,1.6216215E-1,5.0354755E-1,-1.4863559E0,-4.222222E-2,6.5562683E-1,-3.6877885E-1,-6.676421E-1,1.8181819E-1,5.3E-1,3.2303208E-1,-6.5E-2,1.9210557E0,6.1923075E-1,3.026E0,6.146786E-4,-3.0222222E-1,-6.781923E-1,4.7083333E-1,1.091853E-1,1.4399512E-1,3.448276E-2,-1.4E-1,4.9E1,-3.7897027E-1,1.2608878E-2,-1.5590669E-1,2.6144472E-1,-1.1961498E-1,2.714787E-1,-2.8175935E-1,1.56552E-1,3.6972654E-1,-3.8821313E-1,-3.6255366E-1,-5.6764877E-1,1.687061E-1,-4.3013015E-1,-3.154517E-1,4.0427566E-1,-3.9068894E-3,1.00111835E-1,-3.367586E-1,1.4996074E-1,-6.2660325E-1,4.2429787E-1,-3.639E-1,-3.777678E-2,-4.967463E-1,2.8693405E-1,-3.4314078E-1,3.1569052E-1,-4.9884436E-1,2.4130784E-1,3.3983207E-1,-4.559445E-1],"split_indices":[27,1,127,133,181,19,0,94,134,179,122,0,54,183,186,39,13,186,189,96,179,0,0,161,85,179,50,8,72,1,19,154,44,88,186,147,165,60,25,0,0,0,0,0,0,0,0,0,0,0,0,0,0,0,0,0,0,0,0,0,0,0,0,0,0,0,0,0,0,0,0],"split_type":[0,0,0,0,0,0,0,0,0,0,0,0,0,0,0,0,0,0,0,0,0,0,0,0,0,0,0,0,0,0,0,0,0,0,0,0,0,0,0,0,0,0,0,0,0,0,0,0,0,0,0,0,0,0,0,0,0,0,0,0,0,0,0,0,0,0,0,0,0,0,0],"sum_hessian":[6.755987E4,6.634223E4,1.2176405E3,9.056E3,5.728623E4,1.2076841E3,9.956434E0,7.5365566E3,1.5194432E3,5.3264574E4,4.0216555E3,9.74758E2,2.3292603E2,5.2601577E3,2.276399E3,3.93105E2,1.1263383E3,5.089862E4,2.365954E3,3.1650908E3,8.565647E2,2.2914006E2,3.7859623E0,1.6813433E3,3.5788145E3,1.2263091E3,1.0500898E3,1.786956E2,2.144094E2,4.031908E2,7.2314746E2,4.8866523E4,2.0320958E3,1.3974164E2,2.2262126E3,1.7961986E2,2.985471E3,3.9685068E2,4.5971405E2,1.591732E3,8.961117E1,3.2880464E3,2.9076807E2,3.663185E2,8.5999054E2,7.5336176E2,2.9672806E2,1.2791321E2,5.0782394E1,1.3948756E2,7.492183E1,3.4441623E2,5.877455E1,2.5397865E1,6.977496E2,3.7325484E4,1.1541041E4,1.4132633E3,6.1883246E2,1.1872954E1,1.27868675E2,1.2960323E3,9.301802E2,1.11510666E2,6.8109184E1,6.935569E1,2.9161152E3,6.8975586E1,3.278751E2,2.007419E1,4.3963986E2],"tree_param":{"num_deleted":"0","num_feature":"276","num_nodes":"71","size_leaf_vector":"1"}},{"base_weights":[-1.1890472E-2,2.7559875E-3,-1.0617646E0,-8.588055E-2,1.3203476E-1,-1.0402491E0,-4.0921575E-1,-5.4716855E-1,2.3621973E-2,5.3947556E-1,6.195139E-2,-3.0669966E-1,-3.4096202E-1,-6.424768E-1,8.8738495E-1,-1.6731764E-1,1.5323658E-1,6.2464094E-1,-1.6847079E0,-6.444698E-2,4.066979E-1,-1.1358508E0,-3.495355E-1,1.089119E0,-2.227421E0,-4.5322046E-1,6.9072835E-2,-2.6051065E-1,2.3940048E-1,9.2212427E-1,-3.6090963E-2,-2.1400115E0,-1.3204561E0,-1.9280282E-1,4.386718E-1,-1.4213485E0,5.090547E-1,-4.1164395E-1,-1.7623329E-1,2.8283224E-1,-1.5059084E-1,-6.666226E-1,3.5075772E-1,-3.8363758E-1,-7.321912E-1,-1.1332719E-2,-2.860914E-1,9.262525E-2,-1.440533E-1,-3.678858E-1,-3.509444E-2,4.669117E-2,2.1126233E-1,2.9240608E-1,-4.7811657E-1,-2.9030937E-1,9.293683E-2,-5.6649846E-1,-7.9537636E-1,-4.3312556E-1,-3.1847316E-1,-1.14624135E-1,2.3088757E-2,1.8234837E-1,-3.8987276E-1,3.991017E-1,-6.336392E-1,1.6873299E-1,-5.089935E-1],"categories":[],"categories_nodes":[],"categories_segments":[],"categories_sizes":[],"default_left":[0,0,0,0,0,0,0,0,0,0,0,0,0,0,0,0,0,0,0,0,0,0,0,0,0,0,0,0,0,0,0,0,0,0,0,0,0,0,0,0,0,0,0,0,0,0,0,0,0,0,0,0,0,0,0,0,0,0,0,0,0,0,0,0,0,0,0,0,0],"id":12,"left_children":[1,3,5,7,9,11,-1,13,15,17,19,-1,-1,21,23,25,27,29,31,33,35,37,39,41,43,45,47,49,51,53,55,57,59,61,63,65,67,-1,-1,-1,-1,-1,-1,-1,-1,-1,-1,-1,-1,-1,-1,-1,-1,-1,-1,-1,-1,-1,-1,-1,-1,-1,-1,-1,-1,-1,-1,-1,-1],"loss_changes":[1.00820746E3,7.4099506E2,4.448242E0,1.9378234E3,7.510354E2,2.982788E-1,0E0,1.0068342E3,7.6734094E2,7.3225684E2,9.780122E2,0E0,0E0,9.9712573E2,2.9079642E2,8.4733923E2,6.584643E2,7.3093555E2,2.0828308E1,1.0606698E3,1.1273816E3,3.3233862E2,8.538457E2,1.1705316E2,2.5914917E0,1.1796439E3,9.036946E2,4.411676E2,5.950236E2,3.4063257E2,3.7259848E2,2.94281E0,1.0798187E0,6.6819275E2,9.824435E2,6.1018317E2,6.725033E2,0E0,0E0,0E0,0E0,0E0,0E0,0E0,0E0,0E0,0E0,0E0,0E0,0E0,0E0,0E0,0E0,0E0,0E0,0E0,0E0,0E0,0E0,0E0,0E0,0E0,0E0,0E0,0E0,0E0,0E0,0E0,0E0],"parents":[2147483647,0,0,1,1,2,2,3,3,4,4,5,5,7,7,8,8,9,9,10,10,13,13,14,14,15,15,16,16,17,17,18,18,19,19,20,20,21,21,22,22,23,23,24,24,25,25,26,26,27,27,28,28,29,29,30,30,31,31,32,32,33,33,34,34,35,35,36,36],"right_children":[2,4,6,8,10,12,-1,14,16,18,20,-1,-1,22,24,26,28,30,32,34,36,38,40,42,44,46,48,50,52,54,56,58,60,62,64,66,68,-1,-1,-1,-1,-1,-1,-1,-1,-1,-1,-1,-1,-1,-1,-1,-1,-1,-1,-1,-1,-1,-1,-1,-1,-1,-1,-1,-1,-1,-1,-1,-1],"split_conditions":[3.815751E0,6.096E0,2.8966865E-1,-5.985E-1,-1.0666153E0,2.2810811E-1,-4.0921575E-1,5.714286E-1,1.6076158E0,1.852075E-1,2.4583748E-1,-3.0669966E-1,-3.4096202E-1,-4.4647512E-1,2.3624578E0,5.257143E-1,-2.937037E-1,3.01E0,2.7555556E0,9.058333E-1,-5.4333335E-1,-2.7948718E-3,-1.6243067E0,8.834093E-2,1.9636364E-1,3.0646667E-1,8.5714287E-1,6.638654E-2,2.2727273E-1,3.4285715E-1,8.8999426E-1,5.571111E-1,2.3538461E-1,-1.18104234E-1,4.097059E-2,6.614286E-1,1.035E-1,-4.1164395E-1,-1.7623329E-1,2.8283224E-1,-1.5059084E-1,-6.666226E-1,3.5075772E-1,-3.8363758E-1,-7.321912E-1,-1.1332719E-2,-2.860914E-1,9.262525E-2,-1.440533E-1,-3.678858E-1,-3.509444E-2,4.669117E-2,2.1126233E-1,2.9240608E-1,-4.7811657E-1,-2.9030937E-1,9.293683E-2,-5.6649846E-1,-7.9537636E-1,-4.3312556E-1,-3.1847316E-1,-1.14624135E-1,2.3088757E-2,1.8234837E-1,-3.8987276E-1,3.991017E-1,-6.336392E-1,1.6873299E-1,-5.089935E-1],"split_indices":[8,1,143,154,204,72,0,132,149,41,208,0,0,185,149,177,104,24,24,72,51,80,37,137,63,118,177,151,13,66,149,54,99,204,76,83,52,0,0,0,0,0,0,0,0,0,0,0,0,0,0,0,0,0,0,0,0,0,0,0,0,0,0,0,0,0,0,0,0],"split_type":[0,0,0,0,0,0,0,0,0,0,0,0,0,0,0,0,0,0,0,0,0,0,0,0,0,0,0,0,0,0,0,0,0,0,0,0,0,0,0,0,0,0,0,0,0,0,0,0,0,0,0,0,0,0,0,0,0,0,0,0,0,0,0,0,0,0,0,0,0],"sum_hessian":[6.556502E4,6.466391E4,9.011083E2,3.836222E4,2.6301693E4,8.4537946E2,5.5728794E1,7.35878E3,3.1003438E4,3.8591592E3,2.2442535E4,7.225512E2,1.228283E2,6.900856E3,4.5792386E2,1.2535979E4,1.8467459E4,3.7175317E3,1.4162747E2,1.6422264E4,6.02027E3,2.5698376E3,4.331018E3,4.3068066E2,2.7243189E1,5.6733813E3,6.862597E3,3.1826736E3,1.5284786E4,2.5631304E3,1.1544014E3,6.0779655E1,8.084782E1,1.3084706E4,3.337558E3,3.185328E2,5.7017373E3,1.7949384E3,7.748993E2,4.564159E2,3.8746023E3,9.537455E0,4.2114322E2,6.283709E0,2.095948E1,3.1004636E3,2.5729177E3,4.7780317E3,2.0845654E3,4.1081937E2,2.7718542E3,1.2952027E4,2.332759E3,2.5112756E3,5.185454E1,3.1206805E2,8.423334E2,4.387415E1,1.6905508E1,5.1664673E1,2.9183142E1,7.689232E3,5.395474E3,3.0421628E3,2.9539523E2,6.373251E1,2.548003E2,5.567717E3,1.3402048E2],"tree_param":{"num_deleted":"0","num_feature":"276","num_nodes":"69","size_leaf_vector":"1"}},{"base_weights":[-9.827634E-3,2.1504487E-3,-1.0334097E0,-2.9453484E-2,3.3092865E-1,-1.0514269E0,2.3701999E-1,-2.9122505E-1,2.7077276E-2,5.2151334E-1,-1.8547305E-1,-3.0535305E-1,-3.545913E-1,-4.905249E-1,4.4383278E-1,-2.090384E0,3.3853464E-2,-9.32225E-1,5.8333117E-1,8.596577E-1,-5.9987503E-1,-6.0656506E-1,4.241965E-1,7.915119E-1,-4.202909E-1,-1.4197687E0,-2.2707067E0,-1.003094E-1,1.3462865E-1,7.1945214E-1,-1.7965744E0,-1.6324247E0,6.2366885E-1,1.2056222E0,-1.8991232E0,-9.116276E-1,5.0257915E-1,-2.3860401E-1,8.997906E-3,-4.433791E-1,1.69478E-1,-4.9422085E-1,2.7076778E-1,-2.7925485E-1,6.313623E-1,-3.0947736E-1,-4.847401E-1,-6.489643E-1,-8.605354E-1,-1.6379482E-1,1.3842202E-2,5.3448003E-2,-2.0572408E-1,-3.976589E-1,-8.0709785E-1,-4.0289754E-1,-5.789963E-1,1.9513547E-1,-6.066159E-1,-4.4611955E-1,4.3084937E-1,-4.3092844E-1,-9.068289E-1,-4.1415834E-1,3.846243E-2,-7.485196E-1,2.4511848E-1],"categories":[],"categories_nodes":[],"categories_segments":[],"categories_sizes":[],"default_left":[0,0,0,0,0,0,0,0,0,0,0,0,0,0,0,0,0,0,0,0,0,0,0,0,0,0,0,0,0,0,0,0,0,0,0,0,0,0,0,0,0,0,0,0,0,0,0,0,0,0,0,0,0,0,0,0,0,0,0,0,0,0,0,0,0,0,0],"id":13,"left_children":[1,3,5,7,9,11,-1,13,15,17,19,-1,-1,21,23,25,27,29,31,33,35,37,39,41,43,45,47,49,51,-1,53,55,57,59,61,63,65,-1,-1,-1,-1,-1,-1,-1,-1,-1,-1,-1,-1,-1,-1,-1,-1,-1,-1,-1,-1,-1,-1,-1,-1,-1,-1,-1,-1,-1,-1],"loss_changes":[7.772919E2,6.511451E2,2.4922607E1,8.46029E2,5.4095966E2,1.9822388E0,0E0,1.4876973E3,6.7470123E2,3.6130188E2,6.424597E2,0E0,0E0,8.4817554E2,6.511754E2,1.4915161E1,6.33697E2,4.767663E2,3.4523572E2,4.0434448E2,3.654415E2,8.519663E2,2.417242E2,4.199602E2,8.0401086E2,9.550247E-1,1.2833862E0,1.3122413E3,9.559665E2,0E0,5.1533447E1,3.3622131E0,2.6938428E2,2.3487701E2,2.0264069E1,4.039912E2,2.2333295E2,0E0,0E0,0E0,0E0,0E0,0E0,0E0,0E0,0E0,0E0,0E0,0E0,0E0,0E0,0E0,0E0,0E0,0E0,0E0,0E0,0E0,0E0,0E0,0E0,0E0,0E0,0E0,0E0,0E0,0E0],"parents":[2147483647,0,0,1,1,2,2,3,3,4,4,5,5,7,7,8,8,9,9,10,10,13,13,14,14,15,15,16,16,17,17,18,18,19,19,20,20,21,21,22,22,23,23,24,24,25,25,26,26,27,27,28,28,30,30,31,31,32,32,33,33,34,34,35,35,36,36],"right_children":[2,4,6,8,10,12,-1,14,16,18,20,-1,-1,22,24,26,28,30,32,34,36,38,40,42,44,46,48,50,52,-1,54,56,58,60,62,64,66,-1,-1,-1,-1,-1,-1,-1,-1,-1,-1,-1,-1,-1,-1,-1,-1,-1,-1,-1,-1,-1,-1,-1,-1,-1,-1,-1,-1,-1,-1],"split_conditions":[9.3E1,9.994E0,9.125423E-1,-6.0953295E-1,-3.2669607E-1,1.6490463E-3,2.3701999E-1,-6.435714E-2,-1.1808612E0,1.150293E1,-1.5268572E-1,-3.0535305E-1,-3.545913E-1,1.194437E0,2.8571429E-2,3.5135135E-1,1.1278809E1,2.7579472E-3,8.291698E-2,1.038E2,2.9727724E-1,5.6938773E-1,1.15544E3,2.76E0,7.344623E-2,-1.3077778E0,8.8714284E-1,-2.541798E-2,7.514451E-2,7.1945214E-1,5.932174E-1,-3.8125E-2,4.6530613E-1,1.0440735E-1,2.820513E-1,1.0022222E0,-2.3E-2,-2.3860401E-1,8.997906E-3,-4.433791E-1,1.69478E-1,-4.9422085E-1,2.7076778E-1,-2.7925485E-1,6.313623E-1,-3.0947736E-1,-4.847401E-1,-6.489643E-1,-8.605354E-1,-1.6379482E-1,1.3842202E-2,5.3448003E-2,-2.0572408E-1,-3.976589E-1,-8.0709785E-1,-4.0289754E-1,-5.789963E-1,1.9513547E-1,-6.066159E-1,-4.4611955E-1,4.3084937E-1,-4.3092844E-1,-9.068289E-1,-4.1415834E-1,3.846243E-2,-7.485196E-1,2.4511848E-1],"split_indices":[27,1,135,184,183,19,0,79,183,2,41,0,0,155,177,14,2,147,143,3,204,178,4,24,183,154,72,181,167,0,155,100,179,127,14,120,114,0,0,0,0,0,0,0,0,0,0,0,0,0,0,0,0,0,0,0,0,0,0,0,0,0,0,0,0,0,0],"split_type":[0,0,0,0,0,0,0,0,0,0,0,0,0,0,0,0,0,0,0,0,0,0,0,0,0,0,0,0,0,0,0,0,0,0,0,0,0,0,0,0,0,0,0,0,0,0,0,0,0,0,0,0,0,0,0,0,0,0,0,0,0,0,0,0,0,0,0],"sum_hessian":[6.339661E4,6.26643E4,7.3230743E2,5.716975E4,5.494554E3,7.255618E2,6.7456207E0,1.0152658E4,4.701709E4,4.0133613E3,1.4811929E3,5.840961E2,1.4146573E2,7.9873433E3,2.165315E3,1.4900076E2,4.686809E4,1.6312604E2,3.8502354E3,4.2024683E2,1.060946E3,7.08845E3,8.988933E2,1.5441229E3,6.2119196E2,3.3455208E1,1.1554556E2,2.0103771E4,2.6764318E4,3.3247303E1,1.2987874E2,6.813438E1,3.7821008E3,3.739186E2,4.6328213E1,8.272024E2,2.3374362E2,5.4669023E3,1.6215479E3,6.126917E1,8.3762415E2,6.664191E1,1.477481E3,5.172314E2,1.0396055E2,1.3327249E1,2.012796E1,1.0184898E2,1.3696574E1,4.971597E3,1.5132173E4,2.5416438E4,1.3478821E3,8.667859E1,4.320014E1,3.733385E1,3.0800526E1,3.7449448E3,3.7156013E1,2.9059479E1,3.4485913E2,3.4429226E1,1.1898985E1,5.6989026E2,2.573121E2,2.1535309E1,2.1220831E2],"tree_param":{"num_deleted":"0","num_feature":"276","num_nodes":"67","size_leaf_vector":"1"}},{"base_weights":[-7.849201E-3,-9.473475E-1,3.1455958E-3,-1.0000944E0,6.2241024E-1,-2.5211567E-2,3.4523097E-1,-3.0366677E-1,-4.5507886E-2,-2.8721148E-1,8.229671E-1,6.8964707E-3,-4.548216E-1,-6.578562E-1,4.3543774E-1,-2.6729107E-1,2.0686273E-1,2.95238E-1,1.4803344E-1,-1.806388E-2,5.6381834E-1,-7.5666714E-1,2.1091929E-1,5.6310636E-1,-1.2021129E0,5.934684E-2,6.726172E-1,-2.9431984E-1,2.0013049E-1,-1.8306061E0,-1.0909325E-2,6.988826E-1,-1.4478112E0,3.668916E-1,-9.883213E-1,4.8191735E-1,-1.8843876E0,1.1746314E0,-3.778768E-1,-1.497166E0,7.128092E-1,-8.437662E-1,3.2206333E-1,7.295509E-1,-1.7559679E0,-4.089384E-1,-1.7432815E0,-1.86544E-1,2.9640521E-3,2.2819553E-1,-4.8526853E-1,-3.8939047E-1,-7.44021E-1,1.7980182E-1,-6.2696993E-1,-3.7468198E-1,3.465346E-2,2.0498493E-1,-3.687588E-1,-6.3463426E-1,2.8522745E-1,2.4860531E-1,3.6437094E-1,-3.3359057E-1,-5.7211506E-1,-3.7217873E-1,3.267591E-1,-4.24363E-1,2.4371564E-1,1.24966405E-1,-5.736496E-1,2.3244284E-1,-2.7340537E-1,-6.507157E-1,2.7499664E-1],"categories":[],"categories_nodes":[],"categories_segments":[],"categories_sizes":[],"default_left":[0,0,0,0,0,0,0,0,0,0,0,0,0,0,0,0,0,0,0,0,0,0,0,0,0,0,0,0,0,0,0,0,0,0,0,0,0,0,0,0,0,0,0,0,0,0,0,0,0,0,0,0,0,0,0,0,0,0,0,0,0,0,0,0,0,0,0,0,0,0,0,0,0,0,0],"id":14,"left_children":[1,3,5,7,9,11,13,-1,15,-1,17,19,21,23,25,-1,-1,-1,27,29,31,33,35,37,39,41,43,-1,-1,45,47,49,51,53,55,57,59,61,-1,63,65,67,69,71,73,-1,-1,-1,-1,-1,-1,-1,-1,-1,-1,-1,-1,-1,-1,-1,-1,-1,-1,-1,-1,-1,-1,-1,-1,-1,-1,-1,-1,-1,-1],"loss_changes":[6.381428E2,5.9792664E1,5.923665E2,7.9628296E0,8.343878E0,7.77853E2,4.2325983E2,0E0,6.658508E0,0E0,2.214614E0,7.2939764E2,7.881778E2,2.572386E2,3.8258002E2,0E0,0E0,0E0,3.7956796E0,6.5123584E2,6.1254974E2,7.026787E2,6.959846E2,1.3492274E2,1.5213052E2,3.941294E2,3.649828E2,0E0,0E0,3.5947284E2,6.353308E2,3.0311804E2,1.8735657E1,2.6507343E2,6.437888E2,3.7458807E2,9.3980896E1,2.3924255E-1,0E0,3.4507996E1,2.8094444E1,3.5502374E2,2.7242853E2,1.9163037E2,6.883223E1,0E0,0E0,0E0,0E0,0E0,0E0,0E0,0E0,0E0,0E0,0E0,0E0,0E0,0E0,0E0,0E0,0E0,0E0,0E0,0E0,0E0,0E0,0E0,0E0,0E0,0E0,0E0,0E0,0E0,0E0],"parents":[2147483647,0,0,1,1,2,2,3,3,4,4,5,5,6,6,8,8,10,10,11,11,12,12,13,13,14,14,18,18,19,19,20,20,21,21,22,22,23,23,24,24,25,25,26,26,29,29,30,30,31,31,32,32,33,33,34,34,35,35,36,36,37,37,39,39,40,40,41,41,42,42,43,43,44,44],"right_children":[2,4,6,8,10,12,14,-1,16,-1,18,20,22,24,26,-1,-1,-1,28,30,32,34,36,38,40,42,44,-1,-1,46,48,50,52,54,56,58,60,62,-1,64,66,68,70,72,74,-1,-1,-1,-1,-1,-1,-1,-1,-1,-1,-1,-1,-1,-1,-1,-1,-1,-1,-1,-1,-1,-1,-1,-1,-1,-1,-1,-1,-1,-1],"split_conditions":[5.882353E-2,2.57125E-1,1.8892613E-1,2.5E-1,1.04E0,2.3749293E-1,1.1666667E-2,-3.0366677E-1,1.1E0,-2.8721148E-1,4.680867E-2,2.2765554E-1,1.9543E3,-6.288889E-1,-2.7726611E-1,-2.6729107E-1,2.0686273E-1,2.95238E-1,1.3107961E-1,-8.288889E-1,6.756757E-3,3.32E-1,8.475876E-2,-1.0762162E0,4.3666667E-1,2.2846153E-1,5.376344E-2,-2.9431984E-1,2.0013049E-1,1.925448E0,-3.10625E-2,1.0526316E-1,1.8E2,3.75E-1,3.1E-2,2.874E-1,9.3237066E-1,-1.6364285E-1,-3.778768E-1,3.994E0,9.8703915E-1,2.79375E-1,6.349207E-2,5.6466293E-1,1.0339488E0,-4.089384E-1,-1.7432815E0,-1.86544E-1,2.9640521E-3,2.2819553E-1,-4.8526853E-1,-3.8939047E-1,-7.44021E-1,1.7980182E-1,-6.2696993E-1,-3.7468198E-1,3.465346E-2,2.0498493E-1,-3.687588E-1,-6.3463426E-1,2.8522745E-1,2.4860531E-1,3.6437094E-1,-3.3359057E-1,-5.7211506E-1,-3.7217873E-1,3.267591E-1,-4.24363E-1,2.4371564E-1,1.24966405E-1,-5.736496E-1,2.3244284E-1,-2.7340537E-1,-6.507157E-1,2.7499664E-1],"split_indices":[132,107,151,167,177,131,54,0,177,0,129,133,4,85,186,0,0,0,153,91,169,150,183,48,103,93,168,0,0,139,118,175,26,170,76,89,135,110,0,1,40,94,171,183,127,0,0,0,0,0,0,0,0,0,0,0,0,0,0,0,0,0,0,0,0,0,0,0,0,0,0,0,0,0,0],"split_type":[0,0,0,0,0,0,0,0,0,0,0,0,0,0,0,0,0,0,0,0,0,0,0,0,0,0,0,0,0,0,0,0,0,0,0,0,0,0,0,0,0,0,0,0,0,0,0,0,0,0,0,0,0,0,0,0,0,0,0,0,0,0,0,0,0,0,0,0,0,0,0,0,0,0,0],"sum_hessian":[6.177684E4,7.1361633E2,6.1063223E4,6.9076807E2,2.284827E1,5.6389723E4,4.673499E3,6.820423E2,8.72576E0,2.1487837E0,2.0699488E1,5.2469277E4,3.9204458E3,3.8508737E2,4.2884116E3,3.9594452E0,4.7663155E0,1.633979E1,4.3596964E0,5.021949E4,2.2497898E3,2.6973406E3,1.2231053E3,1.1872039E2,2.6636697E2,1.6590067E3,2.629405E3,1.0927176E0,3.266979E0,1.9644734E2,5.002304E4,2.1088506E3,1.4093925E2,4.6097177E2,2.2363687E3,1.0837126E3,1.3939276E2,8.916168E1,2.955871E1,2.3099342E2,3.537354E1,3.7335422E2,1.2856525E3,2.569859E3,5.9545998E1,1.770015E2,1.9445837E1,1.6453436E3,4.8377695E4,2.0547317E3,5.4118847E1,1.25045074E2,1.5894177E1,4.218178E2,3.9153984E1,1.8091023E3,4.2726645E2,9.7014545E2,1.1356713E2,1.2912328E2,1.0269493E1,1.1479058E1,7.768262E1,1.20996864E2,1.0999657E2,5.343805E0,3.0029736E1,2.7776947E2,9.558474E1,1.2342657E3,5.1386757E1,2.5013945E3,6.846433E1,5.173775E1,7.808244E0],"tree_param":{"num_deleted":"0","num_feature":"276","num_nodes":"75","size_leaf_vector":"1"}},{"base_weights":[-5.466222E-3,1.3357859E-2,-4.736752E-1,-6.192779E-1,3.1475227E-2,5.3912003E-2,-9.308734E-1,1.7214895E0,-7.79372E-1,4.2121932E-2,-8.668314E-1,3.014146E-1,-1.2180576E0,-1.0642023E0,3.6587942E-2,1.8191669E0,-4.6940103E-1,5.634253E-1,-1.0615079E0,6.557302E-3,3.275168E-1,-2.2981374E0,-2.6538283E-1,4.566299E-1,-1.2544055E0,5.376809E-1,-1.4982942E0,5.394191E-1,-1.1723651E0,-1.2442834E0,1.1825147E0,4.5084262E-1,5.821457E-1,1.3648082E0,-3.757771E-1,-1.5868874E0,-4.8886928E-1,5.6021098E-2,-3.0058604E-1,7.659435E-1,1.01114534E-1,-2.5868323E0,-5.282403E-1,-1.3463022E0,4.6921128E-1,-6.7480695E-1,6.393336E-1,-3.3035308E-1,-4.194904E-1,-5.52788E-1,8.936976E-1,-1.9402208E0,-1.3011703E0,8.8877267E-1,-4.834471E-1,-1.2103784E0,7.434616E-1,-3.050706E-1,-4.3636647E-1,4.0266544E-1,-3.3495504E-1,4.7031188E-1,-4.5293272E-1,-4.982735E-1,1.3064325E-1,-3.7184042E-1,1.3747355E-1,1.0774786E-1,-8.2317076E-4,-3.3566244E-2,-3.297051E-1,-4.863346E-1,2.4859631E-1,-7.803657E-1,4.959785E-2,-6.3446754E-1,-8.2719344E-1,-4.5161298E-1,3.042002E-1,-6.8753946E-1,2.1231619E-1,-3.624983E-1,3.4789887E-1,-4.593356E-1,2.1641666E-1,3.0715117E-1,-2.7705866E-1,-4.2116442E-1,-7.030946E-1,-3.286778E-1,-4.153632E-1,-3.468375E-1,3.1893545E-1,1.4942965E-1,-3.751737E-1,-2.985808E-1,3.2936418E-1],"categories":[],"categories_nodes":[],"categories_segments":[],"categories_sizes":[],"default_left":[0,0,0,0,0,0,0,0,0,0,0,0,0,0,0,0,0,0,0,0,0,0,0,0,0,0,0,0,0,0,0,0,0,0,0,0,0,0,0,0,0,0,0,0,0,0,0,0,0,0,0,0,0,0,0,0,0,0,0,0,0,0,0,0,0,0,0,0,0,0,0,0,0,0,0,0,0,0,0,0,0,0,0,0,0,0,0,0,0,0,0,0,0,0,0,0,0],"id":15,"left_children":[1,3,5,7,9,11,13,15,17,19,21,23,25,27,29,31,-1,33,35,37,39,41,43,45,47,49,51,53,55,57,59,-1,-1,61,-1,63,65,67,69,71,73,75,-1,77,79,81,83,-1,-1,-1,85,87,89,91,-1,93,95,-1,-1,-1,-1,-1,-1,-1,-1,-1,-1,-1,-1,-1,-1,-1,-1,-1,-1,-1,-1,-1,-1,-1,-1,-1,-1,-1,-1,-1,-1,-1,-1,-1,-1,-1,-1,-1,-1,-1,-1],"loss_changes":[5.327092E2,6.660114E2,5.6354614E2,6.0758307E2,5.402989E2,3.4210245E2,1.6148279E2,3.6187927E1,5.7451245E2,5.666543E2,5.6902936E2,2.2020404E2,8.790036E1,1.9143555E2,2.2539848E2,9.7314453E-1,0E0,3.854503E2,3.759513E2,7.542207E2,6.13967E2,2.5796387E1,3.7149142E2,1.715366E2,2.8523254E-1,2.2917667E1,1.0796387E1,5.417713E1,7.597278E1,1.988472E0,3.1251663E1,0E0,0E0,1.0935004E2,0E0,9.842041E1,4.27534E2,7.616933E2,1.037342E3,3.1667456E2,7.085131E2,4.2371216E0,0E0,7.25788E1,1.8523035E2,1.1450708E2,1.2811609E2,0E0,0E0,0E0,6.268566E0,6.4752197E0,3.4757996E-1,2.298727E1,0E0,7.007117E1,1.3833563E1,0E0,0E0,0E0,0E0,0E0,0E0,0E0,0E0,0E0,0E0,0E0,0E0,0E0,0E0,0E0,0E0,0E0,0E0,0E0,0E0,0E0,0E0,0E0,0E0,0E0,0E0,0E0,0E0,0E0,0E0,0E0,0E0,0E0,0E0,0E0,0E0,0E0,0E0,0E0,0E0],"parents":[2147483647,0,0,1,1,2,2,3,3,4,4,5,5,6,6,7,7,8,8,9,9,10,10,11,11,12,12,13,13,14,14,15,15,17,17,18,18,19,19,20,20,21,21,22,22,23,23,24,24,25,25,26,26,27,27,28,28,29,29,30,30,33,33,35,35,36,36,37,37,38,38,39,39,40,40,41,41,43,43,44,44,45,45,46,46,50,50,51,51,52,52,53,53,55,55,56,56],"right_children":[2,4,6,8,10,12,14,16,18,20,22,24,26,28,30,32,-1,34,36,38,40,42,44,46,48,50,52,54,56,58,60,-1,-1,62,-1,64,66,68,70,72,74,76,-1,78,80,82,84,-1,-1,-1,86,88,90,92,-1,94,96,-1,-1,-1,-1,-1,-1,-1,-1,-1,-1,-1,-1,-1,-1,-1,-1,-1,-1,-1,-1,-1,-1,-1,-1,-1,-1,-1,-1,-1,-1,-1,-1,-1,-1,-1,-1,-1,-1,-1,-1],"split_conditions":[5.4054055E-2,2.625716E-1,-6.9041096E-2,-3.9025E1,2.831E4,1.72897E-1,4.8357564E-1,3.3653846E-1,9.4E-1,2.0833333E-1,-8.247147E-1,7.9530615E-1,-5.349524E-1,-3.275E-1,1.6267742E-1,-8.979592E-1,-4.6940103E-1,-4.3952876E-1,3.4191666E1,5.1020407E-3,3.384935E-1,3.7218872E-1,1.8190476E-1,1.545E-1,9.6262165E-4,3.267861E-1,2.488889E0,2.7071676E-1,9.5973533E-1,1.5384616E-1,-2.2E-1,4.5084262E-1,5.821457E-1,9.396864E-2,-3.757771E-1,1.90096E-1,2.822841E-1,-9.885714E-1,-8.482371E-2,-5.5916667E-2,4.1580327E-2,-1.51093E0,-5.282403E-1,7.031292E-1,3.2303357E-1,8.7521863E-1,-6.034985E-1,-3.3035308E-1,-4.194904E-1,-5.52788E-1,1.1900366E-1,1.0261699E0,1.0945801E1,8.8789456E-2,-4.834471E-1,-2.43E1,4.3470588E-1,-3.050706E-1,-4.3636647E-1,4.0266544E-1,-3.3495504E-1,4.7031188E-1,-4.5293272E-1,-4.982735E-1,1.3064325E-1,-3.7184042E-1,1.3747355E-1,1.0774786E-1,-8.2317076E-4,-3.3566244E-2,-3.297051E-1,-4.863346E-1,2.4859631E-1,-7.803657E-1,4.959785E-2,-6.3446754E-1,-8.2719344E-1,-4.5161298E-1,3.042002E-1,-6.8753946E-1,2.1231619E-1,-3.624983E-1,3.4789887E-1,-4.593356E-1,2.1641666E-1,3.0715117E-1,-2.7705866E-1,-4.2116442E-1,-7.030946E-1,-3.286778E-1,-4.153632E-1,-3.468375E-1,3.1893545E-1,1.4942965E-1,-3.751737E-1,-2.985808E-1,3.2936418E-1],"split_indices":[166,149,78,3,9,133,188,14,146,63,180,178,115,123,137,178,0,181,3,157,141,239,106,95,19,184,24,145,182,17,142,0,0,125,0,151,127,178,38,109,127,182,0,143,139,179,179,0,0,0,125,155,2,187,0,3,67,0,0,0,0,0,0,0,0,0,0,0,0,0,0,0,0,0,0,0,0,0,0,0,0,0,0,0,0,0,0,0,0,0,0,0,0,0,0,0,0],"split_type":[0,0,0,0,0,0,0,0,0,0,0,0,0,0,0,0,0,0,0,0,0,0,0,0,0,0,0,0,0,0,0,0,0,0,0,0,0,0,0,0,0,0,0,0,0,0,0,0,0,0,0,0,0,0,0,0,0,0,0,0,0,0,0,0,0,0,0,0,0,0,0,0,0,0,0,0,0,0,0,0,0,0,0,0,0,0,0,0,0,0,0,0,0,0,0,0,0],"sum_hessian":[6.0439992E4,5.8104887E4,2.3351033E3,1.6167522E3,5.6488137E4,1.0845087E3,1.2505946E3,1.0287298E2,1.5138792E3,5.582742E4,6.607118E2,9.084948E2,1.7601385E2,1.0990333E3,1.5156126E2,1.0033699E2,2.5359895E0,2.6268066E2,1.2511985E3,4.964225E4,6.185172E3,1.9465582E2,4.6605597E2,8.267238E2,8.1771E1,2.4100525E1,1.5191333E2,6.919287E1,1.0298405E3,7.1526245E1,8.003502E1,3.1522942E1,6.881405E1,1.824267E2,8.025396E1,6.5160175E2,5.995968E2,4.2757242E4,6.8850083E3,2.1054998E3,4.0796719E3,1.2414318E2,7.051264E1,1.8823889E2,2.7781708E2,1.1456415E2,7.1215967E2,4.3791664E1,3.797934E1,2.5923755E0,2.150815E1,4.413211E1,1.0778122E2,6.0029575E1,9.163292E0,1.0101652E3,1.9675207E1,3.7168945E1,3.4357296E1,7.522562E1,4.809403E0,1.7082399E2,1.1602711E1,6.2876587E2,2.283587E1,3.3432883E2,2.6526797E2,6.9419873E3,3.5815258E4,5.5698E3,1.3152084E3,5.326183E1,2.052238E3,9.37723E1,3.9858997E3,3.6501335E1,8.7641846E1,1.7669276E2,1.1546135E1,2.1406324E1,2.5641074E2,8.901666E1,2.5547487E1,2.529952E1,6.8686017E2,2.0478209E1,1.0299416E0,2.0868393E1,2.326372E1,3.5179207E1,7.260201E1,4.2735763E0,5.5756E1,2.2960894E1,9.8720435E2,3.025305E0,1.6649902E1],"tree_param":{"num_deleted":"0","num_feature":"276","num_nodes":"97","size_leaf_vector":"1"}},{"base_weights":[-5.494874E-3,2.327879E-3,-1.0209382E0,-5.3024225E-2,1.5250824E-1,4.4102508E-1,-1.4066483E0,1.0601543E-2,-2.8000802E-1,3.0086377E-1,-1.3037956E-1,1.0222603E0,-1.0866421E0,-3.3977577E-1,-1.6517365E0,2.5030706E-2,-1.3556849E0,-6.449548E-1,-4.2946286E-2,4.642756E-1,-1.529352E-1,-6.239709E-1,2.1888429E-1,1.2151842E0,-3.5137168E-1,-3.975578E-1,1.8668532E-1,-1.5509964E0,-2.5945961E0,-1.9359569E-1,1.1282206E-1,-1.5972368E0,3.864216E-1,-8.782975E-1,6.1531544E-2,2.6686877E-1,-5.8951473E-1,-6.2131617E-2,6.973754E-1,9.33636E-2,-9.940228E-1,2.5299868E-2,-1.1596042E0,-9.4774604E-1,4.215207E-1,3.8928747E-1,8.8698745E-1,-4.764006E-1,-3.574656E-1,-4.8817655E-1,-3.2516966E0,-3.5018418E-2,-4.8792607E-1,-1.4634778E-1,4.934639E-2,-5.034636E-1,1.9974712E-1,-4.141496E-1,-1.4109853E-1,1.6113366E-1,-3.659482E-1,-1.3104847E-1,1.7977643E-1,-3.2088724E-1,2.293397E-2,-3.353865E-1,8.187384E-2,-6.757233E-2,2.3743846E-1,-5.433941E-1,5.368552E-2,-3.7694347E-1,3.7564585E-1,2.796495E-1,-3.2746142E-1,2.51656E-1,-3.8798088E-1,-4.601042E-1,2.197979E-1,1.7925783E-1,-1.7926654E-1,-2.3497337E-1,3.164952E-1,-1.0485358E0,-3.119389E-1],"categories":[],"categories_nodes":[],"categories_segments":[],"categories_sizes":[],"default_left":[0,0,0,0,0,0,0,0,0,0,0,0,0,0,0,0,0,0,0,0,0,0,0,0,0,0,0,0,0,0,0,0,0,0,0,0,0,0,0,0,0,0,0,0,0,0,0,0,0,0,0,0,0,0,0,0,0,0,0,0,0,0,0,0,0,0,0,0,0,0,0,0,0,0,0,0,0,0,0,0,0,0,0,0,0],"id":16,"left_children":[1,3,5,7,9,11,13,15,17,19,21,23,25,-1,27,29,31,33,35,37,39,41,43,45,-1,-1,-1,47,49,51,53,55,-1,57,59,61,63,65,67,69,71,73,75,77,79,-1,81,-1,-1,-1,83,-1,-1,-1,-1,-1,-1,-1,-1,-1,-1,-1,-1,-1,-1,-1,-1,-1,-1,-1,-1,-1,-1,-1,-1,-1,-1,-1,-1,-1,-1,-1,-1,-1,-1],"loss_changes":[4.6982718E2,4.8792114E2,2.5559177E2,6.193917E2,6.634369E2,8.5599655E1,2.2176514E1,6.604471E2,8.123372E2,7.690375E2,9.377292E2,3.080983E1,1.1713238E1,0E0,1.3720062E1,6.3628625E2,2.25633E2,6.0960315E2,9.6424384E2,9.3559607E2,5.6898883E2,