{"learner":{"attributes":{"best_iteration":"469","best_score":"0.01749771778059798","scikit_learn":"{\"_estimator_type\": \"classifier\"}"},"feature_names":[],"feature_types":[],"gradient_booster":{"model":{"gbtree_model_param":{"num_parallel_tree":"1","num_trees":"520"},"iteration_indptr":[0,1,2,3,4,5,6,7,8,9,10,11,12,13,14,15,16,17,18,19,20,21,22,23,24,25,26,27,28,29,30,31,32,33,34,35,36,37,38,39,40,41,42,43,44,45,46,47,48,49,50,51,52,53,54,55,56,57,58,59,60,61,62,63,64,65,66,67,68,69,70,71,72,73,74,75,76,77,78,79,80,81,82,83,84,85,86,87,88,89,90,91,92,93,94,95,96,97,98,99,100,101,102,103,104,105,106,107,108,109,110,111,112,113,114,115,116,117,118,119,120,121,122,123,124,125,126,127,128,129,130,131,132,133,134,135,136,137,138,139,140,141,142,143,144,145,146,147,148,149,150,151,152,153,154,155,156,157,158,159,160,161,162,163,164,165,166,167,168,169,170,171,172,173,174,175,176,177,178,179,180,181,182,183,184,185,186,187,188,189,190,191,192,193,194,195,196,197,198,199,200,201,202,203,204,205,206,207,208,209,210,211,212,213,214,215,216,217,218,219,220,221,222,223,224,225,226,227,228,229,230,231,232,233,234,235,236,237,238,239,240,241,242,243,244,245,246,247,248,249,250,251,252,253,254,255,256,257,258,259,260,261,262,263,264,265,266,267,268,269,270,271,272,273,274,275,276,277,278,279,280,281,282,283,284,285,286,287,288,289,290,291,292,293,294,295,296,297,298,299,300,301,302,303,304,305,306,307,308,309,310,311,312,313,314,315,316,317,318,319,320,321,322,323,324,325,326,327,328,329,330,331,332,333,334,335,336,337,338,339,340,341,342,343,344,345,346,347,348,349,350,351,352,353,354,355,356,357,358,359,360,361,362,363,364,365,366,367,368,369,370,371,372,373,374,375,376,377,378,379,380,381,382,383,384,385,386,387,388,389,390,391,392,393,394,395,396,397,398,399,400,401,402,403,404,405,406,407,408,409,410,411,412,413,414,415,416,417,418,419,420,421,422,423,424,425,426,427,428,429,430,431,432,433,434,435,436,437,438,439,440,441,442,443,444,445,446,447,448,449,450,451,452,453,454,455,456,457,458,459,460,461,462,463,464,465,466,467,468,469,470,471,472,473,474,475,476,477,478,479,480,481,482,483,484,485,486,487,488,489,490,491,492,493,494,495,496,497,498,499,500,501,502,503,504,505,506,507,508,509,510,511,512,513,514,515,516,517,518,519,520],"tree_info":[0,0,0,0,0,0,0,0,0,0,0,0,0,0,0,0,0,0,0,0,0,0,0,0,0,0,0,0,0,0,0,0,0,0,0,0,0,0,0,0,0,0,0,0,0,0,0,0,0,0,0,0,0,0,0,0,0,0,0,0,0,0,0,0,0,0,0,0,0,0,0,0,0,0,0,0,0,0,0,0,0,0,0,0,0,0,0,0,0,0,0,0,0,0,0,0,0,0,0,0,0,0,0,0,0,0,0,0,0,0,0,0,0,0,0,0,0,0,0,0,0,0,0,0,0,0,0,0,0,0,0,0,0,0,0,0,0,0,0,0,0,0,0,0,0,0,0,0,0,0,0,0,0,0,0,0,0,0,0,0,0,0,0,0,0,0,0,0,0,0,0,0,0,0,0,0,0,0,0,0,0,0,0,0,0,0,0,0,0,0,0,0,0,0,0,0,0,0,0,0,0,0,0,0,0,0,0,0,0,0,0,0,0,0,0,0,0,0,0,0,0,0,0,0,0,0,0,0,0,0,0,0,0,0,0,0,0,0,0,0,0,0,0,0,0,0,0,0,0,0,0,0,0,0,0,0,0,0,0,0,0,0,0,0,0,0,0,0,0,0,0,0,0,0,0,0,0,0,0,0,0,0,0,0,0,0,0,0,0,0,0,0,0,0,0,0,0,0,0,0,0,0,0,0,0,0,0,0,0,0,0,0,0,0,0,0,0,0,0,0,0,0,0,0,0,0,0,0,0,0,0,0,0,0,0,0,0,0,0,0,0,0,0,0,0,0,0,0,0,0,0,0,0,0,0,0,0,0,0,0,0,0,0,0,0,0,0,0,0,0,0,0,0,0,0,0,0,0,0,0,0,0,0,0,0,0,0,0,0,0,0,0,0,0,0,0,0,0,0,0,0,0,0,0,0,0,0,0,0,0,0,0,0,0,0,0,0,0,0,0,0,0,0,0,0,0,0,0,0,0,0,0,0,0,0,0,0,0,0,0,0,0,0,0,0,0,0,0,0,0,0,0,0,0,0,0,0,0,0,0,0,0,0,0,0,0,0,0,0,0,0,0,0,0,0,0,0,0,0,0,0,0,0,0,0,0,0,0,0,0,0,0,0,0,0,0,0,0,0,0,0,0,0,0,0,0,0,0,0,0,0,0,0,0,0,0,0,0,0,0],"trees":[{"base_weights":[-2.6487509E-2,-1.16648E0,3.9440894E-1,-1.3378549E0,-2.3587699E-1,1.509456E-2,1.2736337E0,-1.3921542E0,-2.7333704E-1,-1.0344275E0,9.131505E-1,-2.9103142E-1,1.6105088E0,7.017215E-1,1.8298397E0,-1.4628309E0,-9.5138353E-1,-1.2685825E0,1.9928651E0,-1.1016953E0,2.233627E0,1.3434563E0,-9.3525326E-1,-4.473136E-1,1.1523969E0,8.9180887E-1,1.8776827E0,-5.75163E-1,1.2019598E0,5.0140476E-1,2.048349E0,-1.4694015E0,1.372515E0,-1.2316658E0,-3.912985E-1,7.785968E-2,-4.5338178E-1,2.4274297E0,-4.454108E-1,-1.3964586E0,-5.157051E-1,2.6880376E0,-4.014796E-1,6.0700243E-3,1.9818546E0,-1.2996014E0,8.4489715E-1,8.305712E-3,-6.4248616E-1,6.786179E-2,1.7324618E0,-2.0279631E-1,1.5151626E0,1.912637E0,-7.209763E-1,-1.0291388E0,2.0628996E-1,1.6622422E0,5.0838315E-1,1.9500089E0,-9.5721406E-1,1.4922318E-1,2.1336691E0,6.448896E-1,-4.418126E-1,-4.3172857E-1,8.1353635E-1,-3.959254E-1,5.279625E-1,3.7980568E-2,-4.5286033E-1,-4.4930714E-1,7.089316E-1,-4.3504208E-1,7.9625267E-1,-4.3026018E-1,5.87262E-1,-4.0506482E-1,7.528505E-2,8.4821576E-1,-3.0399773E-1,-2.6998737E-1,5.730901E-1,-4.4778734E-1,6.5572023E-1,-4.52736E-1,7.689805E-1,5.5312365E-2,-3.982545E-1,-3.1154957E-1,-9.872716E-2,2.8175384E-1,-3.591507E-1,2.3567206E-1,6.7118794E-1,-2.5933444E-1,4.3429616E-1,-2.2615147E-1,5.440811E-1,5.9346926E-1,1.6487369E-1,-4.4897917E-1,8.0784255E-1,-3.6119607E-1,5.1436645E-1,6.943967E-1,-1.13795474E-1,5.258506E-1,-1.5397514E-1,-4.1404893E-3,3.523811E-1,-1.2227056E-1,7.0283663E-1,-3.9464748E-1,1.6772401E-1,-3.7412483E-1,6.1434513E-1,4.5501846E-1,7.144978E-1],"categories":[],"categories_nodes":[],"categories_segments":[],"categories_sizes":[],"default_left":[0,0,0,0,0,0,0,0,0,0,0,0,0,0,0,0,0,0,0,0,0,0,0,0,0,0,0,0,0,0,0,0,0,0,0,0,0,0,0,0,0,0,0,0,0,0,0,0,0,0,0,0,0,0,0,0,0,0,0,0,0,0,0,0,0,0,0,0,0,0,0,0,0,0,0,0,0,0,0,0,0,0,0,0,0,0,0,0,0,0,0,0,0,0,0,0,0,0,0,0,0,0,0,0,0,0,0,0,0,0,0,0,0,0,0,0,0,0,0],"id":0,"left_children":[1,3,5,7,9,11,13,15,17,19,21,23,25,27,29,31,33,35,37,39,41,43,45,47,49,51,53,55,57,59,61,63,65,67,69,71,-1,73,-1,75,77,79,-1,81,83,85,-1,87,89,91,93,95,97,99,101,103,105,107,109,111,113,115,117,-1,-1,-1,-1,-1,-1,-1,-1,-1,-1,-1,-1,-1,-1,-1,-1,-1,-1,-1,-1,-1,-1,-1,-1,-1,-1,-1,-1,-1,-1,-1,-1,-1,-1,-1,-1,-1,-1,-1,-1,-1,-1,-1,-1,-1,-1,-1,-1,-1,-1,-1,-1,-1,-1,-1,-1],"loss_changes":[6.777807E4,6.074414E3,3.4406547E4,1.8589258E3,5.4373447E3,3.5201473E4,9.889703E3,9.5202344E2,3.5263516E3,7.710039E2,1.933915E3,1.3641952E4,2.226371E3,9.794018E3,4.5745156E3,4.9335938E2,6.6389136E2,3.550597E2,7.246935E2,5.9107666E2,1.1857602E2,1.6831577E3,6.3165674E2,4.852173E3,3.7166401E3,2.147195E3,7.696426E2,1.5315278E3,3.5161143E3,4.7092217E3,2.1929531E3,3.1809375E2,2.3546054E2,7.454702E2,8.1850446E2,6.042392E2,0E0,3.771067E2,0E0,2.9129102E2,7.3495435E2,3.5450012E1,0E0,1.1024366E3,9.485386E2,3.433487E2,0E0,3.8492495E3,4.7407344E3,2.2715527E3,1.8382441E3,1.2489407E3,1.3589951E3,7.4510547E2,3.0318558E2,1.3119619E3,1.9602875E3,1.3059082E3,1.5293579E3,1.0363159E3,6.0415894E2,1.5482136E3,1.9782695E3,0E0,0E0,0E0,0E0,0E0,0E0,0E0,0E0,0E0,0E0,0E0,0E0,0E0,0E0,0E0,0E0,0E0,0E0,0E0,0E0,0E0,0E0,0E0,0E0,0E0,0E0,0E0,0E0,0E0,0E0,0E0,0E0,0E0,0E0,0E0,0E0,0E0,0E0,0E0,0E0,0E0,0E0,0E0,0E0,0E0,0E0,0E0,0E0,0E0,0E0,0E0,0E0,0E0,0E0,0E0,0E0],"parents":[2147483647,0,0,1,1,2,2,3,3,4,4,5,5,6,6,7,7,8,8,9,9,10,10,11,11,12,12,13,13,14,14,15,15,16,16,17,17,18,18,19,19,20,20,21,21,22,22,23,23,24,24,25,25,26,26,27,27,28,28,29,29,30,30,31,31,32,32,33,33,34,34,35,35,37,37,39,39,40,40,41,41,43,43,44,44,45,45,47,47,48,48,49,49,50,50,51,51,52,52,53,53,54,54,55,55,56,56,57,57,58,58,59,59,60,60,61,61,62,62],"right_children":[2,4,6,8,10,12,14,16,18,20,22,24,26,28,30,32,34,36,38,40,42,44,46,48,50,52,54,56,58,60,62,64,66,68,70,72,-1,74,-1,76,78,80,-1,82,84,86,-1,88,90,92,94,96,98,100,102,104,106,108,110,112,114,116,118,-1,-1,-1,-1,-1,-1,-1,-1,-1,-1,-1,-1,-1,-1,-1,-1,-1,-1,-1,-1,-1,-1,-1,-1,-1,-1,-1,-1,-1,-1,-1,-1,-1,-1,-1,-1,-1,-1,-1,-1,-1,-1,-1,-1,-1,-1,-1,-1,-1,-1,-1,-1,-1,-1,-1,-1],"split_conditions":[1.3326088E-1,1.1425532E0,8.5639375E-1,1.3636364E-1,1.7833333E-1,5.770045E-1,7.92E-1,4.9833333E-1,3.478889E-1,6.2E1,5.85E-1,8.505266E-1,3.1578946E-1,1.33E2,1E2,4.963097E-1,9.6551724E-2,-3.8833332E-1,1.07937016E-1,3.101448E-1,-9.466667E-2,3.6144577E-2,8.0940527E-1,-2.02E-1,4.994337E-1,1.7777778E-3,4.4910285E-1,5.714286E-1,-9.481619E-1,2.2510526E-1,2.375E-2,-1.255625E0,1.2E0,8.489796E-1,8.547009E-3,5.193592E-1,-4.5338178E-1,1.4152266E-1,-4.454108E-1,7.227884E-1,6.9E1,-8.385063E-1,-4.014796E-1,8.62069E-2,-2.63625E-1,3.0727273E-1,8.4489715E-1,3.6842104E-2,3.7658733E-1,2.605454E-1,4.5977715E-1,5.050396E-1,1.560274E0,6.349207E-2,1.458443E-1,3.9561539E0,-6.41875E-2,3.4883723E-2,1.5276924E-1,1.1400391E1,7.940909E-1,5.027E0,5.291675E-1,6.448896E-1,-4.418126E-1,-4.3172857E-1,8.1353635E-1,-3.959254E-1,5.279625E-1,3.7980568E-2,-4.5286033E-1,-4.4930714E-1,7.089316E-1,-4.3504208E-1,7.9625267E-1,-4.3026018E-1,5.87262E-1,-4.0506482E-1,7.528505E-2,8.4821576E-1,-3.0399773E-1,-2.6998737E-1,5.730901E-1,-4.4778734E-1,6.5572023E-1,-4.52736E-1,7.689805E-1,5.5312365E-2,-3.982545E-1,-3.1154957E-1,-9.872716E-2,2.8175384E-1,-3.591507E-1,2.3567206E-1,6.7118794E-1,-2.5933444E-1,4.3429616E-1,-2.2615147E-1,5.440811E-1,5.9346926E-1,1.6487369E-1,-4.4897917E-1,8.0784255E-1,-3.6119607E-1,5.1436645E-1,6.943967E-1,-1.13795474E-1,5.258506E-1,-1.5397514E-1,-4.1404893E-3,3.523811E-1,-1.2227056E-1,7.0283663E-1,-3.9464748E-1,1.6772401E-1,-3.7412483E-1,6.1434513E-1,4.5501846E-1,7.144978E-1],"split_indices":[72,139,155,157,95,152,81,86,118,27,51,181,17,26,26,135,132,62,127,189,110,171,182,62,155,108,41,177,44,107,94,49,176,233,168,203,0,182,0,187,25,198,0,164,113,92,0,159,141,192,188,180,149,169,153,82,53,159,54,2,126,1,145,0,0,0,0,0,0,0,0,0,0,0,0,0,0,0,0,0,0,0,0,0,0,0,0,0,0,0,0,0,0,0,0,0,0,0,0,0,0,0,0,0,0,0,0,0,0,0,0,0,0,0,0,0,0,0,0],"split_type":[0,0,0,0,0,0,0,0,0,0,0,0,0,0,0,0,0,0,0,0,0,0,0,0,0,0,0,0,0,0,0,0,0,0,0,0,0,0,0,0,0,0,0,0,0,0,0,0,0,0,0,0,0,0,0,0,0,0,0,0,0,0,0,0,0,0,0,0,0,0,0,0,0,0,0,0,0,0,0,0,0,0,0,0,0,0,0,0,0,0,0,0,0,0,0,0,0,0,0,0,0,0,0,0,0,0,0,0,0,0,0,0,0,0,0,0,0,0,0],"sum_hessian":[1.4125567E5,3.8089363E4,1.0316631E5,3.2165498E4,5.9238667E3,7.207346E4,3.1092852E4,3.0604123E4,1.5613751E3,3.4950076E3,2.428859E3,6.0471152E4,1.1602308E4,1.5331095E4,1.5761756E4,2.6372957E4,4.2311665E3,1.0852203E3,4.761548E2,3.4251687E3,6.983874E1,1.9704209E3,4.5843802E2,5.4564105E4,5.9070483E3,3.145425E3,8.456882E3,4.315474E3,1.1015621E4,2.2268474E3,1.3534908E4,2.6312463E4,6.0494415E1,2.8191738E3,1.4119928E3,1.6583707E2,9.193833E2,4.2353134E2,5.2623436E1,2.2779412E3,1.1472275E3,6.2176224E1,7.6625133E0,6.369915E2,1.3334294E3,4.1845212E2,3.9985924E1,1.6364066E4,3.820004E4,2.0588245E3,3.848224E3,1.1415482E3,2.0038768E3,8.344899E3,1.1198256E2,2.7294915E3,1.5859825E3,6.6205747E3,4.395046E3,1.1170902E3,1.1097573E3,5.8204395E2,1.2952864E4,2.3429825E1,2.6289033E4,1.9494335E1,4.100008E1,2.7390808E3,8.009299E1,9.656485E2,4.463442E2,9.83647E1,6.7472374E1,2.3100224E1,4.0043112E2,2.2531592E3,2.4782034E1,5.489402E2,5.9828735E2,6.014791E1,2.0283124E0,4.3198264E2,2.0500885E2,7.355731E1,1.2598722E3,3.9750134E2,2.0950777E1,1.4459132E4,1.9049346E3,1.6874633E4,2.1325406E4,1.2192777E3,8.3954663E2,1.3390974E3,2.5091267E3,8.152125E2,3.2633572E2,2.3275447E2,1.7711223E3,7.9613286E3,3.8357077E2,9.1707886E1,2.0274672E1,2.5664968E3,1.6299461E2,3.4411447E2,1.241868E3,6.356086E3,2.644891E2,2.4644136E3,1.9306322E3,1.5952676E2,9.575635E2,8.97762E2,2.1199527E2,3.355843E2,2.4645967E2,3.7158428E3,9.237021E3],"tree_param":{"num_deleted":"0","num_feature":"276","num_nodes":"119","size_leaf_vector":"1"}},{"base_weights":[-4.3617327E-2,2.763667E-1,-9.4435567E-1,5.2692045E-2,1.0466278E0,-1.0814366E0,4.7119666E-2,-4.0619856E-1,5.7379985E-1,1.1100571E0,-8.166162E-1,-1.1609007E0,-1.0299901E-1,3.7928653E-1,-1.0745721E0,-1.1286348E0,-1.10776015E-1,-9.009669E-1,7.563836E-1,-1.6601093E-1,1.1833186E0,7.1219057E-1,-1.1834493E0,-1.2643735E0,-5.7845706E-1,-9.705921E-1,7.717891E-1,-3.6049047E-1,7.587253E-1,3.2890158E0,-1.1598696E0,-1.2109199E0,5.0716866E-2,-2.630018E-1,1.2039183E0,-1.0354978E0,6.0303867E-1,2.6105568E-1,1.090857E0,-7.028744E-1,1.8167679E0,1.054662E0,1.6158354E0,-5.044874E-1,1.9291202E0,-1.4436692E0,1.6359068E0,-1.2741519E0,1.1203123E0,-9.80258E-1,3.9164844E-1,-1.2199668E0,1.2284677E0,1.5699304E0,-4.8887327E-1,2.146158E0,-7.0546323E-1,9.030378E-1,-4.5670485E-1,1.1226149E0,-2.5570947E-1,-1.2472148E0,2.3556437E0,-3.9125353E-1,-2.8153327E-1,5.8678126E-1,-1.791801E-1,-1.0644001E-1,2.448806E-1,4.3222892E-1,-4.2949077E-1,1.4888574E-2,-3.8660818E-1,4.6428576E-1,-4.308285E-1,1.7743282E-1,-1.3510266E-1,1.907036E-1,4.020995E-1,4.406487E-1,-3.7378398E-1,6.074892E-1,-4.6604452E-1,3.020887E-1,7.3148215E-1,5.007227E-1,-4.4771752E-1,-4.460683E-1,6.691989E-1,3.1565738E-1,-4.7649473E-1,-4.2973876E-1,6.4708436E-1,-3.8403043E-1,1.0380782E-1,-3.9958757E-1,8.111498E-1,-3.1570905E-1,3.854568E-1,3.91408E-1,-1.7488238E-1,1.7492308E-1,-4.1403875E-1,5.8317995E-1,-3.9811388E-1,-2.157144E-1,6.188648E-1,2.043866E-1,-4.1616774E-1,-4.3997622E-1,7.395688E-1,9.4460234E-2,-3.9124152E-1,3.9880574E-1,4.5266785E-2,-3.9727053E-1,5.571324E-1,1.0762675E0,-3.5871482E-1],"categories":[],"categories_nodes":[],"categories_segments":[],"categories_sizes":[],"default_left":[0,0,0,0,0,0,0,0,0,0,0,0,0,0,0,0,0,0,0,0,0,0,0,0,0,0,0,0,0,0,0,0,0,0,0,0,0,0,0,0,0,0,0,0,0,0,0,0,0,0,0,0,0,0,0,0,0,0,0,0,0,0,0,0,0,0,0,0,0,0,0,0,0,0,0,0,0,0,0,0,0,0,0,0,0,0,0,0,0,0,0,0,0,0,0,0,0,0,0,0,0,0,0,0,0,0,0,0,0,0,0,0,0,0,0,0,0,0,0],"id":1,"left_children":[1,3,5,7,9,11,13,15,17,19,21,23,25,27,29,31,33,35,37,39,41,43,45,47,49,51,53,55,57,59,61,63,65,67,69,71,73,75,77,79,81,83,85,-1,87,89,91,93,95,97,99,101,103,105,107,109,111,113,-1,-1,-1,115,117,-1,-1,-1,-1,-1,-1,-1,-1,-1,-1,-1,-1,-1,-1,-1,-1,-1,-1,-1,-1,-1,-1,-1,-1,-1,-1,-1,-1,-1,-1,-1,-1,-1,-1,-1,-1,-1,-1,-1,-1,-1,-1,-1,-1,-1,-1,-1,-1,-1,-1,-1,-1,-1,-1,-1,-1],"loss_changes":[3.9350844E4,1.735652E4,4.864092E3,1.8669682E4,2.6802383E3,2.4444414E3,1.620418E3,8.860131E3,9.84462E3,2.049877E3,4.1973755E2,1.7517969E3,1.7940112E3,9.421144E2,3.736571E2,1.1693438E3,5.8974976E3,8.15614E2,5.389285E3,1.2693743E3,1.1520977E3,4.2613092E2,4.4458502E2,5.771953E2,1.7109961E3,6.522815E2,1.1851226E3,9.857514E2,7.315525E2,3.942221E1,3.0243042E2,2.8498242E2,9.725308E2,2.6168323E3,1.9109224E3,1.01597144E3,6.404275E2,3.082506E3,2.2042012E3,1.1083053E3,1.8144574E2,1.0524355E3,7.8883105E2,0E0,1.0293228E2,2.0108557E2,8.526845E1,2.3748828E2,3.9723022E2,5.0824316E2,1.1451223E3,3.08745E2,2.2448314E2,8.1501904E2,4.8143704E2,1.6262366E2,6.120309E2,6.6892554E2,0E0,0E0,0E0,2.3016248E2,1.0925293E2,0E0,0E0,0E0,0E0,0E0,0E0,0E0,0E0,0E0,0E0,0E0,0E0,0E0,0E0,0E0,0E0,0E0,0E0,0E0,0E0,0E0,0E0,0E0,0E0,0E0,0E0,0E0,0E0,0E0,0E0,0E0,0E0,0E0,0E0,0E0,0E0,0E0,0E0,0E0,0E0,0E0,0E0,0E0,0E0,0E0,0E0,0E0,0E0,0E0,0E0,0E0,0E0,0E0,0E0,0E0,0E0],"parents":[2147483647,0,0,1,1,2,2,3,3,4,4,5,5,6,6,7,7,8,8,9,9,10,10,11,11,12,12,13,13,14,14,15,15,16,16,17,17,18,18,19,19,20,20,21,21,22,22,23,23,24,24,25,25,26,26,27,27,28,28,29,29,30,30,31,31,32,32,33,33,34,34,35,35,36,36,37,37,38,38,39,39,40,40,41,41,42,42,44,44,45,45,46,46,47,47,48,48,49,49,50,50,51,51,52,52,53,53,54,54,55,55,56,56,57,57,61,61,62,62],"right_children":[2,4,6,8,10,12,14,16,18,20,22,24,26,28,30,32,34,36,38,40,42,44,46,48,50,52,54,56,58,60,62,64,66,68,70,72,74,76,78,80,82,84,86,-1,88,90,92,94,96,98,100,102,104,106,108,110,112,114,-1,-1,-1,116,118,-1,-1,-1,-1,-1,-1,-1,-1,-1,-1,-1,-1,-1,-1,-1,-1,-1,-1,-1,-1,-1,-1,-1,-1,-1,-1,-1,-1,-1,-1,-1,-1,-1,-1,-1,-1,-1,-1,-1,-1,-1,-1,-1,-1,-1,-1,-1,-1,-1,-1,-1,-1,-1,-1,-1,-1],"split_conditions":[1.0989011E-2,1.6727273E-1,1.3588212E0,6.537693E-1,3.883495E-2,7.285714E-2,8.219178E-2,3.292E0,1E2,-1.6461538E-1,-6.829412E-1,1.6461767E-3,6.065306E-1,-4.169231E-2,-3.699E0,5.625E-1,-1.85E-2,6.1E1,5.257143E-1,2.55214E3,1.3628694E0,4.6428572E-2,2.4205263E-1,2.2727273E-1,1.7050374E-1,1.9721429E-1,-2.9725E-1,3.773585E-2,5.154639E-3,-8.4E-1,3.1076923E-1,5.694651E-1,3.5417564E-2,8.505266E-1,4.255319E-2,-2.0158823E-1,6.6950214E2,-8.400143E-1,2.4904762E-1,-3.1666666E-1,-2.710204E-1,5.1323885E-1,7.1820074E-1,-5.044874E-1,-5.454653E-1,-7.4444447E0,2.546489E0,9.7633123E-1,6.9434166E-1,5.117025E-1,3.9395174E-1,-6.6909623E-1,9.942857E-1,-3.4223214E-1,-2.4304116E-1,2.3415385E-1,-2.9026666E-1,-2.55E-2,-4.5670485E-1,1.1226149E0,-2.5570947E-1,6.8E1,6.1217867E-2,-3.9125353E-1,-2.8153327E-1,5.8678126E-1,-1.791801E-1,-1.0644001E-1,2.448806E-1,4.3222892E-1,-4.2949077E-1,1.4888574E-2,-3.8660818E-1,4.6428576E-1,-4.308285E-1,1.7743282E-1,-1.3510266E-1,1.907036E-1,4.020995E-1,4.406487E-1,-3.7378398E-1,6.074892E-1,-4.6604452E-1,3.020887E-1,7.3148215E-1,5.007227E-1,-4.4771752E-1,-4.460683E-1,6.691989E-1,3.1565738E-1,-4.7649473E-1,-4.2973876E-1,6.4708436E-1,-3.8403043E-1,1.0380782E-1,-3.9958757E-1,8.111498E-1,-3.1570905E-1,3.854568E-1,3.91408E-1,-1.7488238E-1,1.7492308E-1,-4.1403875E-1,5.8317995E-1,-3.9811388E-1,-2.157144E-1,6.188648E-1,2.043866E-1,-4.1616774E-1,-4.3997622E-1,7.395688E-1,9.4460234E-2,-3.9124152E-1,3.9880574E-1,4.5266785E-2,-3.9727053E-1,5.571324E-1,1.0762675E0,-3.5871482E-1],"split_indices":[159,100,139,155,166,114,159,1,26,81,92,19,178,116,1,12,79,25,177,4,141,96,107,173,205,52,54,159,157,178,101,181,147,181,166,79,16,44,126,51,178,125,180,0,186,3,36,216,181,200,204,180,146,50,199,107,115,56,0,0,0,27,131,0,0,0,0,0,0,0,0,0,0,0,0,0,0,0,0,0,0,0,0,0,0,0,0,0,0,0,0,0,0,0,0,0,0,0,0,0,0,0,0,0,0,0,0,0,0,0,0,0,0,0,0,0,0,0,0],"split_type":[0,0,0,0,0,0,0,0,0,0,0,0,0,0,0,0,0,0,0,0,0,0,0,0,0,0,0,0,0,0,0,0,0,0,0,0,0,0,0,0,0,0,0,0,0,0,0,0,0,0,0,0,0,0,0,0,0,0,0,0,0,0,0,0,0,0,0,0,0,0,0,0,0,0,0,0,0,0,0,0,0,0,0,0,0,0,0,0,0,0,0,0,0,0,0,0,0,0,0,0,0,0,0,0,0,0,0,0,0,0,0,0,0,0,0,0,0,0,0],"sum_hessian":[1.3652777E5,1.00740695E5,3.5787074E4,7.807091E4,2.2669793E4,3.144009E4,4.3469844E3,4.1513812E4,3.655709E4,2.1923857E4,7.459366E2,2.9078303E4,2.3617886E3,3.3543284E3,9.9265625E2,1.2048118E4,2.9465695E4,4.0269163E3,3.2530172E4,1.1902816E3,2.0733576E4,1.4416708E2,6.017695E2,2.4690746E4,4.3875557E3,1.1857158E3,1.1760729E3,1.137208E3,2.2171204E3,1.8311869E1,9.7434436E2,1.1262305E4,7.8581384E2,2.6408688E4,3.057008E3,3.696575E3,3.3034128E2,1.3112868E4,1.9417305E4,9.371747E2,2.5310689E2,1.59827705E4,4.7508047E3,4.8459946E1,9.570713E1,5.513675E2,5.040197E1,2.4590379E4,1.00366615E2,3.1025305E3,1.2850253E3,1.0653497E3,1.2036605E2,7.199917E2,4.5608118E2,1.3694127E2,1.0002667E3,2.085768E3,1.3135231E2,1.659314E1,1.7187306E0,9.513526E2,2.2991755E1,8.387711E3,2.8745942E3,1.989213E2,5.868926E2,2.4339172E4,2.0695166E3,2.8053574E3,2.5165068E2,6.9950397E2,2.997071E3,2.25927E2,1.0441429E2,8.954426E3,4.158442E3,6.875736E3,1.2541569E4,1.8713431E2,7.500404E2,2.3875691E2,1.4349973E1,1.5451803E4,5.309683E2,4.671255E3,7.954998E1,7.4442544E0,8.826288E1,2.9860117E1,5.215074E2,7.062461E0,4.333951E1,2.450062E4,8.9759514E1,3.94431E1,6.0923515E1,3.0073335E3,9.519722E1,6.632864E2,6.2173883E2,8.669803E1,9.7865173E2,9.4225204E1,2.6140844E1,1.2749967E2,5.92492E2,1.9818027E2,2.579009E2,1.0821085E1,1.2612018E2,3.7005338E2,6.302133E2,1.3307418E3,7.550262E2,9.2887994E2,2.2472683E1,1.7062748E1,5.9290075E0],"tree_param":{"num_deleted":"0","num_feature":"276","num_nodes":"119","size_leaf_vector":"1"}},{"base_weights":[-4.7124486E-2,-1.0258768E0,1.5100898E-1,-1.1282079E0,-3.561383E-1,4.4043168E-1,-2.6208103E-1,-1.1549772E0,1.0150487E0,2.625192E-1,-1.0183616E0,-1.2601581E-1,6.178281E-1,-4.0027103E-1,4.4653675E-1,-1.1634899E0,2.1288717E0,-6.005585E-1,1.7775129E0,-7.1278E-1,9.686166E-1,-1.1284853E0,1.1977257E0,-6.3772446E-1,8.4418213E-1,1.4737614E-3,7.258639E-1,-5.116207E-1,4.1713625E-1,-4.5984957E-1,7.2992045E-1,-1.1719985E0,8.232619E-1,-3.6763555E-1,7.8220445E-1,1.8815614E0,-4.3418226E-1,-1.067451E0,2.593316E0,-1.55109E0,1.1922514E0,-1.1743994E0,4.8039368E-1,1.9289443E0,-3.468954E-1,1.0931724E0,-7.338021E-1,1.041605E0,-3.8453522E-1,2.706249E-1,-1.2369987E0,5.957399E-1,1.2792118E0,-3.3550155E-1,-9.755502E-1,7.1284925E-3,1.4823097E0,-1.1732125E0,6.425468E-1,9.0297234E-1,-1.24330446E-1,-3.5758343E-1,-2.1002139E-1,8.884725E-1,-3.8409758E-1,-2.9095235E-1,5.7564825E-1,7.691019E-1,-3.640052E-1,1.1769183E0,6.074323E-1,-3.887698E-1,-5.038255E-1,4.500492E-1,-2.4683885E-1,9.894979E-2,-3.715003E-1,-2.0313229E-1,6.0136044E-1,4.6823138E-1,-4.7789398E-1,6.3824844E-1,-2.3171091E-1,3.4333912E-1,-5.068509E-1,-3.8472933E-1,1.6466051E-1,-3.2464206E-1,1.4428699E-1,1.7613411E-1,-4.143644E-1,2.5957054E-1,9.28062E-2,-7.3973155E-1,3.941925E-1,-2.3046406E-1,-3.5377696E-2,-3.2555714E-1,1.979732E-1,-3.6881492E-1,9.896626E-2,-2.858341E-1,5.2614087E-1,9.5550257E-1,-3.7700197E-1,-2.0296605E-1,4.9388474E-1,4.593285E-3,3.3904478E-1,-5.1383966E-1,3.0532354E-1],"categories":[],"categories_nodes":[],"categories_segments":[],"categories_sizes":[],"default_left":[0,0,0,0,0,0,0,0,0,0,0,0,0,0,0,0,0,0,0,0,0,0,0,0,0,0,0,0,0,0,0,0,0,0,0,0,0,0,0,0,0,0,0,0,0,0,0,0,0,0,0,0,0,0,0,0,0,0,0,0,0,0,0,0,0,0,0,0,0,0,0,0,0,0,0,0,0,0,0,0,0,0,0,0,0,0,0,0,0,0,0,0,0,0,0,0,0,0,0,0,0,0,0,0,0,0,0,0,0,0,0],"id":2,"left_children":[1,3,5,7,9,11,13,15,17,19,21,23,25,27,29,31,33,-1,35,37,39,41,43,45,47,49,51,53,55,57,59,61,63,-1,-1,65,-1,67,69,71,73,75,-1,77,-1,79,81,83,85,87,89,91,93,95,97,99,101,103,105,107,109,-1,-1,-1,-1,-1,-1,-1,-1,-1,-1,-1,-1,-1,-1,-1,-1,-1,-1,-1,-1,-1,-1,-1,-1,-1,-1,-1,-1,-1,-1,-1,-1,-1,-1,-1,-1,-1,-1,-1,-1,-1,-1,-1,-1,-1,-1,-1,-1,-1,-1],"loss_changes":[2.4810492E4,1.4757852E3,1.2721119E4,1.0731289E3,1.1704579E3,6.287051E3,4.2927495E3,5.183457E2,5.3495764E2,1.018189E3,3.380769E2,7.4086484E3,3.1725938E3,3.3390063E3,1.8378784E3,3.121172E2,8.0342514E1,0E0,6.4776245E1,7.310005E2,4.8502283E2,1.6669348E2,1.1550057E2,1.6255376E3,1.2504062E3,2.3692832E3,2.918211E3,2.6376025E3,1.9209386E3,1.3412505E3,8.058474E2,1.7169727E2,3.5950507E2,0E0,0E0,2.0944641E1,0E0,3.0063043E2,3.7766785E1,1.2695312E-1,4.9023352E2,1.2483667E2,0E0,1.1321777E1,0E0,6.483224E2,1.0231499E3,1.2491978E3,5.991672E2,1.6618455E3,3.346233E2,2.5329902E3,1.00792773E3,2.2032498E3,1.5935967E3,1.2683269E3,8.0987695E2,3.8056494E2,8.886492E2,9.139707E2,1.6689806E3,0E0,0E0,0E0,0E0,0E0,0E0,0E0,0E0,0E0,0E0,0E0,0E0,0E0,0E0,0E0,0E0,0E0,0E0,0E0,0E0,0E0,0E0,0E0,0E0,0E0,0E0,0E0,0E0,0E0,0E0,0E0,0E0,0E0,0E0,0E0,0E0,0E0,0E0,0E0,0E0,0E0,0E0,0E0,0E0,0E0,0E0,0E0,0E0,0E0,0E0],"parents":[2147483647,0,0,1,1,2,2,3,3,4,4,5,5,6,6,7,7,8,8,9,9,10,10,11,11,12,12,13,13,14,14,15,15,16,16,18,18,19,19,20,20,21,21,22,22,23,23,24,24,25,25,26,26,27,27,28,28,29,29,30,30,31,31,32,32,35,35,37,37,38,38,39,39,40,40,41,41,43,43,45,45,46,46,47,47,48,48,49,49,50,50,51,51,52,52,53,53,54,54,55,55,56,56,57,57,58,58,59,59,60,60],"right_children":[2,4,6,8,10,12,14,16,18,20,22,24,26,28,30,32,34,-1,36,38,40,42,44,46,48,50,52,54,56,58,60,62,64,-1,-1,66,-1,68,70,72,74,76,-1,78,-1,80,82,84,86,88,90,92,94,96,98,100,102,104,106,108,110,-1,-1,-1,-1,-1,-1,-1,-1,-1,-1,-1,-1,-1,-1,-1,-1,-1,-1,-1,-1,-1,-1,-1,-1,-1,-1,-1,-1,-1,-1,-1,-1,-1,-1,-1,-1,-1,-1,-1,-1,-1,-1,-1,-1,-1,-1,-1,-1,-1,-1],"split_conditions":[4.0936642E-4,7.3537016E-1,-2.7083334E-2,4E-1,1.44E-1,4.324703E-1,1.24453125E1,8.5E-1,4.5E1,6.9E1,5.7242856E0,3.729565E-1,1.34058E3,4.8064736E-1,1.3452631E-1,2.95E-1,8.632182E-1,-6.005585E-1,6.9291717E-1,1.1823529E0,4.4569167E-1,9.7853756E-1,4.154831E-1,-7.5317097E-1,1.8708883E-1,2.107E0,1.2015778E0,4.8275862E-2,5.3333335E-2,6.007692E-1,-2.1233334E-1,1.3636364E-1,-2.1781818E1,-3.6763555E-1,7.8220445E-1,4.9233332E-1,-4.3418226E-1,-1.6520828E-1,9.96E-1,4.4189665E-1,4.728395E-2,-1.5996552E-1,4.8039368E-1,2.3088986E-1,-3.468954E-1,3.3846154E0,1.3516442E0,3.965229E-1,9.0349436E-2,1.3785714E-1,-8.877778E-1,4.2076923E-2,2.71875E-2,5.193E0,4.8053023E-1,1.3040367E-1,3.5442457E-2,-8.656923E-1,2.2727273E-1,-1.1710042E0,-1.6711764E-1,-3.5758343E-1,-2.1002139E-1,8.884725E-1,-3.8409758E-1,-2.9095235E-1,5.7564825E-1,7.691019E-1,-3.640052E-1,1.1769183E0,6.074323E-1,-3.887698E-1,-5.038255E-1,4.500492E-1,-2.4683885E-1,9.894979E-2,-3.715003E-1,-2.0313229E-1,6.0136044E-1,4.6823138E-1,-4.7789398E-1,6.3824844E-1,-2.3171091E-1,3.4333912E-1,-5.068509E-1,-3.8472933E-1,1.6466051E-1,-3.2464206E-1,1.4428699E-1,1.7613411E-1,-4.143644E-1,2.5957054E-1,9.28062E-2,-7.3973155E-1,3.941925E-1,-2.3046406E-1,-3.5377696E-2,-3.2555714E-1,1.979732E-1,-3.6881492E-1,9.896626E-2,-2.858341E-1,5.2614087E-1,9.5550257E-1,-3.7700197E-1,-2.0296605E-1,4.9388474E-1,4.593285E-3,3.3904478E-1,-5.1383966E-1,3.0532354E-1],"split_indices":[19,155,89,160,7,141,2,53,25,25,7,117,4,181,54,101,183,0,139,75,181,184,135,196,201,124,141,172,92,86,52,157,3,0,0,116,0,186,1,145,121,110,0,147,0,18,8,143,129,94,66,116,117,1,182,127,133,53,170,190,79,0,0,0,0,0,0,0,0,0,0,0,0,0,0,0,0,0,0,0,0,0,0,0,0,0,0,0,0,0,0,0,0,0,0,0,0,0,0,0,0,0,0,0,0,0,0,0,0,0,0],"split_type":[0,0,0,0,0,0,0,0,0,0,0,0,0,0,0,0,0,0,0,0,0,0,0,0,0,0,0,0,0,0,0,0,0,0,0,0,0,0,0,0,0,0,0,0,0,0,0,0,0,0,0,0,0,0,0,0,0,0,0,0,0,0,0,0,0,0,0,0,0,0,0,0,0,0,0,0,0,0,0,0,0,0,0,0,0,0,0,0,0,0,0,0,0,0,0,0,0,0,0,0,0,0,0,0,0,0,0,0,0,0,0],"sum_hessian":[1.27937734E5,2.153813E4,1.063996E5,1.8682844E4,2.8552869E3,6.2564824E4,4.383478E4,1.8452828E4,2.3001443E2,1.4765131E3,1.3787738E3,1.4920906E4,4.7643918E4,3.6681773E4,7.1530054E3,1.8405762E4,4.7067924E1,4.6075977E1,1.8393846E2,6.2005316E2,8.5645984E2,1.3139696E3,6.4804184E1,9.768878E3,5.152028E3,7.1057827E3,4.0538137E4,3.2284287E4,4.3974883E3,1.7035801E3,5.4494253E3,1.8327682E4,7.8080315E1,5.6809416E0,4.1386982E1,1.7859267E2,5.345801E0,5.6059125E2,5.9461914E1,6.933398E1,7.8712585E2,1.2927952E3,2.117446E1,4.9583134E1,1.5221049E1,5.131837E2,9.255694E3,4.4389556E3,7.130722E2,5.837852E3,1.2679303E3,3.2821895E4,7.716242E3,2.3402021E4,8.882266E3,3.1759895E3,1.2214987E3,1.0342504E3,6.693298E2,4.531407E3,9.180179E2,1.7583E4,7.4468097E2,3.8518295E1,3.9562016E1,1.9811451E0,1.7661151E2,2.1014513E1,5.395767E2,1.604187E1,4.3420044E1,2.6913223E1,4.2420753E1,6.830126E2,1.0411328E2,5.253836E1,1.2402568E3,1.1733431E0,4.840979E1,4.374521E2,7.5731636E1,1.2237842E2,9.133315E3,4.278404E3,1.6055183E2,3.6325854E2,3.498137E2,7.8498883E2,5.0528633E3,9.2673996E1,1.1752563E3,1.6908562E4,1.5913332E4,7.032476E1,7.6459175E3,7.8290947E3,1.5572927E4,8.32453E3,5.577348E2,6.5682806E2,2.5191614E3,1.22274864E2,1.0992238E3,1.8735643E1,1.0155147E3,2.893693E2,3.799605E2,9.2360803E2,3.6077993E3,3.8376053E2,5.342573E2],"tree_param":{"num_deleted":"0","num_feature":"276","num_nodes":"111","size_leaf_vector":"1"}},{"base_weights":[-4.5925736E-2,1.8820426E-1,-6.1898124E-1,-2.862682E-1,3.2582334E-1,-8.6330694E-1,7.338467E-2,4.917605E-1,-5.4599047E-1,1.3441578E-1,6.1077166E-1,-9.353684E-1,-2.781624E-2,6.915538E-1,-2.8981048E-1,9.553787E-1,-1.0969242E-1,6.939486E-1,-6.306067E-1,-3.701728E-1,3.6440587E-1,4.481554E-1,9.855637E-1,7.206954E-1,-9.690645E-1,-9.7569436E-1,6.8159586E-1,-3.5907227E-1,1.1667553E0,-7.6413745E-1,1.5541862E-1,-2.936936E-1,1.150457E0,-5.322369E-1,7.1504915E-1,1.3684735E0,-2.7835277E-1,2.8293142E0,-6.579812E-1,-4.9393103E-1,5.267171E-1,1.19770914E-1,7.3778474E-1,7.2114503E-1,-1.1786456E-2,-3.3646753E-1,1.0720419E0,-3.6418104E-1,1.4445277E0,-1.0676222E0,-6.154439E-1,-1.2661129E0,5.764745E-1,8.992533E-1,-1.5923877E0,-9.7875375E-1,1.4748559E0,-8.736646E-1,1.3581642E0,-9.654845E-1,1.0661521E0,1.7989755E0,-1.1175541E-2,2.1971175E-1,-6.5872973E-1,-8.845645E-2,3.8674563E-1,-2.4857096E-1,5.5772346E-1,-4.6641883E-1,3.8649562E-1,-4.7265536E-1,5.0678235E-1,5.934117E-1,-2.6775596E-1,1.0533346E0,-3.7840363E-1,-2.3887788E-1,-2.2551492E-2,-9.411063E-3,-2.2480239E-1,-2.534665E-1,2.587963E-1,-2.5821993E-2,2.7918252E-1,2.667166E-1,-4.6969507E-2,-1.00056835E-1,2.4298848E-1,7.577464E-2,-2.5701115E-1,-2.4468012E-1,3.1200433E-1,4.9793053E-2,3.5944834E-1,-4.1639E-1,5.3384805E-1,-3.2395488E-1,3.5597134E-1,-3.029384E-1,-2.5889056E-2,-3.6301276E-1,-4.772436E-1,5.1478225E-1,-4.409673E-1,3.516874E-1,-3.4426007E-1,-4.15505E-1,-5.784258E-1,2.3470764E-1,-4.1434422E-1,5.0639224E-1,-5.6762147E-1,-3.9579415E-1,1.2022487E0,4.4869348E-1,-3.5771522E-1,-3.202325E-1,4.0212274E-1,4.7351313E-1,-3.984225E-1,6.487087E-1,-4.0389988E-1,9.426998E-2,-2.84029E-1],"categories":[],"categories_nodes":[],"categories_segments":[],"categories_sizes":[],"default_left":[0,0,0,0,0,0,0,0,0,0,0,0,0,0,0,0,0,0,0,0,0,0,0,0,0,0,0,0,0,0,0,0,0,0,0,0,0,0,0,0,0,0,0,0,0,0,0,0,0,0,0,0,0,0,0,0,0,0,0,0,0,0,0,0,0,0,0,0,0,0,0,0,0,0,0,0,0,0,0,0,0,0,0,0,0,0,0,0,0,0,0,0,0,0,0,0,0,0,0,0,0,0,0,0,0,0,0,0,0,0,0,0,0,0,0,0,0,0,0,0,0,0,0,0,0],"id":3,"left_children":[1,3,5,7,9,11,13,15,17,19,21,23,25,27,29,31,33,35,37,39,41,43,45,47,49,51,53,55,57,59,61,63,65,67,69,71,73,75,77,79,81,83,85,87,89,91,93,-1,95,97,99,101,103,105,107,109,111,113,115,117,119,121,123,-1,-1,-1,-1,-1,-1,-1,-1,-1,-1,-1,-1,-1,-1,-1,-1,-1,-1,-1,-1,-1,-1,-1,-1,-1,-1,-1,-1,-1,-1,-1,-1,-1,-1,-1,-1,-1,-1,-1,-1,-1,-1,-1,-1,-1,-1,-1,-1,-1,-1,-1,-1,-1,-1,-1,-1,-1,-1,-1,-1,-1,-1],"loss_changes":[1.6060949E4,5.5493027E3,5.8736816E3,3.8614534E3,3.592978E3,1.5451797E3,2.0337972E3,1.3337545E3,1.5035347E3,4.573486E3,1.6128623E3,1.3191582E3,1.3716849E3,1.6741726E3,1.2051813E3,6.584741E2,7.262172E2,6.0092E2,1.2721196E3,1.3698466E3,2.4725664E3,2.3181526E3,9.160005E2,6.623397E2,8.063887E2,3.9433496E2,5.788984E2,1.1888701E3,9.028291E2,1.0192577E3,8.0616846E2,7.152253E2,4.6871265E2,9.7787317E2,9.206736E2,5.134054E2,5.2266583E2,2.9857642E2,1.0723599E3,1.2810295E3,6.903363E2,2.7300059E3,1.4498096E3,1.0855483E3,1.5364607E3,3.2565213E2,8.588408E2,0E0,3.2861206E2,5.0038477E2,1.0536053E3,1.1472046E1,3.2503082E2,5.967658E2,4.4496765E0,5.5494714E2,1.928335E2,4.373059E2,7.420144E2,5.867632E2,3.3849814E2,3.1262286E2,8.1446857E2,0E0,0E0,0E0,0E0,0E0,0E0,0E0,0E0,0E0,0E0,0E0,0E0,0E0,0E0,0E0,0E0,0E0,0E0,0E0,0E0,0E0,0E0,0E0,0E0,0E0,0E0,0E0,0E0,0E0,0E0,0E0,0E0,0E0,0E0,0E0,0E0,0E0,0E0,0E0,0E0,0E0,0E0,0E0,0E0,0E0,0E0,0E0,0E0,0E0,0E0,0E0,0E0,0E0,0E0,0E0,0E0,0E0,0E0,0E0,0E0,0E0,0E0],"parents":[2147483647,0,0,1,1,2,2,3,3,4,4,5,5,6,6,7,7,8,8,9,9,10,10,11,11,12,12,13,13,14,14,15,15,16,16,17,17,18,18,19,19,20,20,21,21,22,22,23,23,24,24,25,25,26,26,27,27,28,28,29,29,30,30,31,31,32,32,33,33,34,34,35,35,36,36,37,37,38,38,39,39,40,40,41,41,42,42,43,43,44,44,45,45,46,46,48,48,49,49,50,50,51,51,52,52,53,53,54,54,55,55,56,56,57,57,58,58,59,59,60,60,61,61,62,62],"right_children":[2,4,6,8,10,12,14,16,18,20,22,24,26,28,30,32,34,36,38,40,42,44,46,48,50,52,54,56,58,60,62,64,66,68,70,72,74,76,78,80,82,84,86,88,90,92,94,-1,96,98,100,102,104,106,108,110,112,114,116,118,120,122,124,-1,-1,-1,-1,-1,-1,-1,-1,-1,-1,-1,-1,-1,-1,-1,-1,-1,-1,-1,-1,-1,-1,-1,-1,-1,-1,-1,-1,-1,-1,-1,-1,-1,-1,-1,-1,-1,-1,-1,-1,-1,-1,-1,-1,-1,-1,-1,-1,-1,-1,-1,-1,-1,-1,-1,-1,-1,-1,-1,-1,-1,-1],"split_conditions":[-4.987889E-1,2.3709202E-1,8.4583336E-1,6.25E-2,1.0814285E0,7.665401E-1,-6.1643344E-1,-2.2851852E-1,-1.0762565E0,1.45E2,1.1714286E0,-1.1433995E0,1.0342857E0,-2.4233235E-1,4.55625E-1,2.1945764E-1,1.723851E-1,-1.115E-1,-3.7963634E1,1.268E0,3.2258064E-2,2.4996982E0,5.7E1,2.3230769E-1,3.288889E-1,8.695652E-2,6.615385E-2,8.024E-1,4.3351218E-1,1.47E2,1.3356337E-2,2.1875E-1,3.876722E-2,3.125E-2,1.9944008E-1,-2.4923077E-1,1.8120226E-2,3.0814553E-2,1.8421052E-2,-1.3857143E-1,-1.5387756E0,1.8443911E0,3.773585E-2,-4.82E-1,2.0781817E0,-1.1111111E-3,-1.368421E-2,-3.6418104E-1,2.5E-2,9.3666667E-1,4.1666666E-1,2.6083332E-1,-3.216E-1,1.0899939E-1,5.9216845E-1,5.2157216E-2,-7.2740525E-1,1.2881348E1,9.375E-2,2.0363667E0,-1.6547808E-1,-2.1095239E-1,6.781667E-1,2.1971175E-1,-6.5872973E-1,-8.845645E-2,3.8674563E-1,-2.4857096E-1,5.5772346E-1,-4.6641883E-1,3.8649562E-1,-4.7265536E-1,5.0678235E-1,5.934117E-1,-2.6775596E-1,1.0533346E0,-3.7840363E-1,-2.3887788E-1,-2.2551492E-2,-9.411063E-3,-2.2480239E-1,-2.534665E-1,2.587963E-1,-2.5821993E-2,2.7918252E-1,2.667166E-1,-4.6969507E-2,-1.00056835E-1,2.4298848E-1,7.577464E-2,-2.5701115E-1,-2.4468012E-1,3.1200433E-1,4.9793053E-2,3.5944834E-1,-4.1639E-1,5.3384805E-1,-3.2395488E-1,3.5597134E-1,-3.029384E-1,-2.5889056E-2,-3.6301276E-1,-4.772436E-1,5.1478225E-1,-4.409673E-1,3.516874E-1,-3.4426007E-1,-4.15505E-1,-5.784258E-1,2.3470764E-1,-4.1434422E-1,5.0639224E-1,-5.6762147E-1,-3.9579415E-1,1.2022487E0,4.4869348E-1,-3.5771522E-1,-3.202325E-1,4.0212274E-1,4.7351313E-1,-3.984225E-1,6.487087E-1,-4.0389988E-1,9.426998E-2,-2.84029E-1],"split_indices":[44,135,83,13,81,181,195,62,215,26,177,194,177,179,72,139,125,56,3,50,174,8,25,60,86,162,113,117,152,21,153,94,147,168,141,126,129,153,91,89,178,139,159,99,81,71,101,0,160,73,20,72,70,137,40,127,179,2,160,43,194,47,136,0,0,0,0,0,0,0,0,0,0,0,0,0,0,0,0,0,0,0,0,0,0,0,0,0,0,0,0,0,0,0,0,0,0,0,0,0,0,0,0,0,0,0,0,0,0,0,0,0,0,0,0,0,0,0,0,0,0,0,0,0,0],"split_type":[0,0,0,0,0,0,0,0,0,0,0,0,0,0,0,0,0,0,0,0,0,0,0,0,0,0,0,0,0,0,0,0,0,0,0,0,0,0,0,0,0,0,0,0,0,0,0,0,0,0,0,0,0,0,0,0,0,0,0,0,0,0,0,0,0,0,0,0,0,0,0,0,0,0,0,0,0,0,0,0,0,0,0,0,0,0,0,0,0,0,0,0,0,0,0,0,0,0,0,0,0,0,0,0,0,0,0,0,0,0,0,0,0,0,0,0,0,0,0,0,0,0,0,0,0],"sum_hessian":[1.1970455E5,8.498385E4,3.472069E4,1.9107027E4,6.587683E4,2.5664E4,9.056691E3,4.7817715E3,1.4325255E4,3.9407324E4,2.6469502E4,2.3626115E4,2.0378848E3,3.3514753E3,5.7052163E3,2.6999668E3,2.081805E3,9.146771E2,1.3410578E4,1.2337895E4,2.706943E4,1.8461535E4,8.007967E3,4.7072952E2,2.3155387E4,8.72167E2,1.1657178E3,1.0438549E3,2.3076206E3,2.7619954E3,2.9432212E3,3.646478E2,2.3353188E3,1.376784E3,7.050209E2,5.397932E2,3.748839E2,1.0446653E2,1.3306111E4,1.0842264E4,1.495631E3,1.6355049E4,1.0714381E4,1.1584946E4,6.876589E3,4.9148703E2,7.51648E3,1.2798334E2,3.427462E2,1.8106812E4,5.0485747E3,7.34856E2,1.3731096E2,1.0644381E3,1.0127962E2,7.805683E2,2.6328653E2,1.9760336E2,2.1100173E3,2.4886912E3,2.733042E2,2.6997253E2,2.6732485E3,2.3726889E2,1.273789E2,2.0438097E2,2.130938E3,1.225565E3,1.5121912E2,1.4181451E2,5.6320636E2,5.2656147E1,4.871371E2,7.9732735E1,2.9515118E2,8.966373E1,1.4802808E1,1.0754188E4,2.551923E3,3.857414E3,6.9848496E3,2.9394824E2,1.2016827E3,1.3044408E4,3.3106406E3,9.16433E3,1.5500505E3,8.996101E2,1.0685336E4,5.238272E3,1.6383167E3,3.6488388E2,1.26603165E2,9.1869745E2,6.597782E3,3.5913677E1,3.0683252E2,1.8009645E4,9.7168205E1,2.8922188E3,2.1563557E3,6.3067505E2,1.04180984E2,8.83031E1,4.9007854E1,9.3953326E2,1.2490489E2,6.5774475E1,3.550514E1,1.4500339E2,6.355649E2,2.480822E2,1.5204327E1,1.8174022E2,1.5863139E1,2.0024917E3,1.0752556E2,2.3838252E3,1.0486594E2,2.2541855E2,4.7885662E1,2.4229231E2,2.7680231E1,1.9838912E3,6.8935736E2],"tree_param":{"num_deleted":"0","num_feature":"276","num_nodes":"125","size_leaf_vector":"1"}},{"base_weights":[-4.2815812E-2,9.8424E-2,-7.5233364E-1,-2.9023224E-1,2.5054446E-1,-9.2946637E-1,1.1260932E-3,-4.6560115E-1,4.413191E-1,5.944205E-2,4.3694764E-1,-1.044764E0,-4.9402434E-1,-6.466412E-1,2.784193E-1,-8.0139315E-1,-1.3166854E-1,1.2839335E-1,1.0332454E0,-2.5307456E-1,3.462084E-1,5.206396E-1,-8.244871E-3,-1.067103E0,3.3667096E-1,-9.1423035E-1,3.2102352E-1,1.8039834E-1,-1.0749302E0,-5.1354146E-1,5.9211814E-1,1.5024868E-1,-8.9584625E-1,-6.739166E-1,1.5554677E-1,-2.2352187E-1,7.643266E-1,-1.4442186E0,1.1835737E0,9.0474534E-1,-3.4817812E-1,7.096201E-1,-6.432324E-2,5.46842E-1,-7.907615E-1,-4.3816525E-1,4.3873134E-1,-1.0798018E0,1.1983539E0,2.8406236E0,-8.6040556E-1,-9.867469E-1,1.7622689E0,1.4673204E0,-4.9554747E-1,7.637473E-1,-4.0941405E-1,-1.2647775E0,4.3570352E-1,7.819188E-1,-9.699736E-1,1.1287727E0,-3.347711E-1,4.055462E-1,-2.0031852E-1,-2.7664787E-1,4.085697E-1,9.976889E-3,-3.122944E-1,-4.3683276E-3,3.1316844E-1,-3.5168046E-1,4.0501177E-2,2.9625425E-1,-4.3201473E-1,-3.8980708E-1,-5.495655E-1,4.041272E-1,-1.380713E-1,-4.0301552E-1,3.3155027E-1,-1.7758133E-1,3.1996593E-2,2.917572E-1,-1.6891137E-2,1.2424534E-1,-1.3909028E-1,1.3631797E-1,2.6822355E-1,-3.548964E-1,6.048892E-1,-2.246709E-1,2.1969686E-1,3.4984487E-1,5.022922E-3,-3.2751158E-1,1.9202854E-1,-3.54981E-1,7.042034E-1,5.4634696E-1,2.435588E0,3.696411E-1,-3.6526918E-1,-3.080312E-1,7.878673E-1,-3.7973204E-1,8.0643535E-1,6.5109956E-1,-5.014168E-2,-3.3098793E-1,4.3040428E-1,3.7429342E-1,-3.846934E-1,4.7701523E-1,-4.1197947E-1,-4.0955845E-1,5.360071E-1,5.094781E-1,-4.2581573E-1,-3.643709E-1,4.7716627E-1,-4.5461914E-1,3.9881206E-1,2.3484802E-1,-3.5484993E-1],"categories":[],"categories_nodes":[],"categories_segments":[],"categories_sizes":[],"default_left":[0,0,0,0,0,0,0,0,0,0,0,0,0,0,0,0,0,0,0,0,0,0,0,0,0,0,0,0,0,0,0,0,0,0,0,0,0,0,0,0,0,0,0,0,0,0,0,0,0,0,0,0,0,0,0,0,0,0,0,0,0,0,0,0,0,0,0,0,0,0,0,0,0,0,0,0,0,0,0,0,0,0,0,0,0,0,0,0,0,0,0,0,0,0,0,0,0,0,0,0,0,0,0,0,0,0,0,0,0,0,0,0,0,0,0,0,0,0,0,0,0,0,0,0,0],"id":4,"left_children":[1,3,5,7,9,11,13,15,17,19,21,23,25,27,29,31,33,35,37,39,41,43,45,47,49,51,53,55,57,59,61,63,65,67,69,71,73,75,77,79,81,83,85,87,89,91,93,95,97,99,101,103,105,107,109,111,-1,113,115,117,119,121,123,-1,-1,-1,-1,-1,-1,-1,-1,-1,-1,-1,-1,-1,-1,-1,-1,-1,-1,-1,-1,-1,-1,-1,-1,-1,-1,-1,-1,-1,-1,-1,-1,-1,-1,-1,-1,-1,-1,-1,-1,-1,-1,-1,-1,-1,-1,-1,-1,-1,-1,-1,-1,-1,-1,-1,-1,-1,-1,-1,-1,-1,-1],"loss_changes":[1.1150721E4,5.486562E3,2.4654307E3,3.3492124E3,2.3757847E3,7.503887E2,6.319434E2,2.3610981E3,9.349612E2,2.951561E3,1.2579585E3,3.6526367E2,1.0733352E3,3.737471E2,6.123513E2,9.438662E2,1.6446022E3,7.39497E2,6.518733E2,1.7356666E3,2.5623752E3,9.769868E2,1.0270458E3,3.3606348E2,5.6875E2,4.030276E2,9.990474E2,3.2612167E2,1.9985303E2,4.1437012E2,8.783639E2,9.334844E2,5.6869434E2,9.4917065E2,1.043262E3,7.238209E2,5.8054834E2,3.2533875E0,4.431582E2,5.4061035E2,1.6148003E3,1.8345361E3,1.5411774E3,8.9406055E2,6.157807E2,9.9140967E2,8.043269E2,2.3761328E2,1.8157349E2,3.1527576E2,9.760424E1,2.9387732E2,1.5731131E2,5.1047443E2,7.331199E2,2.614536E2,0E0,1.9346582E2,1.9301361E2,3.7114688E2,3.2616888E2,5.950729E2,6.150899E2,0E0,0E0,0E0,0E0,0E0,0E0,0E0,0E0,0E0,0E0,0E0,0E0,0E0,0E0,0E0,0E0,0E0,0E0,0E0,0E0,0E0,0E0,0E0,0E0,0E0,0E0,0E0,0E0,0E0,0E0,0E0,0E0,0E0,0E0,0E0,0E0,0E0,0E0,0E0,0E0,0E0,0E0,0E0,0E0,0E0,0E0,0E0,0E0,0E0,0E0,0E0,0E0,0E0,0E0,0E0,0E0,0E0,0E0,0E0,0E0,0E0,0E0],"parents":[2147483647,0,0,1,1,2,2,3,3,4,4,5,5,6,6,7,7,8,8,9,9,10,10,11,11,12,12,13,13,14,14,15,15,16,16,17,17,18,18,19,19,20,20,21,21,22,22,23,23,24,24,25,25,26,26,27,27,28,28,29,29,30,30,31,31,32,32,33,33,34,34,35,35,36,36,37,37,38,38,39,39,40,40,41,41,42,42,43,43,44,44,45,45,46,46,47,47,48,48,49,49,50,50,51,51,52,52,53,53,54,54,55,55,57,57,58,58,59,59,60,60,61,61,62,62],"right_children":[2,4,6,8,10,12,14,16,18,20,22,24,26,28,30,32,34,36,38,40,42,44,46,48,50,52,54,56,58,60,62,64,66,68,70,72,74,76,78,80,82,84,86,88,90,92,94,96,98,100,102,104,106,108,110,112,-1,114,116,118,120,122,124,-1,-1,-1,-1,-1,-1,-1,-1,-1,-1,-1,-1,-1,-1,-1,-1,-1,-1,-1,-1,-1,-1,-1,-1,-1,-1,-1,-1,-1,-1,-1,-1,-1,-1,-1,-1,-1,-1,-1,-1,-1,-1,-1,-1,-1,-1,-1,-1,-1,-1,-1,-1,-1,-1,-1,-1,-1,-1,-1,-1,-1,-1],"split_conditions":[3.773585E-2,2.8E-1,1.3588212E0,1.1714286E0,2.5E-2,1.8777777E-1,7.070707E-2,3.3561906E-1,1.0526316E-1,1.256685E0,3.7593983E-2,1.875E-1,1.7050374E-1,1.18146814E-1,4.8461538E-2,-1.18268E0,2.9E1,1.428417E-1,6.9434166E-1,1.3636364E-1,1.558465E-1,7.7230567E-1,1.74E2,9.7633123E-1,8.581656E-2,1.2464844E1,1.6811111E1,6.6333336E-1,1.34E2,5.0874695E-2,-6.1666667E-2,-8.523077E-1,2.6546153E-1,2.3787835E0,2.8320223E-1,8.545639E-2,4.819277E-2,6.742517E-1,2.8692308E-1,-2.5119048E-1,4.298923E-1,-2.25E-1,8.543869E-2,1.06E2,8.061539E-2,1.3793103E-1,-5.415186E-1,1.2E0,3.8229635E-1,6.839E-1,1.0225019E-2,3.335E4,-1.8794836E-1,4.403346E-2,1.1212E0,7.0422534E-3,-4.0941405E-1,-3.699E0,5.48375E-1,-2.85625E-1,-4.3574467E-2,3.48125E-1,2.256E-1,4.055462E-1,-2.0031852E-1,-2.7664787E-1,4.085697E-1,9.976889E-3,-3.122944E-1,-4.3683276E-3,3.1316844E-1,-3.5168046E-1,4.0501177E-2,2.9625425E-1,-4.3201473E-1,-3.8980708E-1,-5.495655E-1,4.041272E-1,-1.380713E-1,-4.0301552E-1,3.3155027E-1,-1.7758133E-1,3.1996593E-2,2.917572E-1,-1.6891137E-2,1.2424534E-1,-1.3909028E-1,1.3631797E-1,2.6822355E-1,-3.548964E-1,6.048892E-1,-2.246709E-1,2.1969686E-1,3.4984487E-1,5.022922E-3,-3.2751158E-1,1.9202854E-1,-3.54981E-1,7.042034E-1,5.4634696E-1,2.435588E0,3.696411E-1,-3.6526918E-1,-3.080312E-1,7.878673E-1,-3.7973204E-1,8.0643535E-1,6.5109956E-1,-5.014168E-2,-3.3098793E-1,4.3040428E-1,3.7429342E-1,-3.846934E-1,4.7701523E-1,-4.1197947E-1,-4.0955845E-1,5.360071E-1,5.094781E-1,-4.2581573E-1,-3.643709E-1,4.7716627E-1,-4.5461914E-1,3.9881206E-1,2.3484802E-1,-3.5484993E-1],"split_indices":[159,86,139,177,174,101,163,57,156,139,169,173,205,137,54,37,27,133,181,12,125,187,26,216,143,2,3,86,25,137,75,63,109,8,214,129,158,155,95,99,181,99,147,25,56,163,196,178,39,41,133,9,197,153,146,169,0,1,55,75,112,86,87,0,0,0,0,0,0,0,0,0,0,0,0,0,0,0,0,0,0,0,0,0,0,0,0,0,0,0,0,0,0,0,0,0,0,0,0,0,0,0,0,0,0,0,0,0,0,0,0,0,0,0,0,0,0,0,0,0,0,0,0,0,0],"split_type":[0,0,0,0,0,0,0,0,0,0,0,0,0,0,0,0,0,0,0,0,0,0,0,0,0,0,0,0,0,0,0,0,0,0,0,0,0,0,0,0,0,0,0,0,0,0,0,0,0,0,0,0,0,0,0,0,0,0,0,0,0,0,0,0,0,0,0,0,0,0,0,0,0,0,0,0,0,0,0,0,0,0,0,0,0,0,0,0,0,0,0,0,0,0,0,0,0,0,0,0,0,0,0,0,0,0,0,0,0,0,0,0,0,0,0,0,0,0,0,0,0,0,0,0,0],"sum_hessian":[1.1126939E5,9.2797555E4,1.8471838E4,2.6103693E4,6.669386E4,1.4955645E4,3.516193E3,2.1056379E4,5.0473135E3,3.2932477E4,3.3761387E4,1.1823565E4,3.1320786E3,1.0536036E3,2.4625894E3,1.0498263E4,1.0558117E4,3.3025928E3,1.7447206E3,1.5758765E4,1.717371E4,2.841876E4,5.342626E3,1.1635635E4,1.8793091E2,2.0665347E3,1.0655441E3,3.5966257E2,6.9394104E2,6.985076E2,1.7640819E3,9.4784674E2,9.550416E3,3.6554553E3,6.9026616E3,2.126481E3,1.1761119E3,9.9317955E1,1.6454026E3,1.195528E3,1.4563237E4,9.109261E3,8.0644497E3,2.7862635E4,5.561245E2,2.7232808E3,2.6193455E3,1.1571296E4,6.4338326E1,6.034109E1,1.2758982E2,2.012636E3,5.3898605E1,4.4294458E2,6.2259955E2,2.6145667E2,9.820591E1,6.1661176E2,7.73293E1,1.8180101E2,5.167066E2,1.1170875E3,6.469943E2,3.8364163E2,5.642051E2,9.440976E3,1.0944015E2,1.249372E3,2.4060833E3,5.794138E3,1.1085236E3,5.825754E2,1.5439055E3,1.0684828E3,1.0762918E2,7.546877E1,2.3849178E1,1.4967E3,1.4870265E2,9.7391136E1,1.0981368E3,9.4815E3,5.0817373E3,6.7813047E3,2.3279565E3,3.6685605E3,4.395889E3,2.2006027E4,5.856609E3,4.884523E2,6.7672195E1,2.1522642E3,5.7101654E2,9.610081E2,1.6583373E3,1.1492125E4,7.917181E1,2.0928328E1,4.341E1,5.1700066E1,8.6410265E0,1.8244997E1,1.09344826E2,1.9912927E3,2.1343311E1,1.2535002E1,4.13636E1,3.094965E2,1.3344806E2,4.738371E2,1.4876245E2,2.1176419E2,4.969248E1,2.2074247E1,5.945375E2,3.314101E1,4.418829E1,1.2852725E2,5.3273766E1,4.7213156E2,4.457502E1,7.8309906E1,1.0387777E3,2.7917166E2,3.6782266E2],"tree_param":{"num_deleted":"0","num_feature":"276","num_nodes":"125","size_leaf_vector":"1"}},{"base_weights":[-4.0494338E-2,-8.1481266E-1,5.6662288E-2,4.6138886E-1,-8.783914E-1,-4.617114E-2,4.5306677E-1,-1.3099082E0,7.7647245E-1,-9.862567E-1,-4.28571E-1,1.3229303E-2,-6.372115E-1,7.216559E-1,2.0250186E-1,-3.2944375E-1,-4.4891396E-1,-1.13157704E-1,1.2017303E0,2.0109394E0,-9.953946E-1,-7.489993E-1,2.8824538E-1,5.4303205E-1,-4.2192232E-2,-9.6196973E-1,-3.7040702E-1,7.782042E-1,-5.068446E-1,4.2023736E-1,-1.1085509E0,4.8654166E-1,-1.2772996E0,1.38544E0,-3.3554655E-1,-2.94876E-1,1.1163628E0,-1.0218418E0,-1.02212116E-1,-9.8378235E-1,1.91926E-1,-8.8137615E-1,1.0913407E0,7.772909E-1,-1.5831202E-1,-1.7955106E-1,2.4079664E-1,-1.0428861E0,9.389232E-1,-1.2646631E0,-1.9652916E-1,5.3348494E-1,1.034356E0,-1.2888206E0,6.0378265E-1,2.3226365E-2,6.835343E-1,2.0616193E-1,-1.5429494E0,-4.3220305E-1,-3.3972123E-1,5.53234E-1,3.268165E-1,-3.1201702E-1,1.3756275E-1,3.645688E-1,-2.6281843E-1,-3.4733346E-1,2.7243957E-1,-3.7908146E-1,3.285353E-1,-3.4186843E-1,2.3316887E-1,6.3336775E-2,4.9957675E-1,2.6680744E-1,-3.52219E-1,1.2413064E-1,-2.2978432E-1,-1.1938907E-1,6.853161E-2,-6.440471E-2,1.6321224E-1,-3.259561E-1,3.1107017E-1,-4.206162E-1,5.7460016E-1,-3.6098838E-1,-4.3001017E-1,1.7506865E-1,-1.14588685E-1,-2.2593258E-1,2.1188708E-1,3.2170874E-1,-8.50068E-1,-4.7448638E-1,1.2924564E-1,3.6668363E-1,-5.3138816E-1,2.3603068E-1,-7.5212516E-2,2.8912693E-1,-6.064439E-3,-1.941758E-1,4.9796072E-1,4.272844E-1,-4.9795106E-1],"categories":[],"categories_nodes":[],"categories_segments":[],"categories_sizes":[],"default_left":[0,0,0,0,0,0,0,0,0,0,0,0,0,0,0,0,0,0,0,0,0,0,0,0,0,0,0,0,0,0,0,0,0,0,0,0,0,0,0,0,0,0,0,0,0,0,0,0,0,0,0,0,0,0,0,0,0,0,0,0,0,0,0,0,0,0,0,0,0,0,0,0,0,0,0,0,0,0,0,0,0,0,0,0,0,0,0,0,0,0,0,0,0,0,0,0,0,0,0,0,0,0,0,0,0,0,0],"id":5,"left_children":[1,3,5,7,9,11,13,15,17,19,21,23,25,27,29,-1,-1,31,33,35,37,39,41,43,45,47,49,51,53,55,57,-1,59,61,-1,-1,-1,63,65,67,69,71,73,75,77,79,81,83,85,87,89,91,93,95,97,99,101,103,105,-1,-1,-1,-1,-1,-1,-1,-1,-1,-1,-1,-1,-1,-1,-1,-1,-1,-1,-1,-1,-1,-1,-1,-1,-1,-1,-1,-1,-1,-1,-1,-1,-1,-1,-1,-1,-1,-1,-1,-1,-1,-1,-1,-1,-1,-1,-1,-1],"loss_changes":[7.8328965E3,9.4225E2,3.7711362E3,3.0881116E2,5.360752E2,2.5789417E3,1.2822856E3,1.6602478E0,1.7750781E2,2.4624316E2,4.9184445E2,1.9599584E3,5.8090283E2,6.3928467E2,2.8151428E3,0E0,0E0,3.10172E2,1.3679504E2,1.4414478E2,2.0992969E2,3.270238E2,6.227385E2,1.0386963E3,2.348992E3,4.662578E2,5.726447E2,5.5060156E2,3.5277774E2,8.8395447E2,8.024862E2,0E0,5.4289246E-1,3.7976135E1,0E0,0E0,0E0,2.3333496E2,2.6288715E2,3.9086963E2,3.9088007E2,1.1652081E2,1.9813669E2,1.0373306E3,5.507988E2,3.6253665E3,2.7276226E3,2.6447534E2,2.861963E2,4.482849E0,4.4660123E2,1.0007069E3,6.3439404E2,1.205983E2,2.4916179E2,7.0570575E2,1.0026997E3,4.3493552E2,3.685708E2,0E0,0E0,0E0,0E0,0E0,0E0,0E0,0E0,0E0,0E0,0E0,0E0,0E0,0E0,0E0,0E0,0E0,0E0,0E0,0E0,0E0,0E0,0E0,0E0,0E0,0E0,0E0,0E0,0E0,0E0,0E0,0E0,0E0,0E0,0E0,0E0,0E0,0E0,0E0,0E0,0E0,0E0,0E0,0E0,0E0,0E0,0E0,0E0],"parents":[2147483647,0,0,1,1,2,2,3,3,4,4,5,5,6,6,7,7,8,8,9,9,10,10,11,11,12,12,13,13,14,14,17,17,18,18,19,19,20,20,21,21,22,22,23,23,24,24,25,25,26,26,27,27,28,28,29,29,30,30,32,32,33,33,37,37,38,38,39,39,40,40,41,41,42,42,43,43,44,44,45,45,46,46,47,47,48,48,49,49,50,50,51,51,52,52,53,53,54,54,55,55,56,56,57,57,58,58],"right_children":[2,4,6,8,10,12,14,16,18,20,22,24,26,28,30,-1,-1,32,34,36,38,40,42,44,46,48,50,52,54,56,58,-1,60,62,-1,-1,-1,64,66,68,70,72,74,76,78,80,82,84,86,88,90,92,94,96,98,100,102,104,106,-1,-1,-1,-1,-1,-1,-1,-1,-1,-1,-1,-1,-1,-1,-1,-1,-1,-1,-1,-1,-1,-1,-1,-1,-1,-1,-1,-1,-1,-1,-1,-1,-1,-1,-1,-1,-1,-1,-1,-1,-1,-1,-1,-1,-1,-1,-1,-1],"split_conditions":[5.2173913E-2,1.6774213E0,1.0149044E0,-1.2315625E-1,1.0666667E-1,3.773585E-2,1.5771365E-1,2.0333333E-1,5E0,-1.4352711E0,4.761905E-2,-1.02279E0,1.5E-1,5.3254437E-2,2E-1,-3.2944375E-1,-4.4891396E-1,-9.862745E-2,5.685185E-1,1.69E-1,6.222509E-1,4.8536465E-1,8.273469E-1,5.2065625E0,6.0408163E-1,1.2E0,-2.76625E-1,8.8E1,1.3177842E-1,1.48493E3,1.05815604E-1,4.8654166E-1,1.0106206E-2,2.4201536E-1,-3.3554655E-1,-2.94876E-1,1.1163628E0,2.2727273E-1,4.6953845E-1,2E-1,1.6263121E-1,8.152087E-1,-1.1357143E-1,5.3254437E-2,-3.9225808E-1,7.24E3,2.2864375E-1,1.2464844E1,3.4113E3,4.6633434E-1,-8.123144E-1,-3.094231E-1,2.505E-1,1.4583333E-1,1.8607143E1,-6.2714285E-1,-2E-2,9.946154E-1,-9.892857E-1,-4.3220305E-1,-3.3972123E-1,5.53234E-1,3.268165E-1,-3.1201702E-1,1.3756275E-1,3.645688E-1,-2.6281843E-1,-3.4733346E-1,2.7243957E-1,-3.7908146E-1,3.285353E-1,-3.4186843E-1,2.3316887E-1,6.3336775E-2,4.9957675E-1,2.6680744E-1,-3.52219E-1,1.2413064E-1,-2.2978432E-1,-1.1938907E-1,6.853161E-2,-6.440471E-2,1.6321224E-1,-3.259561E-1,3.1107017E-1,-4.206162E-1,5.7460016E-1,-3.6098838E-1,-4.3001017E-1,1.7506865E-1,-1.14588685E-1,-2.2593258E-1,2.1188708E-1,3.2170874E-1,-8.50068E-1,-4.7448638E-1,1.2924564E-1,3.6668363E-1,-5.3138816E-1,2.3603068E-1,-7.5212516E-2,2.8912693E-1,-6.064439E-3,-1.941758E-1,4.9796072E-1,4.272844E-1,-4.9795106E-1],"split_indices":[17,8,155,56,96,159,125,100,0,200,162,194,164,159,97,0,0,96,51,92,145,143,123,7,178,177,46,25,181,4,62,0,137,125,0,0,0,173,136,157,182,184,84,172,122,10,185,2,23,143,192,52,107,156,3,92,89,86,121,0,0,0,0,0,0,0,0,0,0,0,0,0,0,0,0,0,0,0,0,0,0,0,0,0,0,0,0,0,0,0,0,0,0,0,0,0,0,0,0,0,0,0,0,0,0,0,0],"split_type":[0,0,0,0,0,0,0,0,0,0,0,0,0,0,0,0,0,0,0,0,0,0,0,0,0,0,0,0,0,0,0,0,0,0,0,0,0,0,0,0,0,0,0,0,0,0,0,0,0,0,0,0,0,0,0,0,0,0,0,0,0,0,0,0,0,0,0,0,0,0,0,0,0,0,0,0,0,0,0,0,0,0,0,0,0,0,0,0,0,0,0,0,0,0,0,0,0,0,0,0,0,0,0,0,0,0,0],"sum_hessian":[1.0411749E5,1.1606744E4,9.251075E4,5.504968E2,1.1056247E4,7.3456016E4,1.9054736E4,8.265878E1,4.67838E2,8.916831E3,2.1394165E3,6.674865E4,6.707362E3,9.195686E3,9.859052E3,4.1930477E1,4.0728306E1,1.5154437E2,3.1629364E2,2.643724E1,8.890394E3,1.4784714E3,6.609452E2,6.3203545E3,6.0428297E4,3.0239553E3,3.6834065E3,8.791382E3,4.0430356E2,8.455473E3,1.4035787E3,6.0695107E1,9.0849266E1,2.9346094E2,2.2832703E1,9.766349E0,1.667089E1,8.634579E3,2.5581439E2,1.1831917E3,2.9527975E2,2.6903186E2,3.9191333E2,4.7377656E3,1.5825889E3,4.0682125E4,1.974617E4,2.9009214E3,1.23033806E2,5.9858795E2,3.0848186E3,4.4976006E3,4.2937812E3,2.3716135E2,1.671422E2,3.3720432E3,5.0834297E3,3.4871466E2,1.054864E3,3.8497948E1,5.235132E1,1.13063126E2,1.8039783E2,8.529924E3,1.0465601E2,9.444904E1,1.6136536E2,1.0838959E3,9.92958E1,1.1291442E2,1.8236533E2,2.3306496E2,3.5966904E1,1.5521964E2,2.3669368E2,4.480966E3,2.5679965E2,8.153072E2,7.672817E2,2.6497193E4,1.4184934E4,7.8922056E3,1.1853964E4,2.841778E3,5.914329E1,3.6084377E1,8.6949425E1,4.4488657E2,1.5370137E2,5.9204034E2,2.4927783E3,5.3215686E2,3.9654436E3,4.252717E3,4.106469E1,2.0272408E2,3.443727E1,1.3299437E2,3.414783E1,8.898575E2,2.4821858E3,3.6354714E3,1.4479584E3,2.200731E2,1.2864156E2,3.955516E1,1.0153089E3],"tree_param":{"num_deleted":"0","num_feature":"276","num_nodes":"107","size_leaf_vector":"1"}},{"base_weights":[-3.4679215E-2,8.475225E-2,-4.9672645E-1,-1.2456916E-2,4.0976202E-1,-8.614396E-1,-1.4332195E-1,3.1064186E-2,-9.893618E-1,-1.3969572E-1,5.153197E-1,-5.600247E-1,-1.0866611E0,-4.9207783E-1,6.1552215E-1,-8.503777E-2,3.4082773E-1,-1.0820282E0,2.5499856E-1,6.5481454E-1,-5.170546E-1,5.332155E-1,-1.5521287E0,3.6435345E-1,-8.2729566E-1,-1.1017163E0,3.043688E0,-1.4237376E-1,-9.543152E-1,8.1082594E-1,-1.1509207E0,-2.516759E-1,1.8737844E-1,-2.9278615E-1,5.457444E-1,-1.1157964E0,1.2821639E0,-1.2461538E0,1.3740575E0,-1.8680466E0,7.8933126E-1,-8.215469E-1,1.114929E0,4.0340626E-1,7.9447424E-1,-4.0388092E-1,-5.024396E-1,-7.349209E-1,1.1465425E0,1.490748E-1,-9.927575E-1,4.0471005E-1,-1.1104425E0,-3.4773096E-1,1.6957146E0,4.3107624E0,-1.9623362E-1,-1.096703E0,7.968162E-1,1.2295312E0,1.1749997E-1,-1.770199E0,1.0056384E0,-1.1888691E-1,8.986062E-2,1.00721225E-1,-1.7472866E-1,-2.1488136E-1,1.318345E-1,-3.8827855E-2,1.924891E-1,-3.4709474E-1,2.5580767E-1,8.69471E-1,-3.2930544E-1,-3.3522767E-1,-4.3163264E-1,5.614071E-1,-3.8274857E-1,-6.4909047E-1,-4.220063E-1,-1.8785084E-2,3.5535246E-1,2.9002705E-1,-2.9748833E-1,-4.5780805E-1,4.7358468E-1,3.090127E-1,8.962326E-2,3.9455327E-1,1.7655654E-1,-3.47863E-1,4.6442005E-1,3.0603117E-1,2.5217535E0,5.771109E-1,-2.91362E-1,5.0532484E-1,-3.1481177E-1,-3.8647053E-1,4.3436292E-1,-3.3751655E-1,-2.0018531E-1,1.4346819E0,-3.0469266E-1,-1.3465251E-1,1.8218166E-1,-3.636596E-1,-3.204837E-2,3.0920603E0,1.366206E-1,4.0847448E-1,-4.1073978E-1,-6.163019E-1,1.2257466E-1,-8.667107E-1,-4.1918498E-1,-5.523428E-1,5.4005766E-1],"categories":[],"categories_nodes":[],"categories_segments":[],"categories_sizes":[],"default_left":[0,0,0,0,0,0,0,0,0,0,0,0,0,0,0,0,0,0,0,0,0,0,0,0,0,0,0,0,0,0,0,0,0,0,0,0,0,0,0,0,0,0,0,0,0,0,0,0,0,0,0,0,0,0,0,0,0,0,0,0,0,0,0,0,0,0,0,0,0,0,0,0,0,0,0,0,0,0,0,0,0,0,0,0,0,0,0,0,0,0,0,0,0,0,0,0,0,0,0,0,0,0,0,0,0,0,0,0,0,0,0,0,0,0,0,0,0,0,0],"id":6,"left_children":[1,3,5,7,9,11,13,15,17,19,21,23,25,27,29,31,33,35,37,39,41,43,45,47,49,51,53,55,57,59,61,63,65,67,69,71,73,75,77,79,81,83,85,87,89,-1,-1,91,93,95,97,99,101,-1,-1,103,105,107,109,111,113,115,117,-1,-1,-1,-1,-1,-1,-1,-1,-1,-1,-1,-1,-1,-1,-1,-1,-1,-1,-1,-1,-1,-1,-1,-1,-1,-1,-1,-1,-1,-1,-1,-1,-1,-1,-1,-1,-1,-1,-1,-1,-1,-1,-1,-1,-1,-1,-1,-1,-1,-1,-1,-1,-1,-1,-1,-1],"loss_changes":[5.4023174E3,2.4577258E3,2.591567E3,2.5459631E3,1.0388518E3,6.711328E2,2.7032688E3,2.0618105E3,2.947766E2,8.6592426E2,5.5669946E2,1.0463201E3,3.5546045E2,1.1310559E3,1.1105562E3,1.8930287E3,2.0294655E3,1.9121094E2,3.0042856E2,3.1712543E2,9.7387E2,5.0485547E2,1.0076294E0,8.1794556E2,5.3077856E2,7.462305E1,2.3493188E2,9.566532E2,7.5234644E2,8.407771E2,4.299739E2,2.0625928E3,1.8078137E3,1.1848994E3,7.646792E2,1.9104272E2,1.3371785E2,2.8839874E-1,1.3726439E2,3.4177094E0,2.9760223E2,5.0301465E2,3.7993622E2,6.5248987E2,5.293618E2,0E0,0E0,3.8537036E2,5.0140118E2,9.4985535E2,4.2748438E2,6.0550266E1,3.558008E1,0E0,0E0,1.2456958E2,7.9966406E2,3.1857056E2,7.330365E2,6.2158276E2,6.910547E2,1.0004352E2,1.6655078E2,0E0,0E0,0E0,0E0,0E0,0E0,0E0,0E0,0E0,0E0,0E0,0E0,0E0,0E0,0E0,0E0,0E0,0E0,0E0,0E0,0E0,0E0,0E0,0E0,0E0,0E0,0E0,0E0,0E0,0E0,0E0,0E0,0E0,0E0,0E0,0E0,0E0,0E0,0E0,0E0,0E0,0E0,0E0,0E0,0E0,0E0,0E0,0E0,0E0,0E0,0E0,0E0,0E0,0E0,0E0,0E0],"parents":[2147483647,0,0,1,1,2,2,3,3,4,4,5,5,6,6,7,7,8,8,9,9,10,10,11,11,12,12,13,13,14,14,15,15,16,16,17,17,18,18,19,19,20,20,21,21,22,22,23,23,24,24,25,25,26,26,27,27,28,28,29,29,30,30,31,31,32,32,33,33,34,34,35,35,36,36,37,37,38,38,39,39,40,40,41,41,42,42,43,43,44,44,47,47,48,48,49,49,50,50,51,51,52,52,55,55,56,56,57,57,58,58,59,59,60,60,61,61,62,62],"right_children":[2,4,6,8,10,12,14,16,18,20,22,24,26,28,30,32,34,36,38,40,42,44,46,48,50,52,54,56,58,60,62,64,66,68,70,72,74,76,78,80,82,84,86,88,90,-1,-1,92,94,96,98,100,102,-1,-1,104,106,108,110,112,114,116,118,-1,-1,-1,-1,-1,-1,-1,-1,-1,-1,-1,-1,-1,-1,-1,-1,-1,-1,-1,-1,-1,-1,-1,-1,-1,-1,-1,-1,-1,-1,-1,-1,-1,-1,-1,-1,-1,-1,-1,-1,-1,-1,-1,-1,-1,-1,-1,-1,-1,-1,-1,-1,-1,-1,-1,-1],"split_conditions":[6.060606E-3,1.2232178E1,2.3709202E-1,9.090909E-2,3.2352942E-1,6.4E-1,5.1986074E-1,5.163225E-1,4.587488E-1,-1.02529414E-1,7.7230567E-1,3.0612245E-2,7.2727275E-1,1.8518518E-1,-1.00833334E-1,1.1662664E3,-1.7605263E-1,7.574183E-1,2.4080517E1,-3.3142856E-1,1.3003418E1,2.1070625E-1,-6.6307694E-1,7.6E-1,-5.297501E-1,-1.5473895E0,9.284252E-1,-3.8E-1,5.628651E-1,-1.35E-1,3.337401E-1,8.85E-2,6.26875E-2,1.49E3,-3.5037768E-1,6.2857145E-1,7.0791827E-3,5.4233265E-1,-4.4625E-1,4.875E-2,8.1488155E-2,-2.8947368E-1,-8.897857E-1,-2.4043478E-1,4.516007E-2,-4.0388092E-1,-5.024396E-1,2.176923E-1,1.1111111E-1,-4.5652173E-2,-1.1122448E0,7.371426E-1,1E-1,-3.4773096E-1,1.6957146E0,2.9896654E-2,1.2E0,5.246536E-1,-5.0461537E-1,4.639175E-2,-5.2916664E-1,-9.852941E-1,1.7670548E-1,-1.1888691E-1,8.986062E-2,1.00721225E-1,-1.7472866E-1,-2.1488136E-1,1.318345E-1,-3.8827855E-2,1.924891E-1,-3.4709474E-1,2.5580767E-1,8.69471E-1,-3.2930544E-1,-3.3522767E-1,-4.3163264E-1,5.614071E-1,-3.8274857E-1,-6.4909047E-1,-4.220063E-1,-1.8785084E-2,3.5535246E-1,2.9002705E-1,-2.9748833E-1,-4.5780805E-1,4.7358468E-1,3.090127E-1,8.962326E-2,3.9455327E-1,1.7655654E-1,-3.47863E-1,4.6442005E-1,3.0603117E-1,2.5217535E0,5.771109E-1,-2.91362E-1,5.0532484E-1,-3.1481177E-1,-3.8647053E-1,4.3436292E-1,-3.3751655E-1,-2.0018531E-1,1.4346819E0,-3.0469266E-1,-1.3465251E-1,1.8218166E-1,-3.636596E-1,-3.204837E-2,3.0920603E0,1.366206E-1,4.0847448E-1,-4.1073978E-1,-6.163019E-1,1.2257466E-1,-8.667107E-1,-4.1918498E-1,-5.523428E-1,5.4005766E-1],"split_indices":[166,2,135,169,14,176,55,145,193,56,187,166,12,13,104,16,52,202,15,87,2,125,63,123,197,201,184,126,195,66,200,80,116,9,187,188,153,141,85,51,137,87,186,99,153,0,0,62,168,73,187,139,175,0,0,153,176,185,50,168,58,63,56,0,0,0,0,0,0,0,0,0,0,0,0,0,0,0,0,0,0,0,0,0,0,0,0,0,0,0,0,0,0,0,0,0,0,0,0,0,0,0,0,0,0,0,0,0,0,0,0,0,0,0,0,0,0,0,0],"split_type":[0,0,0,0,0,0,0,0,0,0,0,0,0,0,0,0,0,0,0,0,0,0,0,0,0,0,0,0,0,0,0,0,0,0,0,0,0,0,0,0,0,0,0,0,0,0,0,0,0,0,0,0,0,0,0,0,0,0,0,0,0,0,0,0,0,0,0,0,0,0,0,0,0,0,0,0,0,0,0,0,0,0,0,0,0,0,0,0,0,0,0,0,0,0,0,0,0,0,0,0,0,0,0,0,0,0,0,0,0,0,0,0,0,0,0,0,0,0,0],"sum_hessian":[9.78965E4,7.778993E4,2.0106574E4,5.988078E4,1.7909148E4,9.894265E3,1.021231E4,5.7327797E4,2.5529844E3,2.8860608E3,1.5023087E4,4.232875E3,5.6613896E3,6.9969463E3,3.2153633E3,4.169928E4,1.5628514E4,2.3761643E3,1.7682019E2,9.2911676E2,1.9569441E3,1.4894898E4,1.2818808E2,9.492959E2,3.2835793E3,5.641559E3,1.983039E1,3.9840986E3,3.012848E3,2.8957415E3,3.1962183E2,2.5872836E4,1.5826446E4,3.8191277E3,1.1809386E4,2.3432234E3,3.2940773E1,7.546915E1,1.0135104E2,4.6379627E1,8.827372E2,1.6496519E3,3.0729218E2,9.952455E3,4.942444E3,5.233564E1,7.585243E1,3.946801E2,5.546158E2,4.7583478E2,2.8077446E3,3.2230064E1,5.609329E3,7.80755E0,1.2022841E1,4.6666584E1,3.937432E3,2.786635E3,2.2621298E2,1.804946E3,1.0907953E3,2.4845465E2,7.116716E1,2.049589E4,5.3769443E3,1.3269653E4,2.5567932E3,2.419716E3,1.3994116E3,1.4685306E3,1.0340855E4,2.2956055E3,4.7617874E1,1.9488789E1,1.3451985E1,4.931395E1,2.61552E1,8.5583534E1,1.5767515E1,2.6019497E1,2.0360132E1,2.7997986E2,6.0275726E2,1.4286136E2,1.5067905E3,4.5552727E1,2.6173944E2,1.423112E3,8.529343E3,1.3992861E3,3.5431575E3,3.331991E2,6.1480995E1,5.462422E2,8.37364E0,1.8386255E2,2.9197223E2,5.7551186E1,2.7501934E3,1.2198423E1,2.0031641E1,5.428783E3,1.8054565E2,4.2965313E1,3.7012703E0,2.9959878E3,9.414442E2,2.4952698E3,2.9136505E2,6.828108E0,2.1938487E2,1.7181166E3,8.6829575E1,1.2820052E2,9.625947E2,6.0423252E1,1.880314E2,1.5241539E1,5.5925625E1],"tree_param":{"num_deleted":"0","num_feature":"276","num_nodes":"119","size_leaf_vector":"1"}},{"base_weights":[-3.2764204E-2,-7.1852046E-1,3.4621265E-2,-8.670441E-1,-2.04933E-1,9.517605E-2,-2.9077026E-1,-9.2456245E-1,2.2361898E-1,-9.904379E-1,8.910868E-2,1.6950303E-1,-1.9053933E-1,4.8538384E-1,-4.487223E-1,-9.7007704E-1,-1.8745491E-1,-3.5293412E-1,6.8168384E-1,-1.1912138E0,1.9078366E-1,-3.7066928E-1,6.6274136E-1,-2.5647634E-1,2.1792911E-1,-7.7017695E-1,-8.5957535E-2,7.407914E-1,-8.860909E-1,-6.398234E-1,-5.447315E-3,-1.0291054E0,-3.66901E-1,-3.2790798E-1,8.7273186E-1,1.1518205E0,-3.4095353E-1,-3.3835763E-1,-1.4089978E0,-3.263386E-1,1.2986962E0,-1.0028982E0,2.4815845E-1,8.442471E-1,-4.5541427E-1,4.42819E-1,-5.5583763E-1,1.1854408E-1,4.5431048E-1,-9.253082E-1,1.2996981E0,2.9089656E-2,-6.6629165E-1,-8.7472844E-1,1.0696555E0,-1.1615975E0,1.3184701E0,2.5480319E-2,-8.0604976E-1,-1.0090002E0,3.209054E-1,-3.1790024E-1,-7.460017E-3,2.7912676E-1,-3.1211773E-1,-3.6955312E-1,4.221095E-1,3.7152672E-1,-4.1582927E-1,-3.3886358E-1,-4.7374567E-1,4.4576067E-1,-3.020939E-1,-3.851921E-1,2.2236374E-1,-5.070776E-2,5.0518394E-1,3.289668E-1,-1.9593999E-1,-2.9765743E-1,1.824898E-1,-2.1179649E-1,1.8654688E-1,-5.5821057E-2,6.780875E-2,7.578699E-2,2.1734048E-1,2.1163292E-1,-3.203701E-1,-4.1246748E-1,5.526705E-1,-1.8760763E-1,5.3430784E-2,4.135909E-2,-3.0812654E-1,2.4987216E-1,-4.4161758E-1,3.6732322E-1,-4.279473E-1,-4.1239187E-1,2.7777886E-1,-2.2675453E-1,4.2226353E-1,3.8137022E-1,-8.175912E-2,-3.6275598E-1,-1.7980872E-1,-3.340987E-1,1.0144035E0,1.941421E-1,-1.5154861E-1],"categories":[],"categories_nodes":[],"categories_segments":[],"categories_sizes":[],"default_left":[0,0,0,0,0,0,0,0,0,0,0,0,0,0,0,0,0,0,0,0,0,0,0,0,0,0,0,0,0,0,0,0,0,0,0,0,0,0,0,0,0,0,0,0,0,0,0,0,0,0,0,0,0,0,0,0,0,0,0,0,0,0,0,0,0,0,0,0,0,0,0,0,0,0,0,0,0,0,0,0,0,0,0,0,0,0,0,0,0,0,0,0,0,0,0,0,0,0,0,0,0,0,0,0,0,0,0,0,0,0,0],"id":7,"left_children":[1,3,5,7,9,11,13,15,17,19,21,23,25,27,29,31,33,-1,35,37,39,41,43,45,47,49,51,53,55,57,59,61,63,-1,65,67,-1,-1,69,-1,71,73,75,77,-1,79,81,83,85,87,89,91,93,95,97,99,101,103,105,107,109,-1,-1,-1,-1,-1,-1,-1,-1,-1,-1,-1,-1,-1,-1,-1,-1,-1,-1,-1,-1,-1,-1,-1,-1,-1,-1,-1,-1,-1,-1,-1,-1,-1,-1,-1,-1,-1,-1,-1,-1,-1,-1,-1,-1,-1,-1,-1,-1,-1,-1],"loss_changes":[4.2975796E3,6.345498E2,1.6685731E3,4.0509668E2,4.3151245E2,1.5162008E3,1.6290864E3,2.0550928E2,2.0867197E2,1.2090512E2,3.589439E2,1.1687994E3,8.934177E2,7.8780414E2,9.352329E2,2.0521094E2,3.4446786E2,0E0,2.1061313E2,4.4136353E0,1.0735185E2,2.958602E2,2.4093509E2,1.2110443E3,1.1951145E3,7.2456177E2,8.3375525E2,1.0076821E3,2.1608063E2,8.5318115E2,1.0899075E3,1.6137988E2,4.5204785E2,0E0,1.877037E2,4.4585907E1,0E0,0E0,2.6873627E0,0E0,1.8984406E1,1.8426636E2,2.2947874E2,2.1212503E2,0E0,4.124503E2,7.166727E2,1.1727384E3,8.202898E2,4.8820068E2,2.3104712E2,1.0165211E3,5.99572E2,3.2870264E2,6.1010645E2,1.4115524E2,8.401009E0,5.7323474E2,5.1358154E2,3.7901154E2,6.770792E2,0E0,0E0,0E0,0E0,0E0,0E0,0E0,0E0,0E0,0E0,0E0,0E0,0E0,0E0,0E0,0E0,0E0,0E0,0E0,0E0,0E0,0E0,0E0,0E0,0E0,0E0,0E0,0E0,0E0,0E0,0E0,0E0,0E0,0E0,0E0,0E0,0E0,0E0,0E0,0E0,0E0,0E0,0E0,0E0,0E0,0E0,0E0,0E0,0E0,0E0],"parents":[2147483647,0,0,1,1,2,2,3,3,4,4,5,5,6,6,7,7,8,8,9,9,10,10,11,11,12,12,13,13,14,14,15,15,16,16,18,18,19,19,20,20,21,21,22,22,23,23,24,24,25,25,26,26,27,27,28,28,29,29,30,30,31,31,32,32,34,34,35,35,38,38,40,40,41,41,42,42,43,43,45,45,46,46,47,47,48,48,49,49,50,50,51,51,52,52,53,53,54,54,55,55,56,56,57,57,58,58,59,59,60,60],"right_children":[2,4,6,8,10,12,14,16,18,20,22,24,26,28,30,32,34,-1,36,38,40,42,44,46,48,50,52,54,56,58,60,62,64,-1,66,68,-1,-1,70,-1,72,74,76,78,-1,80,82,84,86,88,90,92,94,96,98,100,102,104,106,108,110,-1,-1,-1,-1,-1,-1,-1,-1,-1,-1,-1,-1,-1,-1,-1,-1,-1,-1,-1,-1,-1,-1,-1,-1,-1,-1,-1,-1,-1,-1,-1,-1,-1,-1,-1,-1,-1,-1,-1,-1,-1,-1,-1,-1,-1,-1,-1,-1,-1,-1],"split_conditions":[4.0936642E-4,7.079626E-1,5.3254437E-2,4.0666667E-1,1.9629629E-1,7.0422534E-3,-2.85625E-1,1.3636364E-1,-3.2243287E-4,1.3953489E-1,2.8947368E-2,1E2,3.5166685E-2,5.874601E-1,2.2766423E-1,1.4285715E-1,1.585282E-1,-3.5293412E-1,9.230769E0,4.973077E-2,3.6107883E-1,1.4900975E-1,1.8473685E-2,1.7527152E0,4.554917E-1,1.2711914E1,1.6596535E-1,6.098633E-2,1.9828571E-1,6.25E-2,1.2375E-1,1.1E0,8.581656E-2,-3.2790798E-1,4.1896257E-1,9.9542655E-2,-3.4095353E-1,-3.3835763E-1,6.7E1,-3.263386E-1,-9.8212846E-2,2.29E-1,1.1333334E-1,7.5E-1,-4.5541427E-1,6.14E-1,6.1E1,1.25E2,2.8039694E-1,-4.6555555E-1,2.0789315E-1,1.65E-1,-7.666667E-2,-2.0968644E-1,1.9725205E-1,5.688718E-1,3.8043863E-1,3.628326E-2,1.81123E3,1E-1,-1.096E-2,-3.1790024E-1,-7.460017E-3,2.7912676E-1,-3.1211773E-1,-3.6955312E-1,4.221095E-1,3.7152672E-1,-4.1582927E-1,-3.3886358E-1,-4.7374567E-1,4.4576067E-1,-3.020939E-1,-3.851921E-1,2.2236374E-1,-5.070776E-2,5.0518394E-1,3.289668E-1,-1.9593999E-1,-2.9765743E-1,1.824898E-1,-2.1179649E-1,1.8654688E-1,-5.5821057E-2,6.780875E-2,7.578699E-2,2.1734048E-1,2.1163292E-1,-3.203701E-1,-4.1246748E-1,5.526705E-1,-1.8760763E-1,5.3430784E-2,4.135909E-2,-3.0812654E-1,2.4987216E-1,-4.4161758E-1,3.6732322E-1,-4.279473E-1,-4.1239187E-1,2.7777886E-1,-2.2675453E-1,4.2226353E-1,3.8137022E-1,-8.175912E-2,-3.6275598E-1,-1.7980872E-1,-3.340987E-1,1.0144035E0,1.941421E-1,-1.5154861E-1],"split_indices":[19,155,172,92,51,169,75,157,19,164,72,26,151,195,191,173,40,0,3,108,185,137,114,8,127,2,133,189,114,13,101,178,143,0,211,137,0,0,25,0,183,92,101,84,0,105,25,10,189,62,155,74,51,181,125,145,127,151,4,158,76,0,0,0,0,0,0,0,0,0,0,0,0,0,0,0,0,0,0,0,0,0,0,0,0,0,0,0,0,0,0,0,0,0,0,0,0,0,0,0,0,0,0,0,0,0,0,0,0,0,0],"split_type":[0,0,0,0,0,0,0,0,0,0,0,0,0,0,0,0,0,0,0,0,0,0,0,0,0,0,0,0,0,0,0,0,0,0,0,0,0,0,0,0,0,0,0,0,0,0,0,0,0,0,0,0,0,0,0,0,0,0,0,0,0,0,0,0,0,0,0,0,0,0,0,0,0,0,0,0,0,0,0,0,0,0,0,0,0,0,0,0,0,0,0,0,0,0,0,0,0,0,0,0,0,0,0,0,0,0,0,0,0,0,0],"sum_hessian":[9.2999516E4,8.320035E3,8.4679484E4,6.4531646E3,1.8668701E3,7.1393914E4,1.3285571E4,6.1300366E3,3.231278E2,5.0784396E2,1.3590261E3,5.6655707E4,1.4738205E4,2.2461638E3,1.1039407E4,5.773238E3,3.5679907E2,7.9270584E1,2.4385724E2,4.340574E2,7.378654E1,7.54574E2,6.0445215E2,5.782829E3,5.087288E4,2.2517373E3,1.2486468E4,1.8939216E3,3.5224216E2,7.713558E3,3.3258496E3,5.257972E3,5.152654E2,1.924147E2,1.6438435E2,1.940481E2,4.980914E1,3.4102844E2,9.302896E1,3.426333E1,3.952321E1,3.7293854E2,3.8163544E2,5.5857513E2,4.5876995E1,1.7333402E3,4.049489E3,3.581584E4,1.5057039E4,2.0952568E3,1.5648058E2,1.0421439E4,2.065028E3,3.2004846E2,1.5738732E3,3.1353268E2,3.8709465E1,1.542142E3,6.171416E3,8.156349E2,2.5102146E3,5.1026284E3,1.5534375E2,1.7595253E2,3.3931284E2,3.3018986E1,1.3136537E2,1.8814018E2,5.907911E0,3.809769E1,5.4931274E1,3.6884518E1,2.638692E0,3.2140564E2,5.1532906E1,2.9639642E2,8.523904E1,4.782565E2,8.031864E1,1.7869952E2,1.5546406E3,3.5919226E3,4.575664E2,9.341411E3,2.6474428E4,8.622109E3,6.43493E3,1.681593E2,1.9270974E3,2.6130184E1,1.3035039E2,1.9322064E3,8.489233E3,6.397503E2,1.4252777E3,8.2838104E1,2.3721036E2,1.4824729E3,9.1400246E1,2.8480817E2,2.8724525E1,1.2856065E0,3.742386E1,2.9706705E2,1.2450748E3,2.0900308E3,4.0813853E3,7.973725E2,1.826234E1,1.7996887E3,7.10526E2],"tree_param":{"num_deleted":"0","num_feature":"276","num_nodes":"111","size_leaf_vector":"1"}},{"base_weights":[-2.9406695E-2,-6.6865605E-1,2.2425136E-2,-8.2983774E-1,-1.9562574E-1,7.34203E-2,-3.4896106E-1,6.667031E-2,-8.954922E-1,-9.709549E-1,6.649796E-2,1.20319985E-1,-2.883604E-1,-6.743543E-1,-1.0862237E-2,7.84586E-1,-8.5702723E-1,-9.5993364E-1,-3.1744012E-1,8.4682137E-1,-1.0831344E0,-3.2365456E-1,5.268493E-1,1.3610238E-1,-1.0388935E0,4.3385753E-1,-5.270942E-1,-7.463758E-1,9.5852405E-1,3.4739214E-1,-5.7858926E-1,-3.5837886E-1,1.1233135E0,1.0544542E0,-3.405258E-1,-3.691296E-1,-1.005956E0,-3.240854E-1,3.0455297E-1,4.1782394E-1,-3.0641395E-1,-1.1501863E0,1.083122E-1,-5.8419E-1,9.1502804E-1,8.873505E-1,-1.9007881E-1,2.6425354E-2,3.6697155E-1,1.9548322E0,-1.1245521E0,-1.1325344E-1,1.0160035E0,1.0092767E0,-5.885488E-1,4.653558E-1,-8.4534055E-1,-3.6470544E-1,1.6352968E0,-9.9485964E-1,5.0703204E-1,2.325546E0,-7.14725E-1,-3.531694E-1,3.6038712E-1,3.8231444E-1,-2.7649677E-1,-3.1175682E-1,4.1874528E-1,2.603899E-1,-3.0660462E-1,-3.1968147E-1,2.1895108E-1,-3.8410124E-1,-3.2434815E-1,-3.0891442E-1,3.2654035E-1,3.830081E-1,-2.2521898E-1,-3.2664937E-1,3.1348702E-1,3.2184604E-1,-3.29531E-1,-3.2659087E-1,2.8328505E-1,-5.3874236E-2,6.305246E-2,-5.4015744E-2,1.381902E-1,-4.1380265E-1,6.854706E-1,-3.5653377E-1,3.418403E-1,-1.8144462E-1,2.5621548E-1,-3.848642E-1,3.485837E-1,-5.698249E-1,3.946062E-1,-2.0111144E-1,9.5962614E-2,-1.2806457E-1,5.7113206E-1,-3.1471825E-1,-7.819652E-2,-3.901113E-1,5.6351817E-1,-3.6221942E-1,4.6841982E-1,2.1073644E-1,-1.5496524E-1,8.76197E-1,1.9804436E-1,-3.21522E-1,4.042992E-3],"categories":[],"categories_nodes":[],"categories_segments":[],"categories_sizes":[],"default_left":[0,0,0,0,0,0,0,0,0,0,0,0,0,0,0,0,0,0,0,0,0,0,0,0,0,0,0,0,0,0,0,0,0,0,0,0,0,0,0,0,0,0,0,0,0,0,0,0,0,0,0,0,0,0,0,0,0,0,0,0,0,0,0,0,0,0,0,0,0,0,0,0,0,0,0,0,0,0,0,0,0,0,0,0,0,0,0,0,0,0,0,0,0,0,0,0,0,0,0,0,0,0,0,0,0,0,0,0,0,0,0,0,0,0,0],"id":8,"left_children":[1,3,5,7,9,11,13,15,17,19,21,23,25,27,29,31,33,35,37,39,41,43,45,47,49,51,53,55,57,59,61,-1,63,65,-1,67,69,-1,71,-1,-1,73,75,77,79,81,83,85,87,89,91,93,95,97,99,101,103,-1,105,107,109,111,113,-1,-1,-1,-1,-1,-1,-1,-1,-1,-1,-1,-1,-1,-1,-1,-1,-1,-1,-1,-1,-1,-1,-1,-1,-1,-1,-1,-1,-1,-1,-1,-1,-1,-1,-1,-1,-1,-1,-1,-1,-1,-1,-1,-1,-1,-1,-1,-1,-1,-1,-1,-1],"loss_changes":[2.9357944E3,5.0651416E2,1.5522615E3,2.9178394E2,3.43572E2,1.2228031E3,1.0886395E3,2.2556056E2,1.7172314E2,8.801376E1,2.2721297E2,1.1673047E3,1.426206E3,5.9371924E2,9.874567E2,1.2961783E2,8.027749E1,1.1258862E2,2.208158E2,2.731528E1,3.2298126E1,2.2154669E2,1.5014006E2,1.5937032E3,2.2197137E2,6.547001E2,5.875145E2,5.7960034E2,3.1606818E2,6.383309E2,7.442773E2,0E0,3.08152E1,9.611618E0,0E0,3.5838202E2,1.16857666E2,0E0,1.503907E2,0E0,0E0,2.041809E0,2.6074467E1,1.7650417E2,3.2225075E1,1.4344962E2,1.9976556E2,1.6152726E3,1.0386589E3,2.9789246E1,1.2197095E2,5.0472278E2,3.3559546E2,2.1568085E2,4.4454224E2,4.696889E2,5.316416E2,0E0,1.1891574E2,1.739671E2,5.326286E2,8.1663574E1,4.6667627E2,0E0,0E0,0E0,0E0,0E0,0E0,0E0,0E0,0E0,0E0,0E0,0E0,0E0,0E0,0E0,0E0,0E0,0E0,0E0,0E0,0E0,0E0,0E0,0E0,0E0,0E0,0E0,0E0,0E0,0E0,0E0,0E0,0E0,0E0,0E0,0E0,0E0,0E0,0E0,0E0,0E0,0E0,0E0,0E0,0E0,0E0,0E0,0E0,0E0,0E0,0E0,0E0],"parents":[2147483647,0,0,1,1,2,2,3,3,4,4,5,5,6,6,7,7,8,8,9,9,10,10,11,11,12,12,13,13,14,14,15,15,16,16,17,17,18,18,19,19,20,20,21,21,22,22,23,23,24,24,25,25,26,26,27,27,28,28,29,29,30,30,32,32,33,33,35,35,36,36,38,38,41,41,42,42,43,43,44,44,45,45,46,46,47,47,48,48,49,49,50,50,51,51,52,52,53,53,54,54,55,55,56,56,58,58,59,59,60,60,61,61,62,62],"right_children":[2,4,6,8,10,12,14,16,18,20,22,24,26,28,30,32,34,36,38,40,42,44,46,48,50,52,54,56,58,60,62,-1,64,66,-1,68,70,-1,72,-1,-1,74,76,78,80,82,84,86,88,90,92,94,96,98,100,102,104,-1,106,108,110,112,114,-1,-1,-1,-1,-1,-1,-1,-1,-1,-1,-1,-1,-1,-1,-1,-1,-1,-1,-1,-1,-1,-1,-1,-1,-1,-1,-1,-1,-1,-1,-1,-1,-1,-1,-1,-1,-1,-1,-1,-1,-1,-1,-1,-1,-1,-1,-1,-1,-1,-1,-1,-1],"split_conditions":[4.0936642E-4,6.9371164E-1,3.5971224E-2,8E-2,1.9629629E-1,2.225E-1,7.219627E-2,-6.3285714E-1,2.8111112E-1,1.5018669E-2,2.8947368E-2,2.2E2,-9.7979224E-1,6.16875E-1,-4.07E-1,6.4777E2,-2.055294E1,-5.622722E-1,1.6E-1,-1.59E-1,1.4427652E0,3.435E-1,5.418347E-1,1.78E2,-1.3894737E-1,1.09E2,-7.7513E-1,-9.9769104E-1,1.225E0,2.5468737E-1,-9.343714E-1,-3.5837886E-1,6.4120305E-1,1.6656086E-2,-3.405258E-1,1.6130435E-1,-7.816667E-1,-3.240854E-1,1.585282E-1,4.1782394E-1,-3.0641395E-1,-3E-2,2.950212E0,3.2590963E-2,1.855E-1,5.69E1,2.2777422E-1,1.0814285E0,4.101021E-2,9.090909E-2,7.388E-1,5.025E-1,-3.5411766E-1,-9.3206996E-1,4.001785E-1,3.4E-1,3.9470196E-1,-3.6470544E-1,-7.8487086E-1,9.592234E-1,2.0557716E-1,1.0249538E-1,3.9557916E-1,-3.531694E-1,3.6038712E-1,3.8231444E-1,-2.7649677E-1,-3.1175682E-1,4.1874528E-1,2.603899E-1,-3.0660462E-1,-3.1968147E-1,2.1895108E-1,-3.8410124E-1,-3.2434815E-1,-3.0891442E-1,3.2654035E-1,3.830081E-1,-2.2521898E-1,-3.2664937E-1,3.1348702E-1,3.2184604E-1,-3.29531E-1,-3.2659087E-1,2.8328505E-1,-5.3874236E-2,6.305246E-2,-5.4015744E-2,1.381902E-1,-4.1380265E-1,6.854706E-1,-3.5653377E-1,3.418403E-1,-1.8144462E-1,2.5621548E-1,-3.848642E-1,3.485837E-1,-5.698249E-1,3.946062E-1,-2.0111144E-1,9.5962614E-2,-1.2806457E-1,5.7113206E-1,-3.1471825E-1,-7.819652E-2,-3.901113E-1,5.6351817E-1,-3.6221942E-1,4.6841982E-1,2.1073644E-1,-1.5496524E-1,8.76197E-1,1.9804436E-1,-3.21522E-1,4.042992E-3],"split_indices":[19,155,166,13,51,89,129,63,91,153,72,25,198,61,63,4,3,183,85,110,155,67,183,26,110,25,41,195,84,135,116,0,181,129,0,134,52,0,40,0,0,7,8,129,96,3,129,81,151,168,74,67,102,179,181,122,193,0,184,184,125,190,185,0,0,0,0,0,0,0,0,0,0,0,0,0,0,0,0,0,0,0,0,0,0,0,0,0,0,0,0,0,0,0,0,0,0,0,0,0,0,0,0,0,0,0,0,0,0,0,0,0,0,0,0],"split_type":[0,0,0,0,0,0,0,0,0,0,0,0,0,0,0,0,0,0,0,0,0,0,0,0,0,0,0,0,0,0,0,0,0,0,0,0,0,0,0,0,0,0,0,0,0,0,0,0,0,0,0,0,0,0,0,0,0,0,0,0,0,0,0,0,0,0,0,0,0,0,0,0,0,0,0,0,0,0,0,0,0,0,0,0,0,0,0,0,0,0,0,0,0,0,0,0,0,0,0,0,0,0,0,0,0,0,0,0,0,0,0,0,0,0,0],"sum_hessian":[8.8603664E4,6.6444775E3,8.195919E4,4.9552554E3,1.689222E3,7.206475E4,9.894434E3,3.3812775E2,4.6171274E3,4.26117E2,1.263105E3,6.3795277E4,8.269477E3,5.0414473E3,4.852987E3,1.9034135E2,1.477864E2,4.15344E3,4.6368753E2,2.4387594E1,4.017294E2,6.838403E2,5.792647E2,6.2939258E4,8.560194E2,2.054222E3,6.2152544E3,4.828997E3,2.1245012E2,2.9756453E3,1.8773418E3,2.7446276E1,1.6289508E2,1.8413412E1,1.2937299E2,3.008142E2,3.852626E3,2.0793207E2,2.5575546E2,1.9069586E1,5.318009E0,3.8035834E2,2.1371061E1,5.654385E2,1.1840181E2,3.8528818E2,1.9397655E2,4.2669664E4,2.0269594E4,2.3204763E1,8.3281464E2,1.0593921E3,9.948299E2,2.3845425E2,5.9768003E3,3.643361E2,4.4646606E3,5.024288E1,1.6220723E2,3.157328E2,2.6599124E3,8.3342575E1,1.7939991E3,4.878149E0,1.5801694E2,1.68889E1,1.5245104E0,2.1833488E2,8.2479324E1,3.2285282E1,3.8203406E3,6.0223827E1,1.9553163E2,1.2573367E2,2.5462466E2,9.8657255E0,1.1505336E1,4.589959E1,5.195389E2,6.760223E0,1.1164159E2,3.5279718E2,3.2490993E1,1.0826075E2,8.5715805E1,2.0116537E4,2.2553127E4,2.9630923E3,1.7306502E4,1.8038967E0,2.1400867E1,8.1041864E2,2.2396015E1,7.026808E2,3.567113E2,5.892061E1,9.359093E2,2.220752E1,2.1624673E2,5.483186E3,4.9361386E2,2.2529243E2,1.3904366E2,3.3104248E3,1.154236E3,1.2072246E1,1.50135E2,2.9198367E2,2.3749107E1,2.2337568E3,4.261557E2,6.084618E1,2.249639E1,1.2034922E3,5.90507E2],"tree_param":{"num_deleted":"0","num_feature":"276","num_nodes":"115","size_leaf_vector":"1"}},{"base_weights":[-2.6457822E-2,2.1873482E-2,-5.388011E-1,6.893679E-2,-3.7222072E-1,-7.5331783E-1,1.2939603E-2,-2.8955814E-1,1.1352312E-1,-3.9914933E-1,4.2606864E0,-4.7683632E-1,-9.5639247E-1,-3.3743462E-1,4.679988E-1,1.9965193E-1,-5.8484405E-1,1.3147165E-1,-1.0370716E0,-1.003286E0,-1.7978474E-1,5.6320705E0,-3.7148282E-1,-1.09093405E-1,-9.0896815E-1,-1.0292751E0,-2.8496334E-1,-1.0429261E0,4.2368603E-1,-4.0176854E-1,8.5005975E-1,-7.255232E-1,4.5552856E-1,-8.5862744E-1,-2.7171262E-2,1.7270583E-1,-2.6023552E-1,-1.2617611E0,8.729055E-1,-1.1127201E0,6.585322E-1,-9.7794163E-1,1.0401013E-2,1.9975282E0,1.1815857E0,-2.957814E-1,1.2777953E0,-9.803651E-1,1.683594E0,2.944861E-1,-1.0531152E0,-3.3717358E-1,1.0432339E0,9.011383E-1,-1.2276187E0,-4.7733864E-1,6.464845E-1,-8.7056553E-1,1.153065E0,-3.6665538E-1,1.0526057E0,-2.677625E-1,4.526247E-1,1.6681907E-1,-5.4874057E-1,-2.866421E-1,6.963946E-2,-3.380838E-1,6.996617E-2,4.227348E-2,1.8529342E-1,4.3672565E-2,-1.8853112E-1,-3.9886376E-1,2.5028953E-1,-6.3671416E-1,3.9032334E-1,-3.71121E-1,9.086316E-2,-4.3547985E-1,5.450542E-1,-3.27879E-1,1.0474176E-1,-5.6384277E-2,2.4814449E-1,3.0854886E-2,-2.4527408E-1,-3.4572172E-1,5.6376487E-1,3.2045826E-1,-3.1046632E-1,-3.202837E-1,7.5532836E-1,5.662955E-1,-3.1984025E-1,-3.2212594E-1,8.154754E-2,4.6207088E-1,-3.0936268E-1,4.52759E-1,-4.1294423E-1,3.8504815E-1,-4.0284595E-1,-2.41874E-1,3.1575117E-1,-3.5301453E-1,8.486757E-2,-2.970885E-1,4.1622356E-1,-3.8254723E-1,3.559757E-1],"categories":[],"categories_nodes":[],"categories_segments":[],"categories_sizes":[],"default_left":[0,0,0,0,0,0,0,0,0,0,0,0,0,0,0,0,0,0,0,0,0,0,0,0,0,0,0,0,0,0,0,0,0,0,0,0,0,0,0,0,0,0,0,0,0,0,0,0,0,0,0,0,0,0,0,0,0,0,0,0,0,0,0,0,0,0,0,0,0,0,0,0,0,0,0,0,0,0,0,0,0,0,0,0,0,0,0,0,0,0,0,0,0,0,0,0,0,0,0,0,0,0,0,0,0,0,0,0,0,0,0],"id":9,"left_children":[1,3,5,7,9,11,13,15,17,19,21,23,25,27,29,31,33,35,37,39,41,43,-1,45,47,49,51,53,55,57,59,61,63,65,67,69,71,73,75,77,79,81,83,-1,-1,85,87,89,91,93,95,-1,97,99,101,-1,103,105,107,-1,109,-1,-1,-1,-1,-1,-1,-1,-1,-1,-1,-1,-1,-1,-1,-1,-1,-1,-1,-1,-1,-1,-1,-1,-1,-1,-1,-1,-1,-1,-1,-1,-1,-1,-1,-1,-1,-1,-1,-1,-1,-1,-1,-1,-1,-1,-1,-1,-1,-1,-1],"loss_changes":[2.1096433E3,1.4439852E3,8.692363E2,1.111685E3,1.037885E3,2.9645117E2,3.281256E2,1.1114578E3,1.2775481E3,1.0942856E3,3.6957336E2,3.5607495E2,1.4885132E2,6.2479694E2,2.978316E2,6.860201E2,7.3250305E2,9.837897E2,4.0888165E2,4.0076587E2,9.1987726E2,4.0978394E1,0E0,3.1418402E2,1.9236115E2,8.7063965E1,3.3525848E2,2.1787305E2,2.5242676E2,2.0065479E2,2.6249292E2,2.3566278E2,5.2231396E2,3.401477E2,4.5297208E2,7.7947266E2,8.669153E2,1.219624E2,1.3178938E2,3.637256E2,3.363487E2,1.7832605E2,7.931025E2,0E0,0E0,2.2244638E2,2.1260152E2,1.13169495E2,6.690416E1,1.0912447E2,7.41355E1,0E0,1.2178807E2,7.541681E1,1.6133832E2,0E0,2.9870624E2,7.485147E1,3.3462143E1,0E0,1.7848657E2,0E0,0E0,0E0,0E0,0E0,0E0,0E0,0E0,0E0,0E0,0E0,0E0,0E0,0E0,0E0,0E0,0E0,0E0,0E0,0E0,0E0,0E0,0E0,0E0,0E0,0E0,0E0,0E0,0E0,0E0,0E0,0E0,0E0,0E0,0E0,0E0,0E0,0E0,0E0,0E0,0E0,0E0,0E0,0E0,0E0,0E0,0E0,0E0,0E0,0E0],"parents":[2147483647,0,0,1,1,2,2,3,3,4,4,5,5,6,6,7,7,8,8,9,9,10,10,11,11,12,12,13,13,14,14,15,15,16,16,17,17,18,18,19,19,20,20,21,21,23,23,24,24,25,25,26,26,27,27,28,28,29,29,30,30,31,31,32,32,33,33,34,34,35,35,36,36,37,37,38,38,39,39,40,40,41,41,42,42,45,45,46,46,47,47,48,48,49,49,50,50,52,52,53,53,54,54,56,56,57,57,58,58,60,60],"right_children":[2,4,6,8,10,12,14,16,18,20,22,24,26,28,30,32,34,36,38,40,42,44,-1,46,48,50,52,54,56,58,60,62,64,66,68,70,72,74,76,78,80,82,84,-1,-1,86,88,90,92,94,96,-1,98,100,102,-1,104,106,108,-1,110,-1,-1,-1,-1,-1,-1,-1,-1,-1,-1,-1,-1,-1,-1,-1,-1,-1,-1,-1,-1,-1,-1,-1,-1,-1,-1,-1,-1,-1,-1,-1,-1,-1,-1,-1,-1,-1,-1,-1,-1,-1,-1,-1,-1,-1,-1,-1,-1,-1,-1],"split_conditions":[4.494382E-2,3.797468E-2,1.3698103E0,1.30661E3,8.027273E-1,-5.142857E-2,5.6538463E-2,-1.37E0,8.089983E-1,-2.1892494E-1,-2.2142856E0,-4.052375E-1,9.2285717E-1,3.0732957E-1,2.3076923E-1,2.12E-1,5.625E-1,4.0983606E-2,8.299869E-1,1.2705055E0,1.5529412E-1,1.6371687E-1,-3.7148282E-1,4.2375E-1,3.598E4,-1.2908064E0,2.179E0,1.3356337E-2,-2.7996412E-1,7.22125E-1,-6.6E-2,5E-1,6.594353E-1,6.723889E-1,-1.2E-1,1.3628694E0,2.1352081E1,7.2727275E-1,6.768757E-1,1.21796875E1,2.9205968E0,6.737604E-1,7.5E-2,1.9975282E0,1.1815857E0,8.7E-2,1.8917766E-1,-1.4894682E0,6.1738783E-1,-1.7E-1,1.875E-1,-3.3717358E-1,7.7419356E-2,-4.3226358E-1,-7.985714E-1,-4.7733864E-1,2.1875E-1,7.92878E-1,1.2E-1,-3.6665538E-1,2.8333334E-2,-2.677625E-1,4.526247E-1,1.6681907E-1,-5.4874057E-1,-2.866421E-1,6.963946E-2,-3.380838E-1,6.996617E-2,4.227348E-2,1.8529342E-1,4.3672565E-2,-1.8853112E-1,-3.9886376E-1,2.5028953E-1,-6.3671416E-1,3.9032334E-1,-3.71121E-1,9.086316E-2,-4.3547985E-1,5.450542E-1,-3.27879E-1,1.0474176E-1,-5.6384277E-2,2.4814449E-1,3.0854886E-2,-2.4527408E-1,-3.4572172E-1,5.6376487E-1,3.2045826E-1,-3.1046632E-1,-3.202837E-1,7.5532836E-1,5.662955E-1,-3.1984025E-1,-3.2212594E-1,8.154754E-2,4.6207088E-1,-3.0936268E-1,4.52759E-1,-4.1294423E-1,3.8504815E-1,-4.0284595E-1,-2.41874E-1,3.1575117E-1,-3.5301453E-1,8.486757E-2,-2.970885E-1,4.1622356E-1,-3.8254723E-1,3.559757E-1],"split_indices":[159,158,139,4,67,56,106,49,190,182,177,42,177,190,17,94,14,166,141,155,74,127,0,72,9,192,124,153,182,136,116,163,182,39,88,141,3,12,181,2,8,205,175,0,0,53,205,38,194,75,173,0,159,184,58,0,74,181,165,0,87,0,0,0,0,0,0,0,0,0,0,0,0,0,0,0,0,0,0,0,0,0,0,0,0,0,0,0,0,0,0,0,0,0,0,0,0,0,0,0,0,0,0,0,0,0,0,0,0,0,0],"split_type":[0,0,0,0,0,0,0,0,0,0,0,0,0,0,0,0,0,0,0,0,0,0,0,0,0,0,0,0,0,0,0,0,0,0,0,0,0,0,0,0,0,0,0,0,0,0,0,0,0,0,0,0,0,0,0,0,0,0,0,0,0,0,0,0,0,0,0,0,0,0,0,0,0,0,0,0,0,0,0,0,0,0,0,0,0,0,0,0,0,0,0,0,0,0,0,0,0,0,0,0,0,0,0,0,0,0,0,0,0,0,0],"sum_hessian":[8.519457E4,7.78515E4,7.3430728E3,6.954693E4,8.304571E3,5.2870884E3,2.0559846E3,7.6922383E3,6.1854688E4,8.257488E3,4.708252E1,2.2403083E3,3.0467798E3,1.1617501E3,8.942345E2,2.8954963E3,4.7967417E3,6.090549E4,9.4920044E2,2.1986812E3,6.058807E3,3.7665043E1,9.417478E0,1.2110018E3,1.0293064E3,2.74796E3,2.9881985E2,6.027157E2,5.590344E2,2.7290674E2,6.213278E2,6.2691595E2,2.2685803E3,3.2169001E3,1.5798416E3,5.5105234E4,5.8002515E3,8.495937E2,9.9606735E1,2.063149E3,1.3553207E2,1.165093E3,4.8937144E3,2.162614E1,1.60389E1,1.0680228E3,1.4297899E2,1.00232513E3,2.698132E1,4.8412888E1,2.699547E3,1.8323457E2,1.155853E2,5.195552E1,5.507602E2,5.505137E1,5.0398303E2,2.1002292E2,6.2883812E1,5.4874428E1,5.6645337E2,5.838704E2,4.3045536E1,2.1736855E3,9.489487E1,2.9546838E3,2.6221634E2,3.0180954E2,1.278032E3,5.1431395E4,3.6738425E3,2.7594966E3,3.0407551E3,8.233335E2,2.6260204E1,1.1962943E1,8.764379E1,1.8966667E3,1.6648225E2,4.7941906E1,8.759017E1,1.0723527E3,9.2740364E1,3.9381074E3,9.556069E2,6.059256E2,4.6209723E2,2.818279E1,1.14796196E2,2.5503338E1,9.768218E2,6.212319E0,2.0769001E1,2.2122295E1,2.6290592E1,2.6583293E3,4.1217674E1,9.345301E1,2.2132284E1,4.1273952E1,1.068157E1,2.3713816E1,5.270464E2,1.09873085E2,3.9410995E2,1.6595512E2,4.4067795E1,5.879901E0,5.700391E1,3.0365528E1,5.360878E2],"tree_param":{"num_deleted":"0","num_feature":"276","num_nodes":"111","size_leaf_vector":"1"}},{"base_weights":[-2.4314264E-2,-6.637472E-1,4.4603953E-3,-8.5368574E-1,-2.716616E-1,3.2255524E-1,-3.1531915E-2,-9.091517E-1,5.27773E-1,-8.6657184E-1,3.2999277E-2,4.414402E-1,-3.4624782E-1,-1.0633312E-1,1.2456236E-1,-9.7260064E-1,4.1865256E-2,-3.1728467E-1,1.4062568E0,-1.1614176E0,2.7155355E-1,4.9181065E-1,-3.5783273E-1,8.894279E-1,8.9729354E-2,-8.922938E-1,8.876678E-1,-3.150308E-1,6.556039E-2,-5.2200854E-1,2.1004492E-1,-1.0242153E0,2.235416E-1,-3.1038693E-1,9.3478763E-1,-2.7825546E-1,1.5044622E0,-3.2306042E-1,-3.6567464E-1,-3.091632E-1,3.780007E-1,-1.3387423E0,6.5870255E-1,-9.4992936E-1,3.19791E-1,3.5275476E0,8.0726576E-1,5.0042284E-1,-1.6068995E-1,-1.6210229E0,1.3626966E-1,1.1647168E0,-7.156894E-1,-6.0201E-1,-1.8921007E-1,1.1119726E-1,-6.7838806E-1,3.367668E-1,-7.795462E-1,4.094159E-2,6.0616016E-1,-1.7280102E-1,-3.141828E-1,-3.2348755E-1,5.3046894E-1,4.275914E-1,-3.1600165E-1,4.8373702E-1,3.3354783E-1,-4.6044257E-1,-2.9556534E-1,3.7095746E-1,3.9147433E-2,1.944004E-1,-3.233621E-1,-3.3631086E-1,2.61268E-1,1.5336207E0,6.304367E-1,-2.3810132E-1,2.7092415E-1,-4.4340566E-1,1.8759277E-1,-3.0277318E-1,7.840085E-2,-4.1917375E-1,-1.4770782E0,2.397873E-1,-2.8252074E-1,-5.513801E-1,4.1803914E-1,-3.284536E-1,-1.2775473E-1,-3.9978627E-2,-3.0217034E-1,6.384222E-2,-4.2738605E-2,3.335706E-1,-2.5452197E-1,3.4156197E-1,-2.1362253E-1,2.479752E-1,-2.635828E-1,-1.8375507E-1,4.9595315E-2,-1.6525224E-2,2.38599E-1],"categories":[],"categories_nodes":[],"categories_segments":[],"categories_sizes":[],"default_left":[0,0,0,0,0,0,0,0,0,0,0,0,0,0,0,0,0,0,0,0,0,0,0,0,0,0,0,0,0,0,0,0,0,0,0,0,0,0,0,0,0,0,0,0,0,0,0,0,0,0,0,0,0,0,0,0,0,0,0,0,0,0,0,0,0,0,0,0,0,0,0,0,0,0,0,0,0,0,0,0,0,0,0,0,0,0,0,0,0,0,0,0,0,0,0,0,0,0,0,0,0,0,0,0,0,0,0],"id":10,"left_children":[1,3,5,7,9,11,13,15,17,19,21,23,25,27,29,31,33,-1,35,37,39,41,43,45,47,49,51,53,55,57,59,61,63,-1,65,-1,67,-1,-1,-1,-1,69,71,73,75,77,79,81,83,85,87,89,-1,91,93,95,97,99,101,103,105,-1,-1,-1,-1,-1,-1,-1,-1,-1,-1,-1,-1,-1,-1,-1,-1,-1,-1,-1,-1,-1,-1,-1,-1,-1,-1,-1,-1,-1,-1,-1,-1,-1,-1,-1,-1,-1,-1,-1,-1,-1,-1,-1,-1,-1,-1],"loss_changes":[1.5087181E3,2.627318E2,8.983851E2,1.8271008E2,2.0914807E2,6.343448E2,8.230871E2,1.380293E2,1.3022357E2,1.3145483E2,1.3717409E2,1.067056E3,8.1228546E2,1.7096298E3,1.2623408E3,1.3258533E2,1.3936891E2,0E0,1.5125298E1,1.9717407E-1,1.0583283E2,1.0837512E2,1.6606305E2,6.427727E2,3.9040012E2,6.2640466E2,3.383E2,7.7707495E2,8.873357E2,5.901199E2,1.3511378E3,2.0640625E1,1.8188933E2,0E0,7.8765656E1,0E0,6.609955E-1,0E0,0E0,0E0,0E0,5.484657E-1,9.846089E1,4.5827072E1,1.5454703E2,1.9187573E2,4.4401196E2,3.5617813E2,8.44833E2,3.5455396E2,2.4902592E2,2.3731198E2,0E0,5.690652E2,6.847666E2,6.346873E2,4.6074377E2,5.188176E2,3.272213E2,1.1491198E3,7.549243E2,0E0,0E0,0E0,0E0,0E0,0E0,0E0,0E0,0E0,0E0,0E0,0E0,0E0,0E0,0E0,0E0,0E0,0E0,0E0,0E0,0E0,0E0,0E0,0E0,0E0,0E0,0E0,0E0,0E0,0E0,0E0,0E0,0E0,0E0,0E0,0E0,0E0,0E0,0E0,0E0,0E0,0E0,0E0,0E0,0E0,0E0],"parents":[2147483647,0,0,1,1,2,2,3,3,4,4,5,5,6,6,7,7,8,8,9,9,10,10,11,11,12,12,13,13,14,14,15,15,16,16,18,18,19,19,20,20,21,21,22,22,23,23,24,24,25,25,26,26,27,27,28,28,29,29,30,30,31,31,32,32,34,34,36,36,41,41,42,42,43,43,44,44,45,45,46,46,47,47,48,48,49,49,50,50,51,51,53,53,54,54,55,55,56,56,57,57,58,58,59,59,60,60],"right_children":[2,4,6,8,10,12,14,16,18,20,22,24,26,28,30,32,34,-1,36,38,40,42,44,46,48,50,52,54,56,58,60,62,64,-1,66,-1,68,-1,-1,-1,-1,70,72,74,76,78,80,82,84,86,88,90,-1,92,94,96,98,100,102,104,106,-1,-1,-1,-1,-1,-1,-1,-1,-1,-1,-1,-1,-1,-1,-1,-1,-1,-1,-1,-1,-1,-1,-1,-1,-1,-1,-1,-1,-1,-1,-1,-1,-1,-1,-1,-1,-1,-1,-1,-1,-1,-1,-1,-1,-1,-1],"split_conditions":[2.8947368E-2,1.14285715E-1,-1.6645454E0,1.875E-1,-2.851925E0,1.1456669E-1,6.2693876E-1,1.3636364E-1,4.3243244E-1,3.683923E-1,-6.127451E-1,2.625E-2,1.5831017E-1,1.3894737E-1,4.87844E-2,1.8972117E-1,1.54444445E-2,-3.1728467E-1,1.8096803E-1,-7.461538E-2,2E1,3.628326E-2,7.22449E-1,-2.12E-1,2.896571E-1,8.378571E-1,2.03023E-1,7.507941E-2,7.5E-2,6.753056E-2,4.0120435E-1,-6.908302E-1,3.9153847E-1,-3.1038693E-1,2.1335246E-1,-2.7825546E-1,8.2067996E-2,-3.2306042E-1,-3.6567464E-1,-3.091632E-1,3.780007E-1,-2.6944444E-1,1.1645132E-1,-2.3548555E0,-8.2392305E-1,-5.791337E-1,-3.988889E-1,3.8588483E-2,2.8302234E-1,1.289807E0,1.2E-1,5.4157895E-1,-7.156894E-1,1.999E0,6.2175727E-1,3.3183757E-2,-9.412059E-1,5.7803467E-2,-1.1991272E0,7.444178E2,3.4615386E-1,-1.7280102E-1,-3.141828E-1,-3.2348755E-1,5.3046894E-1,4.275914E-1,-3.1600165E-1,4.8373702E-1,3.3354783E-1,-4.6044257E-1,-2.9556534E-1,3.7095746E-1,3.9147433E-2,1.944004E-1,-3.233621E-1,-3.3631086E-1,2.61268E-1,1.5336207E0,6.304367E-1,-2.3810132E-1,2.7092415E-1,-4.4340566E-1,1.8759277E-1,-3.0277318E-1,7.840085E-2,-4.1917375E-1,-1.4770782E0,2.397873E-1,-2.8252074E-1,-5.513801E-1,4.1803914E-1,-3.284536E-1,-1.2775473E-1,-3.9978627E-2,-3.0217034E-1,6.384222E-2,-4.2738605E-2,3.335706E-1,-2.5452197E-1,3.4156197E-1,-2.1362253E-1,2.479752E-1,-2.635828E-1,-1.8375507E-1,4.9595315E-2,-1.6525224E-2,2.38599E-1],"split_indices":[72,96,49,173,42,197,178,157,12,125,105,106,129,83,151,151,55,0,131,72,27,151,178,81,143,72,125,151,172,145,194,183,94,0,141,0,147,0,0,0,0,69,143,36,111,180,98,133,127,141,163,81,0,124,189,189,185,165,189,16,12,0,0,0,0,0,0,0,0,0,0,0,0,0,0,0,0,0,0,0,0,0,0,0,0,0,0,0,0,0,0,0,0,0,0,0,0,0,0,0,0,0,0,0,0,0,0],"split_type":[0,0,0,0,0,0,0,0,0,0,0,0,0,0,0,0,0,0,0,0,0,0,0,0,0,0,0,0,0,0,0,0,0,0,0,0,0,0,0,0,0,0,0,0,0,0,0,0,0,0,0,0,0,0,0,0,0,0,0,0,0,0,0,0,0,0,0,0,0,0,0,0,0,0,0,0,0,0,0,0,0,0,0,0,0,0,0,0,0,0,0,0,0,0,0,0,0,0,0,0,0,0,0,0,0,0,0],"sum_hessian":[8.199678E4,3.5300327E3,7.846675E4,2.3772437E3,1.1527888E3,7.9751914E3,7.0491555E4,2.2858098E3,9.143396E1,3.8979437E2,7.629945E2,6.7717925E3,1.2033989E3,4.7655234E4,2.2836322E4,2.1428242E3,1.4298546E2,3.2527706E1,5.8906254E1,3.0957468E2,8.021968E1,3.5085507E2,4.1213943E2,2.977591E3,3.7942017E3,8.344193E2,3.689796E2,2.1523047E4,2.6132186E4,2.6660225E3,2.0170299E4,2.054322E3,8.850236E1,6.475705E1,7.822842E1,2.0376837E0,5.686857E1,1.332953E2,1.7627939E2,3.4599148E1,4.5620537E1,2.872821E1,3.2212686E2,2.197359E2,1.9240352E2,8.8667244E1,2.8889238E3,1.4368068E3,2.3573948E3,4.88058E2,3.463613E2,3.4078043E2,2.8199173E1,6.5590356E3,1.4964012E4,2.4622586E4,1.5096006E3,6.149906E2,2.0510317E3,1.4136478E4,6.0338213E3,1.0179417E2,1.9525278E3,4.8190372E1,4.031198E1,6.2974285E1,1.525413E1,4.2164497E1,1.4704072E1,1.6330051E1,1.239816E1,1.5319852E2,1.6892834E2,1.5988357E1,2.0374754E2,5.294569E1,1.3945782E2,4.07763E1,4.789094E1,1.6272482E2,2.726199E3,8.466797E1,1.3521388E3,7.82552E2,1.5748428E3,4.5841928E2,2.9638725E1,2.1461937E2,1.3174191E2,2.3625473E1,3.1715497E2,1.72576E3,4.8332754E3,1.4007168E4,9.568437E2,1.7580428E4,7.0421587E3,1.304479E2,1.3791526E3,3.4849936E2,2.664912E2,1.187279E2,1.932304E3,2.2598022E3,1.1876676E4,1.3423474E3,4.691474E3],"tree_param":{"num_deleted":"0","num_feature":"276","num_nodes":"107","size_leaf_vector":"1"}},{"base_weights":[-2.001465E-2,-5.355837E-3,-9.789015E-1,-1.593522E-1,7.029285E-2,6.082892E-1,-3.1192172E-1,-5.559552E-1,-2.4109771E-2,3.6185286E-3,3.0415943E-1,6.8988794E-1,-3.219242E-1,1.5166782E-1,-7.470827E-1,1.8315893E-1,-2.5089598E-1,-8.7049514E-2,2.2294702E-1,4.2601657E-1,-5.817243E-1,-2.007725E0,3.2179838E-1,-8.887571E-1,1.0681356E-1,-1.0649613E0,2.3261875E-1,-5.1761E-1,4.6285007E-2,-2.6662272E-1,5.480206E-2,3.4384227E-1,-3.2476234E-1,5.003881E-1,-1.0147741E0,-1.6192486E0,-1.5702373E-1,2.6830775E-1,-7.6545966E-1,-1.6959634E-1,1.6572264E-1,-2.2055177E-1,-4.1511437E-1,6.641735E-1,-4.9332432E-2,-3.4294805E-1,1.5317947E-1,1.01034865E-1,-8.950265E-2,-2.9451914E-2,-2.4942985E-1,-1.1411422E-1,1.2755501E-1,-3.0105215E-1,-4.531258E-2,-1.8591731E-3,2.0903252E-1,1.3740897E-1,-7.318606E-2,2.9851994E-1,-1.9107734E-1,1.8008074E-1,-1.284097E-1,-5.1984555E-1,6.756377E-2,-6.8266994E-1,-4.3937594E-1,1.398781E-1,-3.494818E-1],"categories":[],"categories_nodes":[],"categories_segments":[],"categories_sizes":[],"default_left":[0,0,0,0,0,0,0,0,0,0,0,0,0,0,0,0,0,0,0,0,0,0,0,0,0,0,0,0,0,0,0,0,0,0,0,0,0,0,0,0,0,0,0,0,0,0,0,0,0,0,0,0,0,0,0,0,0,0,0,0,0,0,0,0,0,0,0,0,0],"id":11,"left_children":[1,3,5,7,9,11,-1,13,15,17,19,-1,-1,21,23,25,27,29,31,33,35,37,39,41,43,45,47,49,51,53,55,57,59,61,63,65,67,-1,-1,-1,-1,-1,-1,-1,-1,-1,-1,-1,-1,-1,-1,-1,-1,-1,-1,-1,-1,-1,-1,-1,-1,-1,-1,-1,-1,-1,-1,-1,-1],"loss_changes":[1.1158977E3,9.10949E2,1.1605786E2,1.3816279E3,8.1764014E2,1.2974945E2,0E0,8.8599536E2,9.03011E2,8.1146716E2,1.2560413E3,0E0,0E0,5.126909E2,6.240088E2,6.1986926E2,7.271278E2,7.354356E2,7.903869E2,1.0963556E3,6.1976355E2,1.6314383E2,2.6480222E2,3.352517E2,4.203528E2,4.7743683E1,5.341203E2,6.3629016E2,7.017455E2,1.0850391E3,6.316688E2,6.563578E2,8.8995795E2,9.02124E2,4.4763385E2,3.8141357E1,6.2845526E2,0E0,0E0,0E0,0E0,0E0,0E0,0E0,0E0,0E0,0E0,0E0,0E0,0E0,0E0,0E0,0E0,0E0,0E0,0E0,0E0,0E0,0E0,0E0,0E0,0E0,0E0,0E0,0E0,0E0,0E0,0E0,0E0],"parents":[2147483647,0,0,1,1,2,2,3,3,4,4,5,5,7,7,8,8,9,9,10,10,13,13,14,14,15,15,16,16,17,17,18,18,19,19,20,20,21,21,22,22,23,23,24,24,25,25,26,26,27,27,28,28,29,29,30,30,31,31,32,32,33,33,34,34,35,35,36,36],"right_children":[2,4,6,8,10,12,-1,14,16,18,20,-1,-1,22,24,26,28,30,32,34,36,38,40,42,44,46,48,50,52,54,56,58,60,62,64,66,68,-1,-1,-1,-1,-1,-1,-1,-1,-1,-1,-1,-1,-1,-1,-1,-1,-1,-1,-1,-1,-1,-1,-1,-1,-1,-1,-1,-1,-1,-1,-1,-1],"split_conditions":[5.6E1,4.093E0,-2.05E-1,1.2244898E-1,2.590597E-1,-1.076792E0,-3.1192172E-1,-5.13E-1,-6.476191E-2,3.1333333E-1,6.6524374E-1,6.8988794E-1,-3.219242E-1,8.184343E-2,5.833333E-1,-5.135135E-2,3.3063078E-1,4.3E-1,5.3435113E-2,-1.727619E-1,-2.767895E-1,1.09760845E-2,4.7368422E-1,2.8071427E-1,6.846154E-2,4.60619E-1,7.801419E-2,-2.6923078E-1,4.4720262E-1,8.930575E2,7.334143E-1,7.5714284E-1,-1.1096221E0,3.3333334E-1,2.2E-1,6.5E-2,2.503E-1,2.6830775E-1,-7.6545966E-1,-1.6959634E-1,1.6572264E-1,-2.2055177E-1,-4.1511437E-1,6.641735E-1,-4.9332432E-2,-3.4294805E-1,1.5317947E-1,1.01034865E-1,-8.950265E-2,-2.9451914E-2,-2.4942985E-1,-1.1411422E-1,1.2755501E-1,-3.0105215E-1,-4.531258E-2,-1.8591731E-3,2.0903252E-1,1.3740897E-1,-7.318606E-2,2.9851994E-1,-1.9107734E-1,1.8008074E-1,-1.284097E-1,-5.1984555E-1,6.756377E-2,-6.8266994E-1,-4.3937594E-1,1.398781E-1,-3.494818E-1],"split_indices":[0,1,96,178,193,218,0,92,62,87,193,0,0,133,12,68,194,105,167,115,52,137,14,94,64,209,173,120,182,16,38,177,194,140,64,51,53,0,0,0,0,0,0,0,0,0,0,0,0,0,0,0,0,0,0,0,0,0,0,0,0,0,0,0,0,0,0,0,0],"split_type":[0,0,0,0,0,0,0,0,0,0,0,0,0,0,0,0,0,0,0,0,0,0,0,0,0,0,0,0,0,0,0,0,0,0,0,0,0,0,0,0,0,0,0,0,0,0,0,0,0,0,0,0,0,0,0,0,0,0,0,0,0,0,0,0,0,0,0,0,0],"sum_hessian":[7.9387984E4,7.819362E4,1.1943656E3,2.5757844E4,5.2435773E4,4.3758213E1,1.1506074E3,6.549144E3,1.92087E4,4.0803805E4,1.1631969E4,2.1631134E1,2.2127077E1,1.3927792E3,5.156365E3,1.0036314E4,9.172385E3,2.8869902E4,1.1933904E4,1.0225874E4,1.4060941E3,1.00929115E2,1.2918501E3,4.4225547E3,7.3381024E2,3.8177127E2,9.654544E3,4.8335913E3,4.338793E3,1.2740512E4,1.612939E4,9.776354E3,2.1575513E3,9.72456E3,5.0131473E2,4.0758054E2,9.985136E2,1.5826213E1,8.5102905E1,2.662354E2,1.0256146E3,3.3771238E3,1.0454312E3,8.2875435E1,6.509348E2,3.639805E2,1.7790773E1,8.071449E3,1.5830945E3,2.0692573E3,2.7643337E3,2.0407565E3,2.2980366E3,1.7263701E3,1.1014142E4,1.4730691E4,1.3986978E3,8.186275E3,1.5900781E3,4.1227115E2,1.74528E3,8.780312E3,9.442479E2,3.172221E2,1.8409262E2,7.511456E1,3.3246594E2,6.1731195E2,3.8120163E2],"tree_param":{"num_deleted":"0","num_feature":"276","num_nodes":"69","size_leaf_vector":"1"}},{"base_weights":[-1.7413707E-2,-3.7529993E-1,1.2694336E-2,1.337897E-1,-7.1589035E-1,1.06647626E-1,-1.00595556E-1,-2.338155E-1,7.549121E-1,-9.2923826E-1,-4.187199E-1,-7.609506E-2,2.1957114E-1,-1.8518321E-1,2.2874478E-1,-8.993902E-1,1.6662687E-1,8.9951473E-1,-1.076158E0,-1.0425639E0,2.7910745E-1,-9.0573347E-1,2.8973675E-1,2.8630254E-1,-1.9833173E-1,-1.1623659E0,2.3953901E-1,-2.7061743E-1,1.67455E-1,2.750805E-1,-1.8960189E0,1.4622965E-1,-1.3104447E0,-8.026075E-1,5.5788314E-1,-3.569986E-1,1.0039326E0,-1.4521334E0,3.0982918E-1,-1.076782E0,5.3970206E-1,-3.460558E-1,1.460196E0,-1.0630331E0,1.1961024E0,9.800383E-1,-9.5994407E-1,-6.932866E-1,4.370355E-1,-3.874504E-1,2.4771386E-1,-1.5895315E0,7.8612554E-1,8.2162017E-1,1.9460507E-1,-4.2335948E-1,2.311805E-2,-1.1327917E-1,7.638986E-1,-1.3212213E-1,4.1478625E-1,-2.46133E0,3.087721E-1,-3.798857E-1,3.4022775E-1,-4.1207346E-1,2.4713415E-1,-3.6896214E-1,3.3577704E-1,-4.358097E-1,2.4306801E-1,3.410054E-1,-8.0639265E-2,-5.819588E-1,-3.7039387E-1,-3.322099E-1,4.6629834E-1,-4.1795388E-1,5.4542553E-1,-3.3854812E-1,6.057984E-2,-4.4741753E-1,4.7235253E-1,4.8410612E-1,-1.3352028E-1,-3.7166297E-1,2.4762677E-1,-3.9716393E-1,2.4210972E-1,1.5237057E-1,-3.690646E-1,-1.4432347E-1,1.7062332E-1,-1.3137555E-1,1.4571247E-1,-3.8281617E-1,-7.216103E-1,-4.476667E-1,5.390921E-1,2.8844342E-1,-4.3086585E-1,6.840564E-2,-1.7960759E-1,-7.497252E-2,-2.276987E-1,-1.846815E-1,4.25375E-2,1.3928536E-1,-1.5679906E-1,2.9283798E-1,-2.302214E-1,-2.424612E-1,3.4460746E-2,1.3219705E-1,-6.554602E-1,-6.5194976E-1,-1.0078287E0],"categories":[],"categories_nodes":[],"categories_segments":[],"categories_sizes":[],"default_left":[0,0,0,0,0,0,0,0,0,0,0,0,0,0,0,0,0,0,0,0,0,0,0,0,0,0,0,0,0,0,0,0,0,0,0,0,0,0,0,0,0,0,0,0,0,0,0,0,0,0,0,0,0,0,0,0,0,0,0,0,0,0,0,0,0,0,0,0,0,0,0,0,0,0,0,0,0,0,0,0,0,0,0,0,0,0,0,0,0,0,0,0,0,0,0,0,0,0,0,0,0,0,0,0,0,0,0,0,0,0,0,0,0,0,0,0,0],"id":12,"left_children":[1,3,5,7,9,11,13,15,17,19,21,23,25,27,29,31,33,35,37,39,41,43,45,47,49,51,53,55,57,59,61,63,65,67,69,-1,71,73,-1,75,-1,-1,77,79,81,83,85,87,89,91,93,95,97,99,101,103,105,107,109,111,113,115,-1,-1,-1,-1,-1,-1,-1,-1,-1,-1,-1,-1,-1,-1,-1,-1,-1,-1,-1,-1,-1,-1,-1,-1,-1,-1,-1,-1,-1,-1,-1,-1,-1,-1,-1,-1,-1,-1,-1,-1,-1,-1,-1,-1,-1,-1,-1,-1,-1,-1,-1,-1,-1,-1,-1],"loss_changes":[8.306547E2,1.03733E3,7.568772E2,5.478712E2,2.2685999E2,8.0216907E2,8.9810516E2,4.0197504E2,2.3716867E2,2.8588635E2,5.1771063E2,6.577505E2,6.6325085E2,7.728066E2,6.491458E2,2.4367484E2,3.5773056E2,1.8170209E2,5.3631058E1,1.8735913E2,3.0560727E2,2.9519342E2,5.286455E2,5.533014E2,9.3667615E2,2.8622028E2,6.193074E2,9.2639343E2,8.3778625E2,3.668985E2,2.3525986E2,2.2575186E2,5.5935852E1,2.2420255E2,3.4201712E2,0E0,1.3352716E2,3.5679855E0,0E0,1.5340161E2,0E0,0E0,1.03521576E2,6.876074E1,6.577686E1,3.5700116E2,1.0967201E2,4.739437E2,3.841878E2,6.983406E2,5.3974524E2,6.88327E1,1.4600534E2,5.372484E2,5.829807E2,7.906343E2,5.3558777E2,8.0478284E2,5.211405E2,2.7528543E2,3.2388318E2,2.3298523E1,0E0,0E0,0E0,0E0,0E0,0E0,0E0,0E0,0E0,0E0,0E0,0E0,0E0,0E0,0E0,0E0,0E0,0E0,0E0,0E0,0E0,0E0,0E0,0E0,0E0,0E0,0E0,0E0,0E0,0E0,0E0,0E0,0E0,0E0,0E0,0E0,0E0,0E0,0E0,0E0,0E0,0E0,0E0,0E0,0E0,0E0,0E0,0E0,0E0,0E0,0E0,0E0,0E0,0E0,0E0],"parents":[2147483647,0,0,1,1,2,2,3,3,4,4,5,5,6,6,7,7,8,8,9,9,10,10,11,11,12,12,13,13,14,14,15,15,16,16,17,17,18,18,19,19,20,20,21,21,22,22,23,23,24,24,25,25,26,26,27,27,28,28,29,29,30,30,31,31,32,32,33,33,34,34,36,36,37,37,39,39,42,42,43,43,44,44,45,45,46,46,47,47,48,48,49,49,50,50,51,51,52,52,53,53,54,54,55,55,56,56,57,57,58,58,59,59,60,60,61,61],"right_children":[2,4,6,8,10,12,14,16,18,20,22,24,26,28,30,32,34,36,38,40,42,44,46,48,50,52,54,56,58,60,62,64,66,68,70,-1,72,74,-1,76,-1,-1,78,80,82,84,86,88,90,92,94,96,98,100,102,104,106,108,110,112,114,116,-1,-1,-1,-1,-1,-1,-1,-1,-1,-1,-1,-1,-1,-1,-1,-1,-1,-1,-1,-1,-1,-1,-1,-1,-1,-1,-1,-1,-1,-1,-1,-1,-1,-1,-1,-1,-1,-1,-1,-1,-1,-1,-1,-1,-1,-1,-1,-1,-1,-1,-1,-1,-1,-1,-1],"split_conditions":[1.9425203E-1,4.7058824E-2,5.625363E-2,3.952E-1,2.542393E-1,1.7631578E-1,-7.923077E-1,1.04444444E-1,5.497107E-2,4.6125E-1,1.2214286E-1,-3.37E-1,2.496923E-1,1.4644042E-1,3.335E4,7.5779594E-2,-3.481038E-1,-4.16E-1,6.666667E-1,3.110874E-1,1.56E-1,1.30625E-1,-7.6108105E-2,-8.7530196E-1,6.881633E-1,6.9053847E-1,6.11875E-2,3.3447638E-1,1.6E1,1.8545455E-1,1.0464162E0,4.1267604E-2,1.2712634E-1,7.609091E-1,1.9811112E0,-3.569986E-1,4.3833333E-1,-3.68575E-1,3.0982918E-1,5.3299433E-1,5.3970206E-1,-3.460558E-1,-2.873611E-1,3.6293668E-1,2.7586207E-1,8.4E-2,1.0769E0,7.424319E-1,1.204375E0,7.090205E-1,8.7691116E-4,1.1659712E-1,3.8461538E-4,7.2548664E-1,1.573077E-1,6.451613E-2,-9.2719175E-2,7.4761905E-2,-6.667568E-2,3.6693043E-1,2.3705786E-1,2.7333334E-1,3.087721E-1,-3.798857E-1,3.4022775E-1,-4.1207346E-1,2.4713415E-1,-3.6896214E-1,3.3577704E-1,-4.358097E-1,2.4306801E-1,3.410054E-1,-8.0639265E-2,-5.819588E-1,-3.7039387E-1,-3.322099E-1,4.6629834E-1,-4.1795388E-1,5.4542553E-1,-3.3854812E-1,6.057984E-2,-4.4741753E-1,4.7235253E-1,4.8410612E-1,-1.3352028E-1,-3.7166297E-1,2.4762677E-1,-3.9716393E-1,2.4210972E-1,1.5237057E-1,-3.690646E-1,-1.4432347E-1,1.7062332E-1,-1.3137555E-1,1.4571247E-1,-3.8281617E-1,-7.216103E-1,-4.476667E-1,5.390921E-1,2.8844342E-1,-4.3086585E-1,6.840564E-2,-1.7960759E-1,-7.497252E-2,-2.276987E-1,-1.846815E-1,4.25375E-2,1.3928536E-1,-1.5679906E-1,2.9283798E-1,-2.302214E-1,-2.424612E-1,3.4460746E-2,1.3219705E-1,-6.554602E-1,-6.5194976E-1,-1.0078287E0],"split_indices":[141,165,153,64,181,95,119,61,192,95,93,92,150,137,9,155,188,85,5,131,54,100,56,180,178,53,117,184,0,94,155,133,151,85,124,0,61,56,0,145,0,0,183,127,12,83,43,135,120,145,19,151,87,194,108,160,57,88,110,40,129,58,0,0,0,0,0,0,0,0,0,0,0,0,0,0,0,0,0,0,0,0,0,0,0,0,0,0,0,0,0,0,0,0,0,0,0,0,0,0,0,0,0,0,0,0,0,0,0,0,0,0,0,0,0,0,0],"split_type":[0,0,0,0,0,0,0,0,0,0,0,0,0,0,0,0,0,0,0,0,0,0,0,0,0,0,0,0,0,0,0,0,0,0,0,0,0,0,0,0,0,0,0,0,0,0,0,0,0,0,0,0,0,0,0,0,0,0,0,0,0,0,0,0,0,0,0,0,0,0,0,0,0,0,0,0,0,0,0,0,0,0,0,0,0,0,0,0,0,0,0,0,0,0,0,0,0,0,0,0,0,0,0,0,0,0,0,0,0,0,0,0,0,0,0,0,0],"sum_hessian":[7.7087664E4,5.981052E3,7.110662E4,2.397721E3,3.5833306E3,3.8870605E4,3.2236012E4,1.506649E3,8.9107196E2,2.0846025E3,1.498728E3,1.4845938E4,2.4024666E4,2.5648816E4,6.5871953E3,5.654948E2,9.411542E2,8.2632446E2,6.474747E1,1.9059854E3,1.786172E2,8.8800757E2,6.107205E2,3.7441716E3,1.1101767E4,3.413777E2,2.368329E4,2.0646895E4,5.001922E3,6.447463E3,1.3973239E2,1.5975705E2,4.057378E2,2.703592E2,6.70795E2,3.8833294E1,7.874912E2,5.5215218E1,9.532253E0,1.8839203E3,2.2065018E1,8.072429E1,9.789292E1,8.2663696E2,6.137059E1,3.9354758E2,2.1717294E2,4.988202E2,3.2453513E3,7.7963335E3,3.3054329E3,2.8014584E2,6.1231834E1,1.6959827E3,2.1987307E4,1.3583204E4,7.0636904E3,3.4016453E3,1.6002767E3,1.6469948E3,4.8004683E3,1.1723511E2,2.2497278E1,6.5631165E1,9.4125885E1,3.9442648E2,1.1311313E1,2.2148009E2,4.8879105E1,7.4271286E1,5.965237E2,7.1320703E2,7.428419E1,1.4585924E1,4.062929E1,1.8628456E3,2.1074724E1,1.0587579E1,8.730534E1,7.860668E2,4.057016E1,7.211592E0,5.4159E1,2.7232892E2,1.2121869E2,1.880928E2,2.9080135E1,3.5128894E2,1.4753127E2,3.1136992E3,1.316522E2,7.101475E3,6.9485876E2,8.515068E2,2.453926E3,2.0423462E2,7.5911224E1,1.8671648E1,4.256019E1,1.5975966E3,9.8386154E1,2.1099314E4,8.87992E2,8.956421E3,4.626783E3,1.1061268E3,5.9575635E3,1.410941E3,1.9907041E3,1.4058046E3,1.9447214E2,4.400866E2,1.2069082E3,4.7539893E3,4.647905E1,9.134567E1,2.5889439E1],"tree_param":{"num_deleted":"0","num_feature":"276","num_nodes":"117","size_leaf_vector":"1"}},{"base_weights":[-1.4717852E-2,-5.062358E-2,2.3470335E-1,-2.3050424E-1,1.5751423E-2,3.1666797E-1,-3.7424266E-1,-3.208176E-1,2.3243247E-1,6.622281E-2,-2.9419363E-1,-1.5100697E0,3.4931204E-1,1.4300948E0,-6.277438E-1,-6.184699E-1,-1.6937773E-1,-3.8522938E-1,5.384365E-1,-4.7117468E-2,2.7210167E-1,-7.5625867E-1,1.6152476E-1,-1.626578E0,2.8026864E-1,1.23328425E-1,6.286757E-1,1.5287038E0,-3.861114E-1,-9.4211864E-1,1.0599762E0,-6.990834E-1,3.8418266E-1,-3.444905E-1,1.8133274E-1,-8.7988526E-1,7.460857E-1,-6.011897E-1,6.8216324E-1,-1.4459276E-2,-8.842539E-1,3.5369E-1,-4.9731374E-1,-1.1613625E0,-3.716539E-1,-7.85499E-1,3.98952E-1,-2.0353627E0,-3.7145028E-1,-2.1800283E-1,4.4762892E-1,-3.8816565E-1,7.2246593E-1,3.5713264E-1,6.2304884E-1,1.2919794E0,-1.1412841E0,1.2506235E0,-1.5582148E0,9.966631E-2,-2.3378184E-1,3.026327E-1,-2.752876E-1,-1.2672505E-1,2.927249E-1,-7.00565E-1,8.4166914E-2,-3.6135712E-1,1.869094E-1,2.606042E-1,-8.7403905E-1,-2.9119658E-1,8.7351996E-1,3.9424005E-1,1.331567E-1,-2.3219898E-2,1.0787315E-1,4.029055E-1,-3.144439E-1,2.1588029E-1,6.9075055E-2,2.7073002E-1,-2.3966472E-1,3.975562E-2,-4.156025E-1,-2.2167628E-1,1.8747401E-1,5.444771E-1,-3.3445492E-1,-3.8095796E-1,1.6234633E-1,-5.2407074E-1,-7.5710046E-1,1.34016555E-2,-4.701745E-1,1.5708451E-1,-3.937183E-1,-3.007589E-1,1.990471E-1,-5.187617E-1,2.2815119E-1,4.231765E-1,-3.0807367E-1,-4.8008496E-1,-3.6378007E-2,3.9996216E-1,3.3513784E-1,-2.7435982E-1,-6.0685325E-1],"categories":[],"categories_nodes":[],"categories_segments":[],"categories_sizes":[],"default_left":[0,0,0,0,0,0,0,0,0,0,0,0,0,0,0,0,0,0,0,0,0,0,0,0,0,0,0,0,0,0,0,0,0,0,0,0,0,0,0,0,0,0,0,0,0,0,0,0,0,0,0,0,0,0,0,0,0,0,0,0,0,0,0,0,0,0,0,0,0,0,0,0,0,0,0,0,0,0,0,0,0,0,0,0,0,0,0,0,0,0,0,0,0,0,0,0,0,0,0,0,0,0,0,0,0,0,0,0,0],"id":13,"left_children":[1,3,5,7,9,11,13,15,17,19,21,23,25,27,29,31,33,35,37,39,41,43,45,47,-1,49,51,53,-1,55,57,59,61,63,65,67,69,71,73,75,77,79,81,83,85,87,89,91,-1,93,95,97,99,-1,-1,101,103,105,107,-1,-1,-1,-1,-1,-1,-1,-1,-1,-1,-1,-1,-1,-1,-1,-1,-1,-1,-1,-1,-1,-1,-1,-1,-1,-1,-1,-1,-1,-1,-1,-1,-1,-1,-1,-1,-1,-1,-1,-1,-1,-1,-1,-1,-1,-1,-1,-1,-1,-1],"loss_changes":[6.685579E2,7.791505E2,4.6900598E2,7.354746E2,7.4572437E2,4.9430255E2,5.1086734E2,6.6335144E2,5.4301544E2,9.5659406E2,1.4058113E3,4.2972656E1,5.1354785E2,3.8848755E1,5.2004944E2,4.014054E2,5.992522E2,5.334186E2,3.1503894E2,7.22842E2,9.138989E2,5.160443E2,7.5618915E2,1.959793E1,0E0,4.980908E2,3.472318E2,2.2240417E1,0E0,3.68649E2,7.8859116E1,3.8017432E2,3.0174738E2,6.6993713E2,8.121469E2,3.241601E2,1.3271187E2,2.8272723E2,2.5637854E2,5.9913257E2,3.6378644E2,5.9427014E2,5.8995435E2,4.6791016E2,6.2338196E2,5.7944354E2,6.386925E2,4.9328003E0,0E0,7.77133E2,3.0925858E2,1.9957819E2,3.1196118E2,0E0,0E0,2.015467E1,3.5477942E2,1.0015869E-1,1.4109764E0,0E0,0E0,0E0,0E0,0E0,0E0,0E0,0E0,0E0,0E0,0E0,0E0,0E0,0E0,0E0,0E0,0E0,0E0,0E0,0E0,0E0,0E0,0E0,0E0,0E0,0E0,0E0,0E0,0E0,0E0,0E0,0E0,0E0,0E0,0E0,0E0,0E0,0E0,0E0,0E0,0E0,0E0,0E0,0E0,0E0,0E0,0E0,0E0,0E0,0E0],"parents":[2147483647,0,0,1,1,2,2,3,3,4,4,5,5,6,6,7,7,8,8,9,9,10,10,11,11,12,12,13,13,14,14,15,15,16,16,17,17,18,18,19,19,20,20,21,21,22,22,23,23,25,25,26,26,27,27,29,29,30,30,31,31,32,32,33,33,34,34,35,35,36,36,37,37,38,38,39,39,40,40,41,41,42,42,43,43,44,44,45,45,46,46,47,47,49,49,50,50,51,51,52,52,55,55,56,56,57,57,58,58],"right_children":[2,4,6,8,10,12,14,16,18,20,22,24,26,28,30,32,34,36,38,40,42,44,46,48,-1,50,52,54,-1,56,58,60,62,64,66,68,70,72,74,76,78,80,82,84,86,88,90,92,-1,94,96,98,100,-1,-1,102,104,106,108,-1,-1,-1,-1,-1,-1,-1,-1,-1,-1,-1,-1,-1,-1,-1,-1,-1,-1,-1,-1,-1,-1,-1,-1,-1,-1,-1,-1,-1,-1,-1,-1,-1,-1,-1,-1,-1,-1,-1,-1,-1,-1,-1,-1,-1,-1,-1,-1,-1,-1],"split_conditions":[1.8156748E0,1.5E-1,2.0375E-1,8.3386665E1,8.428571E-1,-3.4501445E0,-1.933125E-1,9.52381E-2,7.8013E-1,1.5714286E-1,-2.3607903E-3,1.7571429E0,3.2380953E-2,-1.1037077E0,3.1E1,1.3636364E-1,4.5611754E-1,