{"learner":{"attributes":{"best_iteration":"290","best_score":"0.01356158758298358","scikit_learn":"{\"_estimator_type\": \"classifier\"}"},"feature_names":[],"feature_types":[],"gradient_booster":{"model":{"gbtree_model_param":{"num_parallel_tree":"1","num_trees":"341"},"iteration_indptr":[0,1,2,3,4,5,6,7,8,9,10,11,12,13,14,15,16,17,18,19,20,21,22,23,24,25,26,27,28,29,30,31,32,33,34,35,36,37,38,39,40,41,42,43,44,45,46,47,48,49,50,51,52,53,54,55,56,57,58,59,60,61,62,63,64,65,66,67,68,69,70,71,72,73,74,75,76,77,78,79,80,81,82,83,84,85,86,87,88,89,90,91,92,93,94,95,96,97,98,99,100,101,102,103,104,105,106,107,108,109,110,111,112,113,114,115,116,117,118,119,120,121,122,123,124,125,126,127,128,129,130,131,132,133,134,135,136,137,138,139,140,141,142,143,144,145,146,147,148,149,150,151,152,153,154,155,156,157,158,159,160,161,162,163,164,165,166,167,168,169,170,171,172,173,174,175,176,177,178,179,180,181,182,183,184,185,186,187,188,189,190,191,192,193,194,195,196,197,198,199,200,201,202,203,204,205,206,207,208,209,210,211,212,213,214,215,216,217,218,219,220,221,222,223,224,225,226,227,228,229,230,231,232,233,234,235,236,237,238,239,240,241,242,243,244,245,246,247,248,249,250,251,252,253,254,255,256,257,258,259,260,261,262,263,264,265,266,267,268,269,270,271,272,273,274,275,276,277,278,279,280,281,282,283,284,285,286,287,288,289,290,291,292,293,294,295,296,297,298,299,300,301,302,303,304,305,306,307,308,309,310,311,312,313,314,315,316,317,318,319,320,321,322,323,324,325,326,327,328,329,330,331,332,333,334,335,336,337,338,339,340,341],"tree_info":[0,0,0,0,0,0,0,0,0,0,0,0,0,0,0,0,0,0,0,0,0,0,0,0,0,0,0,0,0,0,0,0,0,0,0,0,0,0,0,0,0,0,0,0,0,0,0,0,0,0,0,0,0,0,0,0,0,0,0,0,0,0,0,0,0,0,0,0,0,0,0,0,0,0,0,0,0,0,0,0,0,0,0,0,0,0,0,0,0,0,0,0,0,0,0,0,0,0,0,0,0,0,0,0,0,0,0,0,0,0,0,0,0,0,0,0,0,0,0,0,0,0,0,0,0,0,0,0,0,0,0,0,0,0,0,0,0,0,0,0,0,0,0,0,0,0,0,0,0,0,0,0,0,0,0,0,0,0,0,0,0,0,0,0,0,0,0,0,0,0,0,0,0,0,0,0,0,0,0,0,0,0,0,0,0,0,0,0,0,0,0,0,0,0,0,0,0,0,0,0,0,0,0,0,0,0,0,0,0,0,0,0,0,0,0,0,0,0,0,0,0,0,0,0,0,0,0,0,0,0,0,0,0,0,0,0,0,0,0,0,0,0,0,0,0,0,0,0,0,0,0,0,0,0,0,0,0,0,0,0,0,0,0,0,0,0,0,0,0,0,0,0,0,0,0,0,0,0,0,0,0,0,0,0,0,0,0,0,0,0,0,0,0,0,0,0,0,0,0,0,0,0,0,0,0,0,0,0,0,0,0,0,0,0,0,0,0,0,0,0,0,0,0,0,0,0,0,0,0,0,0,0,0,0,0,0,0,0,0,0,0],"trees":[{"base_weights":[-1.3359098E-3,-1.454426E0,6.011971E-1,-1.5746934E0,-3.5028663E-1,2.2213385E-1,1.3310102E0,-1.6635492E0,-6.954256E-1,-7.801487E-1,1.8203756E0,1.0402678E0,-9.390573E-2,5.887161E-1,1.547214E0,-1.6770418E0,7.677064E-2,-1.6589193E0,-5.0311986E-2,-1.390688E0,9.343883E-1,2.12558E0,-5.214024E-1,-6.284588E-1,1.1493462E0,1.2286871E-1,-8.802886E-1,1.1775266E0,-5.140484E-1,-2.7939883E-1,1.6167254E0,-1.690621E0,-2.0799816E-1,1.7223368E0,-5.2816695E-1,8.55902E-2,-5.3282696E-1,3.6260054E-1,-5.317114E-1,-5.3295386E-1,-5.302725E-1,1.4350743E0,-5.287523E-1,-4.893053E-1,2.2115889E0,-5.320224E-1,2.6384145E-1,3.7598178E-1,1.4167894E0,-2.677986E-1,4.9604386E-1,6.749919E-1,-1.0962995E0,-5.314714E-1,1.3955442E0,9.4556165E-1,-1.1673772E0,-5.3156567E-1,6.1854285E-1,-1.3412592E0,1.6607797E0,-5.2310795E-1,-4.1392452E-1,-5.2914906E-1,3.9455518E-1,-4.9907994E-1,6.6847444E-1,6.4837575E-1,-5.197924E-1,2.4536707E-1,-3.949482E-1,-3.7465388E-1,6.455267E-1,4.9892837E-1,-5.207789E-1,-4.3539974E-1,6.74119E-1,4.1206217E-1,-5.304617E-1,1.867621E-1,-4.3946555E-1,4.4337872E-1,-9.124512E-2,-2.1652569E-1,4.5115862E-2,-3.118131E-2,3.0932367E-1,4.0228385E-1,-3.8006386E-1,-4.716092E-1,-2.1812123E-1,4.5754078E-1,-3.233825E-1,6.0681903E-1,-3.575151E-1,-4.7098997E-1,2.983642E-1,6.012708E-1,-1.18431516E-1,6.4837575E-1,-5.3140426E-1,5.1493037E-1,-6.463479E-2],"categories":[],"categories_nodes":[],"categories_segments":[],"categories_sizes":[],"default_left":[0,0,0,0,0,0,0,0,0,0,0,0,0,0,0,0,0,0,0,0,0,0,0,0,0,0,0,0,0,0,0,0,0,0,0,0,0,0,0,0,0,0,0,0,0,0,0,0,0,0,0,0,0,0,0,0,0,0,0,0,0,0,0,0,0,0,0,0,0,0,0,0,0,0,0,0,0,0,0,0,0,0,0,0,0,0,0,0,0,0,0,0,0,0,0,0,0,0,0,0,0,0,0],"id":0,"left_children":[1,3,5,7,9,11,13,15,17,19,21,23,25,27,29,31,33,35,37,39,41,43,-1,45,47,49,51,53,55,57,59,61,63,65,-1,67,-1,69,-1,-1,71,73,-1,-1,75,-1,77,79,81,83,85,87,89,-1,91,93,95,-1,97,99,101,-1,-1,-1,-1,-1,-1,-1,-1,-1,-1,-1,-1,-1,-1,-1,-1,-1,-1,-1,-1,-1,-1,-1,-1,-1,-1,-1,-1,-1,-1,-1,-1,-1,-1,-1,-1,-1,-1,-1,-1,-1,-1],"loss_changes":[1.0280114E5,4.569625E3,2.2961037E4,2.4235703E3,3.1569375E3,1.4124741E4,4.5525117E3,6.619844E2,1.771484E3,2.9569204E3,6.1112134E2,2.7714883E3,6.717624E3,4.157213E3,2.7902578E3,5.5758594E2,6.615368E2,2.3378711E2,1.215261E3,6.903789E2,1.00447614E3,1.701897E2,0E0,9.553028E2,2.9547812E3,4.503774E3,2.861599E3,2.6858691E3,2.126644E3,1.0817301E3,2.760504E3,4.5482812E2,6.120984E2,2.0138702E2,0E0,2.788426E2,0E0,1.0550125E3,0E0,0E0,1.247958E3,4.5579468E2,0E0,0E0,6.88103E1,0E0,1.1888289E3,1.6679753E3,1.1175059E3,2.8652852E3,5.072082E3,1.3454574E3,1.3122959E3,0E0,1.2475303E3,1.590366E3,1.3421008E3,0E0,7.0874536E2,4.7257288E2,2.17825E3,0E0,0E0,0E0,0E0,0E0,0E0,0E0,0E0,0E0,0E0,0E0,0E0,0E0,0E0,0E0,0E0,0E0,0E0,0E0,0E0,0E0,0E0,0E0,0E0,0E0,0E0,0E0,0E0,0E0,0E0,0E0,0E0,0E0,0E0,0E0,0E0,0E0,0E0,0E0,0E0,0E0,0E0],"parents":[2147483647,0,0,1,1,2,2,3,3,4,4,5,5,6,6,7,7,8,8,9,9,10,10,11,11,12,12,13,13,14,14,15,15,16,16,17,17,18,18,19,19,20,20,21,21,23,23,24,24,25,25,26,26,27,27,28,28,29,29,30,30,31,31,32,32,33,33,35,35,37,37,40,40,41,41,44,44,46,46,47,47,48,48,49,49,50,50,51,51,52,52,54,54,55,55,56,56,58,58,59,59,60,60],"right_children":[2,4,6,8,10,12,14,16,18,20,22,24,26,28,30,32,34,36,38,40,42,44,-1,46,48,50,52,54,56,58,60,62,64,66,-1,68,-1,70,-1,-1,72,74,-1,-1,76,-1,78,80,82,84,86,88,90,-1,92,94,96,-1,98,100,102,-1,-1,-1,-1,-1,-1,-1,-1,-1,-1,-1,-1,-1,-1,-1,-1,-1,-1,-1,-1,-1,-1,-1,-1,-1,-1,-1,-1,-1,-1,-1,-1,-1,-1,-1,-1,-1,-1,-1,-1,-1,-1],"split_conditions":[8.6678524E-4,1.5123485E0,8.552782E-1,7.203625E-4,3.9E-1,-4.36E-1,1.47176E3,2.857143E-1,8.6863406E-2,1.08E2,9.384616E-2,3.996E0,-1.9757143E-1,1.0526316E-1,2.857143E-1,8.4283334E-1,3.718629E-2,-1.0536083E0,3.0612245E-2,1.5384616E-1,2.4722221E-1,7.1383184E-1,-5.214024E-1,2.1428572E-1,5.2310413E-1,2.1E1,2.4370658E0,-5.00635E-1,1.6320427E-1,8.421053E-2,1.041748E1,4.1882354E-1,1.6E-1,8.13249E-1,-5.2816695E-1,7.1647055E-2,-5.3282696E-1,6.4E-1,-5.317114E-1,-5.3295386E-1,5.2222222E-2,1.3333334E-1,-5.287523E-1,-4.893053E-1,6.2282896E-1,-5.320224E-1,5.8E-1,1.1083333E0,3.632172E-1,5.38E-1,2.3236048E-1,2.9135626E-3,5.2932683E-2,-5.314714E-1,3.547826E-1,-1.3432857E0,2.1566115E-1,-5.3156567E-1,1.2166667E-1,1.7233334E0,5.3435113E-2,-5.2310795E-1,-4.1392452E-1,-5.2914906E-1,3.9455518E-1,-4.9907994E-1,6.6847444E-1,6.4837575E-1,-5.197924E-1,2.4536707E-1,-3.949482E-1,-3.7465388E-1,6.455267E-1,4.9892837E-1,-5.207789E-1,-4.3539974E-1,6.74119E-1,4.1206217E-1,-5.304617E-1,1.867621E-1,-4.3946555E-1,4.4337872E-1,-9.124512E-2,-2.1652569E-1,4.5115862E-2,-3.118131E-2,3.0932367E-1,4.0228385E-1,-3.8006386E-1,-4.716092E-1,-2.1812123E-1,4.5754078E-1,-3.233825E-1,6.0681903E-1,-3.575151E-1,-4.7098997E-1,2.983642E-1,6.012708E-1,-1.18431516E-1,6.4837575E-1,-5.3140426E-1,5.1493037E-1,-6.463479E-2],"split_indices":[19,139,155,19,94,62,4,161,185,25,92,1,115,13,14,84,137,190,166,160,41,40,0,177,152,0,8,38,125,161,2,86,171,139,0,117,0,176,0,0,101,173,0,0,128,0,177,47,189,72,145,19,137,0,101,42,151,0,122,124,166,0,0,0,0,0,0,0,0,0,0,0,0,0,0,0,0,0,0,0,0,0,0,0,0,0,0,0,0,0,0,0,0,0,0,0,0,0,0,0,0,0,0],"split_type":[0,0,0,0,0,0,0,0,0,0,0,0,0,0,0,0,0,0,0,0,0,0,0,0,0,0,0,0,0,0,0,0,0,0,0,0,0,0,0,0,0,0,0,0,0,0,0,0,0,0,0,0,0,0,0,0,0,0,0,0,0,0,0,0,0,0,0,0,0,0,0,0,0,0,0,0,0,0,0,0,0,0,0,0,0,0,0,0,0,0,0,0,0,0,0,0,0,0,0,0,0,0,0],"sum_hessian":[1.1741324E5,3.4415113E4,8.299813E4,3.1034305E4,3.3808103E3,5.4626535E4,2.8371596E4,2.8185123E4,2.8491816E3,2.822503E3,5.583072E2,1.5221146E4,3.9405387E4,6.400486E3,2.197111E4,2.7968324E4,2.1679955E2,1.1420016E3,1.70718E3,2.0814841E3,7.410188E2,5.145745E2,4.373267E1,9.336114E2,1.4287535E4,3.0890854E4,8.514535E3,4.172534E3,2.227952E3,8.0534357E2,2.1165766E4,2.7712014E4,2.5631058E2,1.14401054E2,1.0239849E2,7.1892265E1,1.0701094E3,1.377641E3,3.2953903E2,1.4363405E3,6.451438E2,6.253827E2,1.1563612E2,1.1115629E1,5.034589E2,4.084824E2,5.2512897E2,3.671905E3,1.061563E4,1.509186E4,1.5798992E4,1.0380979E3,7.476437E3,2.8673807E2,3.885796E3,6.88753E2,1.539199E3,3.0215408E2,5.0318948E2,3.1017084E2,2.0855596E4,2.3666992E4,4.0450212E3,1.2671818E2,1.2959242E2,1.4573825E1,9.982723E1,3.3481586E1,3.8410675E1,1.0841772E3,2.934638E2,5.0924133E2,1.3590247E2,5.8387317E2,4.1509544E1,4.446252E0,4.9901263E2,3.3985727E2,1.8527168E2,3.2387776E3,4.3312744E2,1.0251565E4,3.6406467E2,7.236102E3,7.8557583E3,7.4478604E3,8.351132E3,7.7323175E2,2.6486615E2,3.265614E3,4.2108228E3,3.6927097E3,1.930862E2,4.5798593E2,2.3076703E2,1.2977992E3,2.4139983E2,2.1212866E2,2.9106082E2,3.3481586E1,2.7668924E2,2.0254857E4,6.007376E2],"tree_param":{"num_deleted":"0","num_feature":"276","num_nodes":"103","size_leaf_vector":"1"}},{"base_weights":[-1.2135775E-2,-1.1693554E0,4.2061472E-1,-1.2893952E0,-3.9071575E-1,2.2247091E-1,1.1752894E0,-1.3558047E0,-6.176531E-1,-6.60923E-1,1.1110424E0,3.2683486E-1,-7.769253E-1,1.2028056E0,-2.001173E0,-1.4229192E0,-1.0408324E0,3.3349085E-1,-1.1682551E0,-1.0232872E0,5.848474E-1,1.44559E0,-1.7165929E0,-6.356479E-1,4.0701857E-1,-1.3206427E0,-8.251875E-2,6.935005E-1,1.3529528E0,-4.4909254E-1,-6.5363383E-1,-1.4354781E0,-4.129691E-1,-5.3704214E-1,-1.3334054E0,1.0713838E0,-4.4184178E-1,-1.5439662E0,-4.68064E-1,2.082551E0,-1.111732E0,-1.5418198E0,1.0883423E0,-4.465458E-1,1.5888292E0,-5.795895E-1,-4.2517897E-1,-1.6840594E0,-2.4547991E-1,4.522171E-1,-1.1991875E0,-1.4873155E0,-1.3133265E-2,-1.2270522E0,6.0771435E-1,9.9557716E-1,-1.0586125E0,-2.2136059E0,1.3734202E0,-4.3215275E-1,1.9956692E-1,-4.4905987E-1,6.7410046E-1,2.8833926E-1,-2.8475118E-1,1.5988643E-1,-4.289983E-1,-5.107398E-1,4.2401552E-1,-4.5200878E-1,-5.554078E-1,1.06322266E-1,-4.756033E-1,-4.2828122E-1,8.574373E-1,-3.5571572E-1,4.5615807E-1,-4.394992E-1,-5.4448986E-1,4.6020064E-1,-2.500643E-1,-4.214071E-1,4.953649E-1,-4.8415706E-1,-5.386107E-1,2.0753463E-1,-2.1380913E-1,8.42167E-2,2.495055E-1,1.9217879E-1,-4.5514104E-1,-4.7956777E-1,1.3326643E-1,-5.8609223E-1,2.8787738E-1,-4.6637467E-1,1.2704752E-1,3.840876E-1,-1.922124E-1,3.330007E-1,-4.7665575E-1,4.4049677E-1,-4.9244937E-1,-3.6390397E-1,-6.8021053E-1,4.163311E-1,-5.590476E-1],"categories":[],"categories_nodes":[],"categories_segments":[],"categories_sizes":[],"default_left":[0,0,0,0,0,0,0,0,0,0,0,0,0,0,0,0,0,0,0,0,0,0,0,0,0,0,0,0,0,0,0,0,0,0,0,0,0,0,0,0,0,0,0,0,0,0,0,0,0,0,0,0,0,0,0,0,0,0,0,0,0,0,0,0,0,0,0,0,0,0,0,0,0,0,0,0,0,0,0,0,0,0,0,0,0,0,0,0,0,0,0,0,0,0,0,0,0,0,0,0,0,0,0,0,0,0,0],"id":1,"left_children":[1,3,5,7,9,11,13,15,17,19,21,23,25,27,29,31,33,35,37,39,41,43,45,47,49,51,53,55,57,-1,-1,59,61,63,65,67,-1,69,71,73,75,77,79,-1,81,-1,-1,83,85,87,89,91,93,95,97,99,101,103,105,-1,-1,-1,-1,-1,-1,-1,-1,-1,-1,-1,-1,-1,-1,-1,-1,-1,-1,-1,-1,-1,-1,-1,-1,-1,-1,-1,-1,-1,-1,-1,-1,-1,-1,-1,-1,-1,-1,-1,-1,-1,-1,-1,-1,-1,-1,-1,-1],"loss_changes":[5.6443812E4,2.8668047E3,1.2266511E4,1.1848438E3,1.6640757E3,6.7772314E3,1.4934434E3,5.098086E2,1.2536411E3,1.569121E3,5.941337E2,4.540669E3,2.3195894E3,1.2924219E3,9.8914795E0,2.5226953E2,6.260376E2,1.1720549E3,3.98062E2,7.4180664E2,8.4070874E2,2.3764026E2,1.5571289E0,1.8504637E3,3.943245E3,7.509043E2,2.133052E3,2.0402953E3,9.564863E2,0E0,0E0,2.0905469E2,7.13367E2,9.665083E2,4.8556445E2,5.944225E2,0E0,8.5078125E0,4.8832355E2,2.079502E2,5.116963E2,4.973755E-1,5.444461E2,0E0,1.02092285E2,0E0,0E0,6.690918E0,1.4450215E3,3.4373086E3,8.706199E2,6.5739355E2,7.391474E2,5.4976904E2,1.4151458E3,9.737617E2,8.3765656E2,1.2793274E0,6.058418E2,0E0,0E0,0E0,0E0,0E0,0E0,0E0,0E0,0E0,0E0,0E0,0E0,0E0,0E0,0E0,0E0,0E0,0E0,0E0,0E0,0E0,0E0,0E0,0E0,0E0,0E0,0E0,0E0,0E0,0E0,0E0,0E0,0E0,0E0,0E0,0E0,0E0,0E0,0E0,0E0,0E0,0E0,0E0,0E0,0E0,0E0,0E0,0E0],"parents":[2147483647,0,0,1,1,2,2,3,3,4,4,5,5,6,6,7,7,8,8,9,9,10,10,11,11,12,12,13,13,14,14,15,15,16,16,17,17,18,18,19,19,20,20,21,21,22,22,23,23,24,24,25,25,26,26,27,27,28,28,31,31,32,32,33,33,34,34,35,35,37,37,38,38,39,39,40,40,41,41,42,42,44,44,47,47,48,48,49,49,50,50,51,51,52,52,53,53,54,54,55,55,56,56,57,57,58,58],"right_children":[2,4,6,8,10,12,14,16,18,20,22,24,26,28,30,32,34,36,38,40,42,44,46,48,50,52,54,56,58,-1,-1,60,62,64,66,68,-1,70,72,74,76,78,80,-1,82,-1,-1,84,86,88,90,92,94,96,98,100,102,104,106,-1,-1,-1,-1,-1,-1,-1,-1,-1,-1,-1,-1,-1,-1,-1,-1,-1,-1,-1,-1,-1,-1,-1,-1,-1,-1,-1,-1,-1,-1,-1,-1,-1,-1,-1,-1,-1,-1,-1,-1,-1,-1,-1,-1,-1,-1,-1,-1],"split_conditions":[8.6678524E-4,4.2048493E-1,1.0718246E0,7.203625E-4,3.9E-1,3.508772E-2,8E-2,9.2564106E-2,8.888889E-2,1.5384616E-1,7.414049E-1,-1.30175E0,-2.861542E-3,1.47176E3,1.041748E1,5.226316E-1,6.666667E-2,6.4E-1,1.0714286E-1,9.22894E-3,1.42103E-1,4.832653E-1,7.3864445E-2,2.8E1,7.5E-2,1.4383818E0,4.26875E-1,2.5825517E0,-1.4558333E0,-4.4909254E-1,-6.5363383E-1,2.857143E-1,7.4146444E-1,4.453846E0,-7.857783E-1,1.4285715E-1,-4.4184178E-1,9.3384616E-2,3.888889E-1,8.7609327E-1,5.418116E1,1.08E2,4.451803E-2,-4.465458E-1,8.6064076E-1,-5.795895E-1,-4.2517897E-1,1.5E-2,1.21951215E-2,2.4242425E-1,-1.7114285E0,1.06E0,1.1E-1,7.1428575E-2,6.888476E-2,1.2416667E-1,5.9274864E-1,2.8E-1,3.5018063E-1,-4.3215275E-1,1.9956692E-1,-4.4905987E-1,6.7410046E-1,2.8833926E-1,-2.8475118E-1,1.5988643E-1,-4.289983E-1,-5.107398E-1,4.2401552E-1,-4.5200878E-1,-5.554078E-1,1.06322266E-1,-4.756033E-1,-4.2828122E-1,8.574373E-1,-3.5571572E-1,4.5615807E-1,-4.394992E-1,-5.4448986E-1,4.6020064E-1,-2.500643E-1,-4.214071E-1,4.953649E-1,-4.8415706E-1,-5.386107E-1,2.0753463E-1,-2.1380913E-1,8.42167E-2,2.495055E-1,1.9217879E-1,-4.5514104E-1,-4.7956777E-1,1.3326643E-1,-5.8609223E-1,2.8787738E-1,-4.6637467E-1,1.2704752E-1,3.840876E-1,-1.922124E-1,3.330007E-1,-4.7665575E-1,4.4049677E-1,-4.9244937E-1,-3.6390397E-1,-6.8021053E-1,4.163311E-1,-5.590476E-1],"split_indices":[19,135,155,19,94,159,159,101,17,132,195,81,198,4,2,74,97,176,165,153,193,178,137,27,166,139,74,8,154,0,0,161,155,3,187,177,0,77,20,179,15,25,41,0,155,0,0,113,164,170,177,86,71,169,260,75,143,14,125,0,0,0,0,0,0,0,0,0,0,0,0,0,0,0,0,0,0,0,0,0,0,0,0,0,0,0,0,0,0,0,0,0,0,0,0,0,0,0,0,0,0,0,0,0,0,0,0],"split_type":[0,0,0,0,0,0,0,0,0,0,0,0,0,0,0,0,0,0,0,0,0,0,0,0,0,0,0,0,0,0,0,0,0,0,0,0,0,0,0,0,0,0,0,0,0,0,0,0,0,0,0,0,0,0,0,0,0,0,0,0,0,0,0,0,0,0,0,0,0,0,0,0,0,0,0,0,0,0,0,0,0,0,0,0,0,0,0,0,0,0,0,0,0,0,0,0,0,0,0,0,0,0,0,0,0,0,0],"sum_hessian":[1.12708164E5,3.067591E4,8.203226E4,2.6577848E4,4.0980615E3,6.4974227E4,1.705803E4,2.4185785E4,2.3920637E3,3.4736218E3,6.244394E2,5.883132E4,6.142906E3,1.6912148E4,1.4588115E2,1.9934594E4,4.251191E3,8.7717377E2,1.5148899E3,2.6910422E3,7.825798E2,5.58813E2,6.5626396E1,4.523746E3,5.4307574E4,3.4447666E3,2.6981394E3,3.8519153E3,1.3060233E4,4.045732E1,1.0542382E2,1.9689332E4,2.45261E2,1.5628711E3,2.6883196E3,6.2305536E2,2.5411841E2,9.8509753E2,5.2979236E2,7.388659E1,2.6171555E3,1.4941536E2,6.331644E2,2.5573801E1,5.332392E2,3.499366E1,3.0632736E1,1.2260198E3,3.297726E3,5.282189E4,1.4856859E3,3.0551748E3,3.8959167E2,1.0147384E3,1.6834009E3,3.2858445E3,5.660709E2,7.390968E1,1.2986323E4,1.9642605E4,4.6728302E1,1.745655E2,7.06955E1,3.3688638E2,1.2259846E3,1.320592E2,2.5562605E3,6.795102E1,5.551044E2,8.838371E2,1.0126044E2,3.0554907E2,2.2424326E2,1.3218857E1,6.0667732E1,2.5461387E3,7.1016815E1,1.215834E2,2.7831963E1,5.141435E2,1.1902093E2,1.0446966E1,5.2279224E2,7.61342E2,4.6467776E2,1.0968691E3,2.200857E3,3.6381543E4,1.6440348E4,2.1877126E2,1.2669147E3,2.8889624E3,1.6621242E2,1.2974747E2,2.598442E2,8.4676636E2,1.6797206E2,1.0939945E3,5.894064E2,3.1470786E3,1.3876581E2,1.0581608E2,4.6025482E2,4.970191E0,6.89395E1,1.2929575E4,5.67486E1],"tree_param":{"num_deleted":"0","num_feature":"276","num_nodes":"107","size_leaf_vector":"1"}},{"base_weights":[-1.792421E-2,-1.0073097E0,3.0413488E-1,-1.1387173E0,-4.0873984E-1,-9.051246E-4,6.381484E-1,-1.25566E0,-7.4783105E-1,-7.3711777E-1,4.7996032E-1,6.5519214E-1,-2.392478E-1,6.3181296E-2,7.70409E-1,-1.26996E0,5.7496625E-1,-4.936108E-1,-1.265065E0,-9.894055E-1,1.0038585E-1,-1.0728539E0,9.0925664E-1,7.731199E-1,-4.0823823E-1,-1.5932876E-1,-1.4224976E0,5.675952E-1,-4.482556E-1,-1.3677711E0,8.086298E-1,-1.276355E0,9.5002073E-1,2.4106083E0,-3.96336E-1,1.1494612E0,-6.3815284E-1,-4.0231404E-1,1.8816671E0,3.222928E0,-1.0371436E0,-9.892245E-1,8.2334465E-1,3.8958842E-1,-4.0432507E-1,-4.165785E-1,1.1119485E0,-2.0799816E-1,9.193553E-1,8.816315E-1,-1.3839308E0,-3.2195726E-1,4.3388882E-1,-1.4771893E0,1.4181905E0,8.307431E-1,-9.8801774E-1,-1.3920501E0,4.2105E-2,-1.9274993E0,1.1072305E0,8.542373E-1,-5.9687096E-1,-3.8685748E-1,-8.679449E-2,5.312005E-1,-4.1141644E-1,4.231026E-1,1.1530837E0,5.023437E-1,-4.030619E-1,-2.691335E-1,8.34744E-2,-3.6203885E-1,7.152332E-1,-2.8730288E-1,1.0909805E0,-3.4047735E-1,2.5677422E-1,-4.082259E-1,5.674665E-1,4.5362404E-1,-2.4006489E-1,-2.52051E-1,4.118218E-1,2.0089033E-1,-4.5447963E-1,2.8704426E-1,-4.806208E-1,-6.9722676E-1,3.480266E-1,1.7290538E-2,-6.6372335E-1,-1.9595109E-1,1.0258304E-2,-1.4274551E-1,2.6333532E-1,-5.017821E-1,-4.2233604E-1,5.1442224E-1,-4.339955E-1,3.452968E-1,-9.773064E-4,4.5254079E-1,-4.3683282E-1,1.2663151E-1,-4.8156583E-1,-2.3684323E-1,2.1339034E-1,-4.999275E-1,-6.228212E-1,-6.371376E-1,4.326186E-1,2.8056368E-1,1.55224195E-2,-3.7454206E-1,1.8066218E-1],"categories":[],"categories_nodes":[],"categories_segments":[],"categories_sizes":[],"default_left":[0,0,0,0,0,0,0,0,0,0,0,0,0,0,0,0,0,0,0,0,0,0,0,0,0,0,0,0,0,0,0,0,0,0,0,0,0,0,0,0,0,0,0,0,0,0,0,0,0,0,0,0,0,0,0,0,0,0,0,0,0,0,0,0,0,0,0,0,0,0,0,0,0,0,0,0,0,0,0,0,0,0,0,0,0,0,0,0,0,0,0,0,0,0,0,0,0,0,0,0,0,0,0,0,0,0,0,0,0,0,0,0,0,0,0,0,0],"id":2,"left_children":[1,3,5,7,9,11,13,15,17,19,21,23,25,27,29,31,33,35,37,39,41,43,45,47,49,51,53,55,57,59,61,63,65,67,-1,69,71,-1,73,75,77,79,81,-1,-1,-1,83,85,87,89,91,93,95,97,99,101,103,105,107,109,111,113,115,-1,-1,-1,-1,-1,-1,-1,-1,-1,-1,-1,-1,-1,-1,-1,-1,-1,-1,-1,-1,-1,-1,-1,-1,-1,-1,-1,-1,-1,-1,-1,-1,-1,-1,-1,-1,-1,-1,-1,-1,-1,-1,-1,-1,-1,-1,-1,-1,-1,-1,-1,-1,-1,-1],"loss_changes":[3.3576668E4,2.0349707E3,8.0997812E3,9.6899023E2,1.3602561E3,6.497857E3,2.8856113E3,4.2824023E2,6.421946E2,7.191312E2,8.395078E2,1.3889116E3,2.8821045E3,1.831256E3,2.5222559E3,2.3126562E2,4.4614798E2,7.795524E2,3.8754785E2,5.292539E2,6.221172E2,1.7965674E2,4.607754E2,1.430293E3,1.3930979E3,2.754748E3,3.0168115E2,1.4637617E3,1.6313391E3,7.5317896E2,1.9433457E3,2.0967383E2,9.21929E1,8.777664E1,0E0,3.4977545E2,7.1569653E2,0E0,6.24393E1,5.4587585E1,4.7979346E2,3.397574E2,5.319916E2,0E0,0E0,0E0,4.6271045E2,1.4849863E3,8.2087256E2,4.2841202E2,7.526111E2,2.6435474E3,2.4814077E3,2.3310547E1,3.385914E1,8.1654663E2,6.069707E2,4.6676172E2,1.2919512E3,1.3704712E1,1.11927155E2,1.9076055E3,7.454902E2,0E0,0E0,0E0,0E0,0E0,0E0,0E0,0E0,0E0,0E0,0E0,0E0,0E0,0E0,0E0,0E0,0E0,0E0,0E0,0E0,0E0,0E0,0E0,0E0,0E0,0E0,0E0,0E0,0E0,0E0,0E0,0E0,0E0,0E0,0E0,0E0,0E0,0E0,0E0,0E0,0E0,0E0,0E0,0E0,0E0,0E0,0E0,0E0,0E0,0E0,0E0,0E0,0E0,0E0],"parents":[2147483647,0,0,1,1,2,2,3,3,4,4,5,5,6,6,7,7,8,8,9,9,10,10,11,11,12,12,13,13,14,14,15,15,16,16,17,17,18,18,19,19,20,20,21,21,22,22,23,23,24,24,25,25,26,26,27,27,28,28,29,29,30,30,31,31,32,32,33,33,35,35,36,36,38,38,39,39,40,40,41,41,42,42,46,46,47,47,48,48,49,49,50,50,51,51,52,52,53,53,54,54,55,55,56,56,57,57,58,58,59,59,60,60,61,61,62,62],"right_children":[2,4,6,8,10,12,14,16,18,20,22,24,26,28,30,32,34,36,38,40,42,44,46,48,50,52,54,56,58,60,62,64,66,68,-1,70,72,-1,74,76,78,80,82,-1,-1,-1,84,86,88,90,92,94,96,98,100,102,104,106,108,110,112,114,116,-1,-1,-1,-1,-1,-1,-1,-1,-1,-1,-1,-1,-1,-1,-1,-1,-1,-1,-1,-1,-1,-1,-1,-1,-1,-1,-1,-1,-1,-1,-1,-1,-1,-1,-1,-1,-1,-1,-1,-1,-1,-1,-1,-1,-1,-1,-1,-1,-1,-1,-1,-1,-1,-1],"split_conditions":[8.6678524E-4,3.710367E-1,6.632544E-1,9.3888886E-2,3.7545455E-1,-4.988E-1,1.44366E3,-1.10869564E-1,6.333333E-2,3.0608696E-1,1.49977E3,7.157143E-1,5.48331E3,-1.7857143E-1,7.6923077E-4,1.3571429E-1,-1.0432645E0,-5.984307E-1,4.9658668E-1,-2.0815384E-1,7.853061E-1,-1.13484E0,5.742857E-1,1.15172416E-1,-7.56875E-1,1.01E2,9.508333E-1,8.5510206E-1,9.481628E-1,1.3231754E0,6.9633335E-1,1.3985714E-1,3.969443E-2,5.1280457E-1,-3.96336E-1,4.5918368E-2,-1.904762E-2,-4.0231404E-1,2.8E1,1.3995138E-1,1.3571429E-1,5.94937E0,3.9885843E-1,3.8958842E-1,-4.0432507E-1,-4.165785E-1,-3.1E0,-8.350222E-1,4.195804E-2,2.1632653E-1,9.230769E-3,5.168E-1,5.935294E-2,-1.9757143E-1,8.1176E1,2.5604558E-1,-3.813263E-1,9.487558E-2,7.3037034E-1,1.3326809E-3,1.95E2,3.9215688E-2,4.2E1,-3.8685748E-1,-8.679449E-2,5.312005E-1,-4.1141644E-1,4.231026E-1,1.1530837E0,5.023437E-1,-4.030619E-1,-2.691335E-1,8.34744E-2,-3.6203885E-1,7.152332E-1,-2.8730288E-1,1.0909805E0,-3.4047735E-1,2.5677422E-1,-4.082259E-1,5.674665E-1,4.5362404E-1,-2.4006489E-1,-2.52051E-1,4.118218E-1,2.0089033E-1,-4.5447963E-1,2.8704426E-1,-4.806208E-1,-6.9722676E-1,3.480266E-1,1.7290538E-2,-6.6372335E-1,-1.9595109E-1,1.0258304E-2,-1.4274551E-1,2.6333532E-1,-5.017821E-1,-4.2233604E-1,5.1442224E-1,-4.339955E-1,3.452968E-1,-9.773064E-4,4.5254079E-1,-4.3683282E-1,1.2663151E-1,-4.8156583E-1,-2.3684323E-1,2.1339034E-1,-4.999275E-1,-6.228212E-1,-6.371376E-1,4.326186E-1,2.8056368E-1,1.55224195E-2,-3.7454206E-1,1.8066218E-1],"split_indices":[19,135,155,101,74,62,4,104,140,94,4,177,4,140,118,17,194,199,127,110,178,44,177,64,92,21,58,178,141,155,47,77,153,188,0,172,140,0,0,137,17,45,185,0,0,0,3,44,159,178,67,72,108,115,3,125,188,133,86,19,6,175,27,0,0,0,0,0,0,0,0,0,0,0,0,0,0,0,0,0,0,0,0,0,0,0,0,0,0,0,0,0,0,0,0,0,0,0,0,0,0,0,0,0,0,0,0,0,0,0,0,0,0,0,0,0,0],"split_type":[0,0,0,0,0,0,0,0,0,0,0,0,0,0,0,0,0,0,0,0,0,0,0,0,0,0,0,0,0,0,0,0,0,0,0,0,0,0,0,0,0,0,0,0,0,0,0,0,0,0,0,0,0,0,0,0,0,0,0,0,0,0,0,0,0,0,0,0,0,0,0,0,0,0,0,0,0,0,0,0,0,0,0,0,0,0,0,0,0,0,0,0,0,0,0,0,0,0,0,0,0,0,0,0,0,0,0,0,0,0,0,0,0,0,0,0,0],"sum_hessian":[1.0537277E5,2.5876484E4,7.949629E4,2.1217564E4,4.6589194E3,4.1550777E4,3.794551E4,1.6329884E4,4.8876807E3,3.4020283E3,1.2568914E3,1.1071629E4,3.047915E4,7.096569E3,3.0848943E4,1.6203615E4,1.26268715E2,3.2783347E3,1.6093462E3,2.6143162E3,7.877121E2,2.7189972E2,9.8499164E2,9.966661E3,1.1049672E3,2.8551838E4,1.9273131E3,3.57276E3,3.5238088E3,5.411421E2,3.03078E4,1.6157496E4,4.6119083E1,6.401909E1,6.2249626E1,2.6451587E2,3.0138188E3,1.571963E3,3.738317E1,2.855055E1,2.5857656E3,3.1403885E2,4.7367325E2,2.785713E1,2.4404259E2,7.93683E1,9.0562335E2,1.2927769E3,8.673885E3,4.7590936E2,6.290578E2,2.2408959E4,6.142879E3,1.8913785E3,3.593461E1,3.056233E3,5.165272E2,1.2042179E3,2.3195908E3,4.415138E2,9.962832E1,2.9355625E4,9.521767E2,1.5944445E4,2.1305092E2,3.42489E1,1.1870179E1,3.8870716E1,2.5148375E1,2.1877162E2,4.5744267E1,2.3498215E3,6.639974E2,5.0345435E0,3.234863E1,2.4523141E0,2.6098236E1,2.4591458E3,1.26619995E2,2.7863187E2,3.5406963E1,3.326342E2,1.4103905E2,1.06465675E2,7.9915765E2,7.737055E2,5.190713E2,8.547521E3,1.2636335E2,3.744778E1,4.3846158E2,2.2992169E2,3.9913614E2,1.1610562E4,1.0798396E4,2.0144498E3,4.128429E3,4.8962766E2,1.4017509E3,3.292761E1,3.0070016E0,2.2080054E3,8.482273E2,8.120603E1,4.353212E2,1.265181E2,1.0776998E3,1.0342239E3,1.2853671E3,1.6455988E2,2.7695392E2,8.853343E0,9.077497E1,2.6664871E4,2.6907542E3,6.1689996E2,3.352767E2],"tree_param":{"num_deleted":"0","num_feature":"276","num_nodes":"117","size_leaf_vector":"1"}},{"base_weights":[-2.0695847E-2,-9.6387887E-1,2.08433E-1,-1.063174E0,-1.3773835E-1,8.509079E-2,7.54761E-1,-1.1409197E0,-7.4449146E-1,-6.519388E-1,6.196493E-1,1.2752627E-1,-1.223736E0,-3.2383597E-1,8.220353E-1,-1.1754751E0,-5.3731906E-1,-3.0419812E-1,-1.1157614E0,-8.785557E-1,1.5644578E0,1.0896889E0,-7.0400393E-1,2.150466E-1,-4.205594E-1,-1.3080701E0,7.0039415E-1,-1.2419641E0,1.059723E0,-1.9705504E0,8.429533E-1,-1.1910968E0,-2.1233413E-1,-3.6523736E-1,2.5035584E-1,2.985458E-1,-9.3806326E-1,7.9477763E-1,-1.1866459E0,-1.0124998E0,4.7934586E-1,-3.9183173E-1,1.9680228E0,-1.3570478E0,1.3312632E0,-3.7881988E-1,4.020646E-1,-4.2922255E-1,3.0719444E-1,-5.5324817E-1,1.2438176E0,-1.2996594E0,-7.69872E-1,1.3223542E0,-4.0079367E-1,-2.076631E0,6.8856704E-1,-2.0518837E0,1.2938418E0,-1.0281293E0,-3.8990518E-1,8.876148E-1,-3.2882154E-1,-3.5919133E-1,-9.029552E-2,1.2982159E0,-2.4245541E-1,-3.6351416E-1,3.5957262E-1,2.2873084E-1,-3.9701626E-1,-3.3214742E-1,7.819596E-1,-3.6678135E-1,1.1137173E0,1.9888766E-1,-3.7470737E-1,-3.4119034E-1,1.5656008E-1,-5.179243E-1,4.949676E-1,4.9455184E-1,7.7315146E-1,-3.6794105E-1,-5.124333E-1,-3.9970347E-1,4.1452846E-1,3.6832452E-1,-3.6510852E-1,-2.2937863E-1,2.360831E-1,1.1123497E-1,-1.9934838E-1,-2.3677142E-1,1.2039916E-1,-5.7225245E-1,4.787521E-1,-4.1409332E-1,-3.7443918E-1,-3.3059782E-1,4.3408647E-1,-5.345319E-1,-9.012246E-1,3.8178182E-1,-4.6336636E-1,-2.7103093E-1,-6.3641083E-1,-6.501148E-1,4.049615E-1,1.96095E-1,3.2979932E-1,-4.08486E-1,3.4909788E-1],"categories":[],"categories_nodes":[],"categories_segments":[],"categories_sizes":[],"default_left":[0,0,0,0,0,0,0,0,0,0,0,0,0,0,0,0,0,0,0,0,0,0,0,0,0,0,0,0,0,0,0,0,0,0,0,0,0,0,0,0,0,0,0,0,0,0,0,0,0,0,0,0,0,0,0,0,0,0,0,0,0,0,0,0,0,0,0,0,0,0,0,0,0,0,0,0,0,0,0,0,0,0,0,0,0,0,0,0,0,0,0,0,0,0,0,0,0,0,0,0,0,0,0,0,0,0,0,0,0,0,0,0,0],"id":3,"left_children":[1,3,5,7,9,11,13,15,17,19,21,23,25,27,29,31,33,35,37,39,41,43,45,47,49,51,53,55,57,59,61,63,65,-1,67,69,71,73,75,77,79,-1,81,83,85,-1,87,89,91,93,95,97,-1,99,-1,101,103,105,107,-1,-1,109,111,-1,-1,-1,-1,-1,-1,-1,-1,-1,-1,-1,-1,-1,-1,-1,-1,-1,-1,-1,-1,-1,-1,-1,-1,-1,-1,-1,-1,-1,-1,-1,-1,-1,-1,-1,-1,-1,-1,-1,-1,-1,-1,-1,-1,-1,-1,-1,-1,-1,-1],"loss_changes":[2.099136E4,1.5571934E3,5.265966E3,4.1904492E2,7.941452E2,3.541185E3,1.0446816E3,2.8349023E2,5.43442E2,6.113526E2,5.138567E2,2.96236E3,3.2582788E2,1.0756716E3,7.9311035E2,1.935918E2,3.964519E2,5.8222473E2,2.4530298E2,2.0099731E2,1.3349033E2,3.6174524E2,1.3443619E2,3.1615762E3,1.8786693E3,1.696753E1,1.0907616E2,8.213688E2,2.488157E2,9.4269196E1,7.041045E2,6.968945E1,5.6301355E2,0E0,4.7762622E2,5.8902136E2,4.4801965E2,3.8800137E2,2.0160596E2,1.928053E2,2.601619E2,0E0,1.5113922E1,4.362564E-1,7.645831E1,0E0,9.974154E1,2.7185576E3,2.8789019E3,1.7746553E3,6.9991516E2,6.2058105E0,0E0,2.1352005E1,0E0,9.186633E1,2.032689E2,1.2435913E-3,6.3983765E1,0E0,0E0,6.410039E2,7.6381903E2,0E0,0E0,0E0,0E0,0E0,0E0,0E0,0E0,0E0,0E0,0E0,0E0,0E0,0E0,0E0,0E0,0E0,0E0,0E0,0E0,0E0,0E0,0E0,0E0,0E0,0E0,0E0,0E0,0E0,0E0,0E0,0E0,0E0,0E0,0E0,0E0,0E0,0E0,0E0,0E0,0E0,0E0,0E0,0E0,0E0,0E0,0E0,0E0,0E0,0E0],"parents":[2147483647,0,0,1,1,2,2,3,3,4,4,5,5,6,6,7,7,8,8,9,9,10,10,11,11,12,12,13,13,14,14,15,15,16,16,17,17,18,18,19,19,20,20,21,21,22,22,23,23,24,24,25,25,26,26,27,27,28,28,29,29,30,30,31,31,32,32,34,34,35,35,36,36,37,37,38,38,39,39,40,40,42,42,43,43,44,44,46,46,47,47,48,48,49,49,50,50,51,51,53,53,55,55,56,56,57,57,58,58,61,61,62,62],"right_children":[2,4,6,8,10,12,14,16,18,20,22,24,26,28,30,32,34,36,38,40,42,44,46,48,50,52,54,56,58,60,62,64,66,-1,68,70,72,74,76,78,80,-1,82,84,86,-1,88,90,92,94,96,98,-1,100,-1,102,104,106,108,-1,-1,110,112,-1,-1,-1,-1,-1,-1,-1,-1,-1,-1,-1,-1,-1,-1,-1,-1,-1,-1,-1,-1,-1,-1,-1,-1,-1,-1,-1,-1,-1,-1,-1,-1,-1,-1,-1,-1,-1,-1,-1,-1,-1,-1,-1,-1,-1,-1,-1,-1,-1,-1],"split_conditions":[7.203625E-4,5.181201E-1,1.0718246E0,9.2564106E-2,4.9553074E-2,5.48331E3,1.068457E1,1.4285715E-1,8.785714E-2,3.64E-1,5.5215595E-4,4.0697675E-2,3.846154E-1,8.5802305E-1,-6.99E-1,1.3985714E-1,4.347826E-2,-1.4916667E-1,-8.212128E-1,3.194E0,3.8380316E-1,3.2664803E-1,1.6083333E-1,3.995E0,3.125E-1,5.242014E-1,-8.071572E-1,3.794128E-1,2.519084E-1,2.4116023E0,5.0955415E-2,5.4887867E-1,-3.965255E-1,-3.6523736E-1,2.99375E-1,3.318182E-1,7.6546514E-1,2.1170941E-1,-9.9418503E-1,6.928923E-1,4.9795663E-1,-3.9183173E-1,2.2740282E-1,1.06E2,5.1836735E-1,-3.7881988E-1,-4.5190477E-1,1.2375E-1,7.076923E-2,1.5789473E-1,1.23530574E-1,3.508772E-2,-7.69872E-1,-9.462934E-4,-4.0079367E-1,4.927E0,-7.6708966E-1,8.2732877E-4,1.1662414E-1,-1.0281293E0,-3.8990518E-1,-1.12411305E-1,1.1E0,-3.5919133E-1,-9.029552E-2,1.2982159E0,-2.4245541E-1,-3.6351416E-1,3.5957262E-1,2.2873084E-1,-3.9701626E-1,-3.3214742E-1,7.819596E-1,-3.6678135E-1,1.1137173E0,1.9888766E-1,-3.7470737E-1,-3.4119034E-1,1.5656008E-1,-5.179243E-1,4.949676E-1,4.9455184E-1,7.7315146E-1,-3.6794105E-1,-5.124333E-1,-3.9970347E-1,4.1452846E-1,3.6832452E-1,-3.6510852E-1,-2.2937863E-1,2.360831E-1,1.1123497E-1,-1.9934838E-1,-2.3677142E-1,1.2039916E-1,-5.7225245E-1,4.787521E-1,-4.1409332E-1,-3.7443918E-1,-3.3059782E-1,4.3408647E-1,-5.345319E-1,-9.012246E-1,3.8178182E-1,-4.6336636E-1,-2.7103093E-1,-6.3641083E-1,-6.501148E-1,4.049615E-1,1.96095E-1,3.2979932E-1,-4.08486E-1,3.4909788E-1],"split_indices":[19,145,155,101,101,4,2,164,97,92,19,162,13,43,106,77,174,75,195,1,55,193,96,1,165,152,192,190,74,8,166,135,190,0,74,94,208,193,187,41,187,0,129,25,178,0,50,114,76,162,188,159,0,236,0,1,37,19,147,0,0,187,177,0,0,0,0,0,0,0,0,0,0,0,0,0,0,0,0,0,0,0,0,0,0,0,0,0,0,0,0,0,0,0,0,0,0,0,0,0,0,0,0,0,0,0,0,0,0,0,0,0,0],"split_type":[0,0,0,0,0,0,0,0,0,0,0,0,0,0,0,0,0,0,0,0,0,0,0,0,0,0,0,0,0,0,0,0,0,0,0,0,0,0,0,0,0,0,0,0,0,0,0,0,0,0,0,0,0,0,0,0,0,0,0,0,0,0,0,0,0,0,0,0,0,0,0,0,0,0,0,0,0,0,0,0,0,0,0,0,0,0,0,0,0,0,0,0,0,0,0,0,0,0,0,0,0,0,0,0,0,0,0,0,0,0,0,0,0],"sum_hessian":[9.713064E4,1.8983598E4,7.814704E4,1.6946484E4,2.0371133E3,6.375459E4,1.4392452E4,1.3620946E4,3.3255378E3,1.2134353E3,8.23678E2,6.1753293E4,2.0012952E3,8.447597E2,1.3547692E4,1.2882491E4,7.384554E2,1.5221826E3,1.8033551E3,1.1014232E3,1.1201214E2,6.0796246E2,2.1571548E2,5.325064E4,8.502651E3,1.9175688E3,8.372633E1,5.0785205E2,3.3690765E2,1.0003204E2,1.3447661E4,1.26766455E4,2.0584558E2,3.9598557E2,3.4246985E2,7.8051654E2,7.416661E2,6.41489E1,1.7392063E3,1.00276434E3,9.865883E1,1.3530817E1,9.848132E1,5.421718E1,5.537453E2,1.432243E2,7.249119E1,6.662794E3,4.6587848E4,7.8754653E3,6.271863E2,1.9068546E3,1.0714196E1,6.440579E1,1.9320534E1,3.5450555E2,1.5334648E2,2.3031971E1,3.138757E2,3.0248896E1,6.978315E1,1.2954163E4,4.9349768E2,1.2588508E4,8.813713E1,2.3156467E1,1.8268912E2,1.3462E2,2.0784984E2,6.073406E2,1.73176E2,7.0855225E2,3.311382E1,3.826887E1,2.5880033E1,5.642764E1,1.6827786E3,9.2757654E2,7.518781E1,3.4039818E1,6.461901E1,6.702889E1,3.1452429E1,4.2793697E1,1.1423484E1,9.830601E0,5.439147E2,4.8168537E1,2.4322653E1,5.222889E3,1.4399049E3,4.372691E4,2.8609353E3,6.31456E3,1.5609053E3,6.2576813E1,5.646095E2,7.333093E2,1.1735453E3,2.7649105E0,6.1640884E1,2.7120453E2,8.3301025E1,1.2189645E2,3.1450035E1,2.1128523E0,2.0919119E1,4.4002624E0,3.0947543E2,6.155685E3,6.798478E3,2.9171692E2,2.0178075E2],"tree_param":{"num_deleted":"0","num_feature":"276","num_nodes":"113","size_leaf_vector":"1"}},{"base_weights":[-2.220216E-2,-8.8586706E-1,1.5333778E-1,-9.814845E-1,-1.2528582E-1,-1.7847782E-2,4.2961484E-1,-1.0694376E0,-6.50321E-1,-1.0879086E0,1.8702541E-1,-1.5279265E-1,5.185533E-1,-2.253616E-1,5.774843E-1,-4.797138E-1,-1.1068661E0,-8.2157E-1,2.981758E-1,-3.5503602E-1,3.1477374E-1,-9.653055E-1,4.7884685E-1,3.1754023E-1,-3.302441E-1,6.759252E-1,-3.9384332E-1,2.2872576E-1,-9.5217824E-1,6.4735097E-1,-4.1454443E-1,4.177002E-1,-3.4709427E-1,-1.1159716E0,8.7463546E-1,4.8224908E-1,-9.598459E-1,-3.709092E-1,1.0397993E0,1.2271865E-1,-1.2459481E0,1.0692905E0,-3.6295423E-1,5.533772E-1,-3.4918758E-1,-7.007408E-2,-7.208944E-1,7.613655E-1,-8.454228E-1,-1.100769E0,9.2548496E-1,5.7229745E-1,-5.07899E-1,1.1382178E0,-1.0768629E0,-1.1600101E0,6.823755E-1,-8.6043334E-1,9.121155E-1,3.597557E-1,-3.5272908E-1,-3.3783993E-1,2.7802076E-2,-3.6710078E-1,4.954425E-1,-3.7341475E-1,3.7505144E-1,1.5554738E-1,-3.320644E-1,4.70776E-1,-3.824949E-1,-3.5854656E-1,4.066577E-1,-3.5808572E-1,-4.2484954E-1,2.813131E-1,1.2124639E0,-2.86881E-1,3.0513775E-1,1.8676075E-1,-4.8616725E-1,1.1587021E-3,-4.0554488E-1,-1.8418106E-1,9.996567E-2,-2.9954782E-1,-1.0270754E-2,1.4371149E-1,3.4476012E-1,-4.8262674E-1,4.095364E-1,-5.2977735E-1,1.2668014E-1,3.9898673E-1,-6.072223E-1,-6.2588656E-1,2.0265846E-1,1.04377024E-1,-4.0370852E-1,-4.4686162E-1,4.6432626E-1,3.3334708E-1,-3.5502285E-1,2.1926394E-1,-4.7953036E-1,-4.4961664E-1,2.1097319E-1,8.587251E-2,-3.7262034E-1,-5.5368894E-1,3.6238593E-1],"categories":[],"categories_nodes":[],"categories_segments":[],"categories_sizes":[],"default_left":[0,0,0,0,0,0,0,0,0,0,0,0,0,0,0,0,0,0,0,0,0,0,0,0,0,0,0,0,0,0,0,0,0,0,0,0,0,0,0,0,0,0,0,0,0,0,0,0,0,0,0,0,0,0,0,0,0,0,0,0,0,0,0,0,0,0,0,0,0,0,0,0,0,0,0,0,0,0,0,0,0,0,0,0,0,0,0,0,0,0,0,0,0,0,0,0,0,0,0,0,0,0,0,0,0,0,0,0,0,0,0],"id":4,"left_children":[1,3,5,7,9,11,13,15,17,19,21,23,25,27,29,31,33,35,37,-1,-1,39,41,43,45,47,49,51,53,55,57,59,-1,61,63,65,67,-1,69,71,73,75,77,79,81,83,85,87,89,91,93,95,97,99,101,103,105,107,109,-1,-1,-1,-1,-1,-1,-1,-1,-1,-1,-1,-1,-1,-1,-1,-1,-1,-1,-1,-1,-1,-1,-1,-1,-1,-1,-1,-1,-1,-1,-1,-1,-1,-1,-1,-1,-1,-1,-1,-1,-1,-1,-1,-1,-1,-1,-1,-1,-1,-1,-1,-1],"loss_changes":[1.3665982E4,1.107206E3,3.5430496E3,3.932666E2,5.117594E2,3.348249E3,2.775875E3,2.3533008E2,4.6170178E2,8.638385E1,4.3277744E2,3.0847036E3,1.3353013E3,1.7426064E3,1.6208398E3,3.8915985E2,1.822539E2,4.3436902E2,4.9658783E2,0E0,0E0,7.957779E1,5.10589E2,1.5922012E3,2.727307E3,1.0314749E3,1.2773E3,8.2284094E2,5.303884E2,1.3835361E3,9.1116034E2,3.4482922E2,0E0,1.2294043E2,7.784862E1,3.084838E2,4.7363513E2,0E0,3.62268E2,8.975316E1,1.522522E-1,2.3226068E2,3.4808508E2,1.1255374E3,9.366936E2,3.5333665E3,2.0447432E3,8.216841E2,7.1455884E2,9.03843E2,5.7290576E2,6.098161E2,7.42048E2,1.2581258E2,4.4809424E2,3.457279E2,9.7641504E2,5.0464233E2,3.1846765E2,0E0,0E0,0E0,0E0,0E0,0E0,0E0,0E0,0E0,0E0,0E0,0E0,0E0,0E0,0E0,0E0,0E0,0E0,0E0,0E0,0E0,0E0,0E0,0E0,0E0,0E0,0E0,0E0,0E0,0E0,0E0,0E0,0E0,0E0,0E0,0E0,0E0,0E0,0E0,0E0,0E0,0E0,0E0,0E0,0E0,0E0,0E0,0E0,0E0,0E0,0E0,0E0],"parents":[2147483647,0,0,1,1,2,2,3,3,4,4,5,5,6,6,7,7,8,8,9,9,10,10,11,11,12,12,13,13,14,14,15,15,16,16,17,17,18,18,21,21,22,22,23,23,24,24,25,25,26,26,27,27,28,28,29,29,30,30,31,31,33,33,34,34,35,35,36,36,38,38,39,39,40,40,41,41,42,42,43,43,44,44,45,45,46,46,47,47,48,48,49,49,50,50,51,51,52,52,53,53,54,54,55,55,56,56,57,57,58,58],"right_children":[2,4,6,8,10,12,14,16,18,20,22,24,26,28,30,32,34,36,38,-1,-1,40,42,44,46,48,50,52,54,56,58,60,-1,62,64,66,68,-1,70,72,74,76,78,80,82,84,86,88,90,92,94,96,98,100,102,104,106,108,110,-1,-1,-1,-1,-1,-1,-1,-1,-1,-1,-1,-1,-1,-1,-1,-1,-1,-1,-1,-1,-1,-1,-1,-1,-1,-1,-1,-1,-1,-1,-1,-1,-1,-1,-1,-1,-1,-1,-1,-1,-1,-1,-1,-1,-1,-1,-1,-1,-1,-1,-1,-1],"split_conditions":[7.203625E-4,5.181201E-1,1.20242625E-1,9.2564106E-2,-1.4455295E-1,4.9882352E-1,7.1990063E2,-6.7105263E-1,4.2255715E-1,1.0838462E0,4.122449E-1,2.369571E0,5.1004283E-2,1.0526316E-1,4.379562E-2,-2.0125E-1,1.8761538E-1,-3.871905E-1,4.761905E-2,-3.5503602E-1,3.1477374E-1,-1.8932012E-1,7.061724E-1,5.915385E-1,6.2E-1,5.1354325E-1,2.1034845E1,-8.1153846E-1,6.264702E-1,2.2555556E-2,3.0226293E-1,2.5611292E-3,-3.4709427E-1,4.8166665E-1,8.14169E-1,3.2786883E-2,-7.4993163E-1,-3.709092E-1,4.1049564E-1,1.760721E-1,1.6129032E-1,1.3922125E0,1.5675676E-1,5.4054055E-2,8.0883205E-2,5.8E1,3.1172466E-1,-1.00975364E-1,8.068421E-2,1.4283639E3,1.2555556E-1,1.9E1,7.237849E-2,4.6693876E-1,2.8947307E-2,-1.0621715E0,1.0722222E-2,-6.6598076E-1,5.1317364E-1,3.597557E-1,-3.5272908E-1,-3.3783993E-1,2.7802076E-2,-3.6710078E-1,4.954425E-1,-3.7341475E-1,3.7505144E-1,1.5554738E-1,-3.320644E-1,4.70776E-1,-3.824949E-1,-3.5854656E-1,4.066577E-1,-3.5808572E-1,-4.2484954E-1,2.813131E-1,1.2124639E0,-2.86881E-1,3.0513775E-1,1.8676075E-1,-4.8616725E-1,1.1587021E-3,-4.0554488E-1,-1.8418106E-1,9.996567E-2,-2.9954782E-1,-1.0270754E-2,1.4371149E-1,3.4476012E-1,-4.8262674E-1,4.095364E-1,-5.2977735E-1,1.2668014E-1,3.9898673E-1,-6.072223E-1,-6.2588656E-1,2.0265846E-1,1.04377024E-1,-4.0370852E-1,-4.4686162E-1,4.6432626E-1,3.3334708E-1,-3.5502285E-1,2.1926394E-1,-4.7953036E-1,-4.4961664E-1,2.1097319E-1,8.587251E-2,-3.7262034E-1,-5.5368894E-1,3.6238593E-1],"split_indices":[19,145,151,101,57,60,16,49,38,86,178,8,199,13,159,75,77,56,173,0,0,197,128,64,176,135,148,47,149,118,193,183,0,91,188,173,184,0,179,198,132,155,132,175,189,22,127,188,108,16,85,22,129,178,125,44,117,197,127,0,0,0,0,0,0,0,0,0,0,0,0,0,0,0,0,0,0,0,0,0,0,0,0,0,0,0,0,0,0,0,0,0,0,0,0,0,0,0,0,0,0,0,0,0,0,0,0,0,0,0,0],"split_type":[0,0,0,0,0,0,0,0,0,0,0,0,0,0,0,0,0,0,0,0,0,0,0,0,0,0,0,0,0,0,0,0,0,0,0,0,0,0,0,0,0,0,0,0,0,0,0,0,0,0,0,0,0,0,0,0,0,0,0,0,0,0,0,0,0,0,0,0,0,0,0,0,0,0,0,0,0,0,0,0,0,0,0,0,0,0,0,0,0,0,0,0,0,0,0,0,0,0,0,0,0,0,0,0,0,0,0,0,0,0,0],"sum_hessian":[9.013853E4,1.5225297E4,7.4913234E4,1.3524729E4,1.7005682E3,4.6254293E4,2.8658943E4,1.0684754E4,2.8399749E3,4.159674E2,1.2846008E3,3.6957453E4,9.296839E3,5.278354E3,2.3380588E4,6.384927E2,1.0046262E4,2.4057551E3,4.342198E2,3.985939E2,1.7373491E1,2.5911435E2,1.0254866E3,1.0123761E4,2.6833693E4,7.929418E3,1.3674211E3,3.2491155E3,2.0292385E3,2.1842604E4,1.5379846E3,2.747792E2,3.6371344E2,1.0000742E4,4.5518784E1,2.3043834E2,2.1753167E3,1.4126091E2,2.929589E2,5.3246304E1,2.0586804E2,6.025703E2,4.2291623E2,7.478584E3,2.645177E3,1.6107443E4,1.072625E4,7.508247E3,4.2117062E2,8.90459E2,4.7696222E2,2.2158406E3,1.0332749E3,1.1376629E2,1.9154722E3,4.146268E2,2.1427977E4,1.151364E3,3.8662067E2,1.8452817E2,9.025105E1,9.917432E3,8.3311E1,1.2143378E1,3.337541E1,7.073744E1,1.597009E2,1.965562E2,1.9787605E3,2.386868E2,5.42721E1,2.5750013E1,2.7496288E1,1.63589E2,4.2279045E1,5.782854E2,2.4284925E1,2.9597818E2,1.2693806E2,7.2486973E3,2.2988678E2,1.9570487E3,6.881283E2,6.8582256E3,9.249218E3,7.637965E3,3.0882854E3,4.346451E3,3.161796E3,3.1326718E2,1.0790346E2,6.196708E2,2.707882E2,4.1992706E2,5.703516E1,8.210526E1,2.1337354E3,5.1142776E2,5.218471E2,1.4984211E1,9.8782074E1,8.850575E1,1.8269664E3,7.791565E1,3.3671115E2,2.0240552E2,2.1225572E4,2.8756973E2,8.637942E2,3.6949093E1,3.4967157E2],"tree_param":{"num_deleted":"0","num_feature":"276","num_nodes":"111","size_leaf_vector":"1"}},{"base_weights":[-2.2328686E-2,-8.218784E-1,1.1422493E-1,-9.606049E-1,-3.1146458E-1,5.5429574E-2,7.0108527E-1,-4.6904466E-1,-1.0395777E0,-9.5509773E-1,5.0435606E-2,1.063774E-1,-6.4214456E-1,9.261875E-1,1.7234738E-1,1.3548079E0,-6.723279E-1,-1.0555277E0,3.1914717E-1,-1.0220758E0,1.0588567E0,4.2237744E-1,-8.259744E-1,1.5123732E-1,-6.195073E-1,-9.984976E-1,3.666798E-1,9.801953E-1,-2.2499893E0,2.973545E-1,-4.719909E0,-3.391594E-1,1.9854491E0,-9.6438247E-1,2.3306386E-1,-3.9630488E-1,-1.0774812E0,1.2770097E0,-1.1979728E0,2.3103426E-1,-3.4027147E-1,-2.5847793E-1,3.9501122E-1,-3.5042658E-1,5.847277E-1,-1.0096408E0,1.286995E0,1.7783923E-1,-1.1876185E0,-8.765108E-1,5.470777E-1,-1.0379865E0,3.9104245E0,-7.492482E-1,9.4336194E-1,1.0116824E0,-2.1457899E0,-2.8668523E0,-4.940492E-1,-1.9097353E0,5.2297014E-1,-1.4394538E0,-3.4603828E-1,-3.1842583E-1,6.431368E-1,4.945088E-1,-3.2157713E-1,-3.4582508E-1,3.4214234E-1,4.2046866E-1,-3.3396214E-1,-3.338945E-1,-2.1223629E-1,4.1693035E-1,-3.3121485E-1,-4.9115065E-1,-3.2686955E-1,-3.4723425E-1,5.3318053E-1,2.145272E-1,-3.490363E-1,3.1964564E-1,-3.4197375E-1,-3.0868417E-1,5.18577E-1,6.078327E-2,-2.9106003E-1,1.9083956E-1,-5.035178E-1,-3.3851177E-1,-2.5543172E-2,-4.30927E-1,3.0935228E-1,-2.0697762E-1,-4.8054445E-1,-3.2173246E-1,1.4224083E0,-3.7898603E-1,4.7967085E-1,-4.1992405E-1,3.664478E-1,3.1535998E-1,-1.05845235E-1,-5.604456E-1,-9.733151E-1,-8.722868E-1,-2.434463E-1,-1.1359785E0,3.5025445E-1,-1.8253708E-1,2.784699E-1],"categories":[],"categories_nodes":[],"categories_segments":[],"categories_sizes":[],"default_left":[0,0,0,0,0,0,0,0,0,0,0,0,0,0,0,0,0,0,0,0,0,0,0,0,0,0,0,0,0,0,0,0,0,0,0,0,0,0,0,0,0,0,0,0,0,0,0,0,0,0,0,0,0,0,0,0,0,0,0,0,0,0,0,0,0,0,0,0,0,0,0,0,0,0,0,0,0,0,0,0,0,0,0,0,0,0,0,0,0,0,0,0,0,0,0,0,0,0,0,0,0,0,0,0,0,0,0,0,0,0,0],"id":5,"left_children":[1,3,5,7,9,11,13,15,17,19,21,23,25,27,29,31,33,35,37,39,41,43,45,47,49,51,53,55,57,59,61,-1,63,65,67,69,71,73,75,77,-1,-1,-1,-1,79,81,83,85,87,89,91,93,95,97,99,101,103,105,-1,107,109,-1,-1,-1,-1,-1,-1,-1,-1,-1,-1,-1,-1,-1,-1,-1,-1,-1,-1,-1,-1,-1,-1,-1,-1,-1,-1,-1,-1,-1,-1,-1,-1,-1,-1,-1,-1,-1,-1,-1,-1,-1,-1,-1,-1,-1,-1,-1,-1,-1,-1],"loss_changes":[9.077802E3,8.585039E2,2.4503354E3,3.6970508E2,6.041461E2,2.2941646E3,7.69522E2,4.909835E2,1.7837695E2,1.26997375E2,5.4179205E2,1.9590012E3,1.5798922E3,7.802258E2,1.1831152E3,2.1052159E2,3.1486957E2,1.1709082E2,1.4116466E2,1.273103E2,1.6255379E1,3.0195898E2,1.9348837E2,2.0181016E3,1.050301E3,6.3350024E2,7.3924304E2,4.4120166E2,2.3606659E1,9.396753E2,7.9210205E0,0E0,5.3584442E1,2.5461908E2,3.6728027E2,3.4091034E2,1.0243555E2,1.7478127E1,1.1363983E-2,1.6327277E2,0E0,0E0,0E0,0E0,2.4226096E2,1.2453482E2,4.273191E1,1.5800801E3,9.8912866E2,5.718965E2,6.090589E2,6.311936E2,1.1324118E2,4.7464737E2,4.950808E2,2.3852246E2,7.6037445E0,6.816101E-1,0E0,1.01538245E3,7.851133E2,0E0,0E0,0E0,0E0,0E0,0E0,0E0,0E0,0E0,0E0,0E0,0E0,0E0,0E0,0E0,0E0,0E0,0E0,0E0,0E0,0E0,0E0,0E0,0E0,0E0,0E0,0E0,0E0,0E0,0E0,0E0,0E0,0E0,0E0,0E0,0E0,0E0,0E0,0E0,0E0,0E0,0E0,0E0,0E0,0E0,0E0,0E0,0E0,0E0,0E0],"parents":[2147483647,0,0,1,1,2,2,3,3,4,4,5,5,6,6,7,7,8,8,9,9,10,10,11,11,12,12,13,13,14,14,15,15,16,16,17,17,18,18,19,19,20,20,21,21,22,22,23,23,24,24,25,25,26,26,27,27,28,28,29,29,30,30,32,32,33,33,34,34,35,35,36,36,37,37,38,38,39,39,44,44,45,45,46,46,47,47,48,48,49,49,50,50,51,51,52,52,53,53,54,54,55,55,56,56,57,57,59,59,60,60],"right_children":[2,4,6,8,10,12,14,16,18,20,22,24,26,28,30,32,34,36,38,40,42,44,46,48,50,52,54,56,58,60,62,-1,64,66,68,70,72,74,76,78,-1,-1,-1,-1,80,82,84,86,88,90,92,94,96,98,100,102,104,106,-1,108,110,-1,-1,-1,-1,-1,-1,-1,-1,-1,-1,-1,-1,-1,-1,-1,-1,-1,-1,-1,-1,-1,-1,-1,-1,-1,-1,-1,-1,-1,-1,-1,-1,-1,-1,-1,-1,-1,-1,-1,-1,-1,-1,-1,-1,-1,-1,-1,-1,-1,-1],"split_conditions":[7.203625E-4,3.702314E-1,1.2495935E0,-2.286E-1,1.5E-2,4.812834E-2,5.9936415E-2,-6.6170996E-1,2.4833333E-1,9.680031E-1,3.7E-3,4.494382E-2,4.1715953E-1,5.876923E-1,1.4895571E0,2.1658823E-1,1.08333334E-1,-8.212128E-1,-4.63E0,-2.4526316E-1,-2.6307693E-1,-4.5833334E-2,6.6217935E-1,7.05671E-1,4.8661166E-1,4.9703702E-1,2.488889E-1,5.8700544E-1,7.188E-1,-4.6368638E-1,1.6307142E-1,-3.391594E-1,5.1461536E-1,-1.4407287E0,1.9261104E-1,-7.6857144E-1,2.8952986E-1,1.3974884E-1,-2.15E-1,8.505266E-1,-3.4027147E-1,-2.5847793E-1,3.9501122E-1,-3.5042658E-1,7.252839E-1,1.2689153E-2,7.6457644E-1,8.108108E-2,-1.1416667E-1,1.4383818E0,5.0285846E-1,1.4428604E0,3.5620058E-1,8.2E-2,1.509091E-1,4.8902565E-1,4.028E0,1.0152284E-2,-4.940492E-1,3.1013402E-1,4.4E-1,-1.4394538E0,-3.4603828E-1,-3.1842583E-1,6.431368E-1,4.945088E-1,-3.2157713E-1,-3.4582508E-1,3.4214234E-1,4.2046866E-1,-3.3396214E-1,-3.338945E-1,-2.1223629E-1,4.1693035E-1,-3.3121485E-1,-4.9115065E-1,-3.2686955E-1,-3.4723425E-1,5.3318053E-1,2.145272E-1,-3.490363E-1,3.1964564E-1,-3.4197375E-1,-3.0868417E-1,5.18577E-1,6.078327E-2,-2.9106003E-1,1.9083956E-1,-5.035178E-1,-3.3851177E-1,-2.5543172E-2,-4.30927E-1,3.0935228E-1,-2.0697762E-1,-4.8054445E-1,-3.2173246E-1,1.4224083E0,-3.7898603E-1,4.7967085E-1,-4.1992405E-1,3.664478E-1,3.1535998E-1,-1.05845235E-1,-5.604456E-1,-9.733151E-1,-8.722868E-1,-2.434463E-1,-1.1359785E0,3.5025445E-1,-1.8253708E-1,2.784699E-1],"split_indices":[19,145,155,53,17,158,184,184,107,184,56,159,181,47,40,107,11,195,3,98,7,51,145,187,201,95,94,180,47,192,52,0,83,200,135,177,135,145,96,181,0,0,0,0,189,131,185,166,88,139,155,149,182,99,101,150,1,159,0,131,103,0,0,0,0,0,0,0,0,0,0,0,0,0,0,0,0,0,0,0,0,0,0,0,0,0,0,0,0,0,0,0,0,0,0,0,0,0,0,0,0,0,0,0,0,0,0,0,0,0,0],"split_type":[0,0,0,0,0,0,0,0,0,0,0,0,0,0,0,0,0,0,0,0,0,0,0,0,0,0,0,0,0,0,0,0,0,0,0,0,0,0,0,0,0,0,0,0,0,0,0,0,0,0,0,0,0,0,0,0,0,0,0,0,0,0,0,0,0,0,0,0,0,0,0,0,0,0,0,0,0,0,0,0,0,0,0,0,0,0,0,0,0,0,0,0,0,0,0,0,0,0,0,0,0,0,0,0,0,0,0,0,0,0,0],"sum_hessian":[8.314235E4,1.2127619E4,7.1014734E4,9.535155E3,2.5924636E3,6.4548914E4,6.4658213E3,1.3208104E3,8.214345E3,9.3246027E2,1.6600033E3,6.015621E4,4.392704E3,4.5345522E3,1.9312693E3,1.3188417E2,1.1889263E3,8.1192563E3,9.508835E1,9.029242E2,2.9536036E1,1.1657751E3,4.9422815E2,5.665566E4,3.500548E3,3.2460818E3,1.1466227E3,4.4594155E3,7.513661E1,1.8840668E3,4.720251E1,2.6531525E1,1.05352646E2,8.9890045E2,2.900258E2,2.6228766E2,7.8569688E3,5.8384468E1,3.6703876E1,7.409169E1,8.288325E2,3.219047E0,2.6316988E1,1.0740324E2,1.058372E3,4.5518417E2,3.904398E1,5.5552742E4,1.1029178E3,2.8687905E3,6.3175775E2,3.2209597E3,2.5121904E1,3.9055905E2,7.560636E2,4.4156147E3,4.380077E1,3.529085E1,3.984576E1,1.7404112E2,1.7100256E3,4.5850895E1,1.351618E0,4.9227624E0,1.0042988E2,3.4969887E1,8.639306E2,1.1465388E2,1.753719E2,7.449986E1,1.8778781E2,7.167328E3,6.896409E2,5.6142113E1,2.242357E0,4.474438E0,3.222944E1,3.916968E1,3.492201E1,9.8547534E2,7.289652E1,2.6463419E1,4.2872076E2,6.0395412E0,3.3004436E1,5.4380188E4,1.1725571E3,2.3380098E2,8.691168E2,2.175869E3,6.929215E2,1.2355312E2,5.082046E2,1.992919E3,1.2280408E3,3.5490036E0,2.15729E1,3.2079514E2,6.9763916E1,7.97954E1,6.762682E2,4.2915557E3,1.2405906E2,3.7120197E1,6.6805735E0,3.419785E1,1.0930004E0,1.0796264E2,6.607849E1,4.508435E2,1.2591821E3],"tree_param":{"num_deleted":"0","num_feature":"276","num_nodes":"111","size_leaf_vector":"1"}},{"base_weights":[-2.1256005E-2,-7.6827806E-1,8.320149E-2,-9.1843474E-1,-2.9159155E-1,-9.9525616E-2,2.3628889E-1,-3.841581E-1,-1.0072573E0,-9.439452E-1,8.553032E-2,-4.7468314E-1,1.0970849E-1,9.776287E-2,5.440967E-1,1.0674977E0,-5.718703E-1,-1.0231189E0,2.1551393E-1,-1.0005053E0,3.3043733E-1,-9.5232815E-1,3.5784477E-1,-6.1516964E-1,3.3532584E-1,2.745743E-1,-3.6346897E-1,-6.693905E-1,1.9245063E-1,5.9407437E-1,-1.4182239E0,-3.2062274E-1,1.4623808E0,-8.7386346E-1,1.6203788E-1,-5.0057644E-1,-1.0613124E0,1.1004461E0,-3.3865535E-1,-3.2988566E-1,8.8417865E-2,-3.4099093E-1,3.665077E-1,6.121397E-1,-6.052879E-1,-3.921509E-1,-1.1587602E0,-1.6826319E0,5.538222E-1,3.2200742E-1,-1.6001923E0,4.7056895E-1,-6.353129E-1,1.2577533E0,-9.1503596E-1,-1.2091937E-3,5.114203E-1,6.371452E-1,-1.3429885E0,-1.861819E0,1.7628192E0,-2.984639E-1,4.7033012E-1,3.8527223E-1,-2.9615512E-1,-3.380402E-1,2.6244447E-1,-3.2461196E-1,2.186975E-1,-3.253701E-1,-1.3002163E-1,3.7159538E-1,-3.1837988E-1,-3.2557136E-1,4.5224312E-1,2.8544113E-1,-3.3440337E-2,-3.2794034E-1,2.2261567E-1,-2.7045023E-1,-2.947953E-2,-3.71877E-1,6.2643397E-1,-4.440831E-1,-5.705194E-1,2.3318443E-1,-4.8764342E-1,-4.0985608E-1,1.1010208E-1,-5.4824007E-1,3.597029E-1,-5.1945704E-1,2.4308722E-1,2.4955643E-2,-3.0863446E-1,-5.2558154E-1,4.4811466E-1,-4.1381505E-1,-1.3942623E-1,-8.584076E-2,1.6916598E-1,-1.5963879E-1,1.8472189E-1,1.9790374E-1,-8.801389E-1,-5.5507475E-1,5.3839916E-1,-4.9377587E-1,-7.867997E-1,-3.970814E-1,5.7625014E-1],"categories":[],"categories_nodes":[],"categories_segments":[],"categories_sizes":[],"default_left":[0,0,0,0,0,0,0,0,0,0,0,0,0,0,0,0,0,0,0,0,0,0,0,0,0,0,0,0,0,0,0,0,0,0,0,0,0,0,0,0,0,0,0,0,0,0,0,0,0,0,0,0,0,0,0,0,0,0,0,0,0,0,0,0,0,0,0,0,0,0,0,0,0,0,0,0,0,0,0,0,0,0,0,0,0,0,0,0,0,0,0,0,0,0,0,0,0,0,0,0,0,0,0,0,0,0,0,0,0,0,0],"id":6,"left_children":[1,3,5,7,9,11,13,15,17,19,21,23,25,27,29,31,33,35,37,39,-1,41,43,45,47,49,51,53,55,57,59,-1,61,63,65,67,69,71,-1,-1,73,-1,-1,75,77,79,81,83,85,87,89,91,93,95,97,99,101,103,105,107,109,-1,-1,-1,-1,-1,-1,-1,-1,-1,-1,-1,-1,-1,-1,-1,-1,-1,-1,-1,-1,-1,-1,-1,-1,-1,-1,-1,-1,-1,-1,-1,-1,-1,-1,-1,-1,-1,-1,-1,-1,-1,-1,-1,-1,-1,-1,-1,-1,-1,-1],"loss_changes":[6.1157964E3,6.879448E2,1.9234819E3,3.4657422E2,5.6706635E2,2.4606248E3,1.5953052E3,2.8504813E2,1.21796875E2,9.878174E1,4.1334616E2,1.2773806E3,1.5699998E3,1.8745345E3,1.1396667E3,1.0268155E2,2.0514572E2,1.2297363E2,9.772189E1,8.882843E1,0E0,1.2319989E2,2.8406628E2,1.1591101E3,7.326371E2,1.327716E3,1.1793677E3,1.3433329E3,1.4188826E3,9.456614E2,4.1065765E2,0E0,2.7868073E1,1.615668E2,2.4947704E2,3.0349725E2,8.372168E1,1.6076836E1,0E0,0E0,1.1741015E2,0E0,0E0,2.2523627E2,1.6017348E2,1.01539075E3,7.3272876E2,4.3840637E0,7.308308E2,1.1063903E3,2.3659961E2,9.5815344E2,1.1089894E3,2.3055374E2,5.2527E2,2.3015425E3,9.44978E2,8.934116E2,3.958816E2,3.7382202E1,2.002404E1,0E0,0E0,0E0,0E0,0E0,0E0,0E0,0E0,0E0,0E0,0E0,0E0,0E0,0E0,0E0,0E0,0E0,0E0,0E0,0E0,0E0,0E0,0E0,0E0,0E0,0E0,0E0,0E0,0E0,0E0,0E0,0E0,0E0,0E0,0E0,0E0,0E0,0E0,0E0,0E0,0E0,0E0,0E0,0E0,0E0,0E0,0E0,0E0,0E0,0E0],"parents":[2147483647,0,0,1,1,2,2,3,3,4,4,5,5,6,6,7,7,8,8,9,9,10,10,11,11,12,12,13,13,14,14,15,15,16,16,17,17,18,18,19,19,21,21,22,22,23,23,24,24,25,25,26,26,27,27,28,28,29,29,30,30,32,32,33,33,34,34,35,35,36,36,37,37,40,40,43,43,44,44,45,45,46,46,47,47,48,48,49,49,50,50,51,51,52,52,53,53,54,54,55,55,56,56,57,57,58,58,59,59,60,60],"right_children":[2,4,6,8,10,12,14,16,18,20,22,24,26,28,30,32,34,36,38,40,-1,42,44,46,48,50,52,54,56,58,60,-1,62,64,66,68,70,72,-1,-1,74,-1,-1,76,78,80,82,84,86,88,90,92,94,96,98,100,102,104,106,108,110,-1,-1,-1,-1,-1,-1,-1,-1,-1,-1,-1,-1,-1,-1,-1,-1,-1,-1,-1,-1,-1,-1,-1,-1,-1,-1,-1,-1,-1,-1,-1,-1,-1,-1,-1,-1,-1,-1,-1,-1,-1,-1,-1,-1,-1,-1,-1,-1,-1,-1],"split_conditions":[7.203625E-4,1.1664861E-1,2.514561E-1,-2.286E-1,7.84375E0,1.3043478E-1,1.89E2,-6.6170996E-1,2.4833333E-1,9.680031E-1,5.742857E-1,8.975E-2,4.490625E-1,-4.928E-1,1.14285715E-1,2.1658823E-1,1.08333334E-1,-6.301324E-1,-4.63E0,7.398503E-1,3.3043733E-1,6.358824E-1,3.3898305E-2,5.479452E-2,-9.360167E-1,6.895127E-1,1.9609641E0,-6E-1,2.6900592E-1,6.2927675E-1,1.6244827E-1,-3.2062274E-1,-1.4825E-1,-1.4407287E0,1E0,7.25E-2,3.6842105E-1,1.3974884E-1,-3.3865535E-1,-3.2988566E-1,8.1982505E-1,-3.4099093E-1,3.665077E-1,8.571429E-2,1.16842106E-1,6.8905E-1,3.846154E-1,5.38E-1,9.1291666E-1,3.9179584E-1,1.441341E-1,1.0422E3,-9.423883E-1,-3.7415E-1,1.3479334E-1,1.1764706E-1,6.859199E-2,4.6153846E-1,1.775E-1,6.632544E-1,1.0959349E-1,-2.984639E-1,4.7033012E-1,3.8527223E-1,-2.9615512E-1,-3.380402E-1,2.6244447E-1,-3.2461196E-1,2.186975E-1,-3.253701E-1,-1.3002163E-1,3.7159538E-1,-3.1837988E-1,-3.2557136E-1,4.5224312E-1,2.8544113E-1,-3.3440337E-2,-3.2794034E-1,2.2261567E-1,-2.7045023E-1,-2.947953E-2,-3.71877E-1,6.2643397E-1,-4.440831E-1,-5.705194E-1,2.3318443E-1,-4.8764342E-1,-4.0985608E-1,1.1010208E-1,-5.4824007E-1,3.597029E-1,-5.1945704E-1,2.4308722E-1,2.4955643E-2,-3.0863446E-1,-5.2558154E-1,4.4811466E-1,-4.1381505E-1,-1.3942623E-1,-8.584076E-2,1.6916598E-1,-1.5963879E-1,1.8472189E-1,1.9790374E-1,-8.801389E-1,-5.5507475E-1,5.3839916E-1,-4.9377587E-1,-7.867997E-1,-3.970814E-1,5.7625014E-1],"split_indices":[19,151,127,53,2,170,26,184,107,184,177,80,150,81,172,107,11,196,3,145,0,95,168,160,37,180,8,92,192,188,114,0,113,200,32,72,13,145,0,0,181,0,0,132,62,40,174,72,123,152,151,23,222,186,151,174,131,165,98,155,131,0,0,0,0,0,0,0,0,0,0,0,0,0,0,0,0,0,0,0,0,0,0,0,0,0,0,0,0,0,0,0,0,0,0,0,0,0,0,0,0,0,0,0,0,0,0,0,0,0,0],"split_type":[0,0,0,0,0,0,0,0,0,0,0,0,0,0,0,0,0,0,0,0,0,0,0,0,0,0,0,0,0,0,0,0,0,0,0,0,0,0,0,0,0,0,0,0,0,0,0,0,0,0,0,0,0,0,0,0,0,0,0,0,0,0,0,0,0,0,0,0,0,0,0,0,0,0,0,0,0,0,0,0,0,0,0,0,0,0,0,0,0,0,0,0,0,0,0,0,0,0,0,0,0,0,0,0,0,0,0,0,0,0,0],"sum_hessian":[7.837362E4,9.61391E3,6.875971E4,7.3102485E3,2.3036619E3,3.1345574E4,3.7414133E4,1.0428325E3,6.2674165E3,8.433366E2,1.4603252E3,1.1222437E4,2.0123139E4,2.5803037E4,1.1611098E4,1.1887059E2,9.2396185E2,6.1873184E3,8.009771E1,8.2114105E2,2.2195591E1,3.03004E2,1.1573212E3,9.563927E3,1.6585098E3,1.4923774E4,5.199364E3,2.8342312E3,2.2968805E4,1.1323403E4,2.876946E2,1.8278893E1,1.005917E2,6.5446704E2,2.6949487E2,4.2239877E2,5.76492E3,4.8411884E1,3.1685822E1,7.526273E2,6.851371E1,2.797635E2,2.3240496E1,9.158695E2,2.4145168E2,6.7828506E3,2.7810764E3,1.6137791E2,1.4971318E3,1.4556316E4,3.674583E2,1.2779094E3,3.9214546E3,3.1995923E2,2.5142717E3,1.429233E4,8.676475E3,1.1077759E4,2.4564436E2,2.5284955E2,3.4845047E1,3.7896287E0,9.680207E1,3.2135536E1,6.223315E2,9.5760506E1,1.7373436E2,2.868617E2,1.3553708E2,5.55834E3,2.0657994E2,4.590409E1,2.5077922E0,3.762806E1,3.088565E1,6.232744E2,2.925951E2,1.7740524E2,6.404643E1,2.4809355E3,4.301915E3,2.7141272E3,6.6949104E1,8.792693E1,7.345097E1,1.3584805E3,1.3865135E2,3.7716837E2,1.4179147E4,3.4018497E2,2.727336E1,1.7024919E2,1.1076602E3,1.3878827E3,2.5335718E3,2.2794281E1,2.9716495E2,1.2367874E3,1.2774845E3,9.501884E3,4.7904463E3,7.8815265E2,7.8883223E3,1.1009103E4,6.865603E1,2.1181137E2,3.3832985E1,1.9942387E2,5.3425674E1,1.3378069E0,3.350724E1],"tree_param":{"num_deleted":"0","num_feature":"276","num_nodes":"111","size_leaf_vector":"1"}},{"base_weights":[-2.0764502E-2,-7.2092825E-1,6.006161E-2,-8.860125E-1,-2.8154838E-1,9.020714E-3,5.464197E-1,-4.031252E-1,-9.701444E-1,-9.2966247E-1,5.454778E-2,6.1190434E-2,-4.634972E-1,3.3848483E-2,8.5028696E-1,-9.381512E-1,9.422642E-2,-4.4425365E-1,-1.01262E0,-9.8161036E-1,9.6245676E-1,-6.680128E-1,3.9881465E-1,1.3884386E-1,-3.6037904E-1,-7.582048E-1,2.9702288E-1,-8.726419E-1,5.4721993E-1,8.9103144E-1,-1.5293739E0,-3.2844096E-1,1.0574294E0,7.5783557E-1,-8.327311E-1,1.112612E0,-8.9506483E-1,-1.0304204E0,2.2952707E-1,-3.2163545E-1,7.562511E-2,-1.9469255E-1,3.3381253E-1,4.3690667E-1,-9.0471226E-1,-5.43741E-1,5.843462E-1,2.1657E-1,-3.2028872E-1,6.7388755E-1,-5.331293E-1,-9.9127895E-1,6.694965E-1,5.9060496E-1,-1.5494927E0,4.930742E-1,-1.4849942E0,8.1253153E-1,-4.9473292E-1,-1.423134E0,9.2347753E-1,-4.989015E-1,-3.7954307E-1,3.8770327E-1,-2.9139853E-1,-3.2245344E-1,3.3380276E-1,-3.3495462E-1,1.8987888E-1,-3.0625415E-1,4.7275814E-1,-3.2169837E-1,2.9045033E-1,-8.703506E-2,-3.1853652E-1,3.0417028E-1,-3.246715E-1,3.03981E-1,-3.1504163E-1,-3.2115728E-1,3.1952506E-1,3.2224023E-1,-3.1465143E-1,1.4511257E-2,-3.8782087E-1,-3.4086287E-1,2.1289833E-1,7.8884326E-2,-2.4810484E-1,4.1330457E-1,-1.3487193E-1,-9.543254E-2,4.222141E-1,-2.8448626E-1,-1.2871715E-2,-4.1281745E-1,-1.15222864E-1,-1.2442962E-1,5.861361E-1,-4.945004E-1,2.2933246E-1,-4.288975E-1,-7.794336E-1,2.9580745E-1,-5.855848E-1,-4.9286643E-1,2.781743E-1,3.1194872E-1,-2.5617027E-1,-4.9752274E-1,3.2590672E-1,-1.1383816E0,3.789309E-1,-1.0241051E-2,2.953634E-1],"categories":[],"categories_nodes":[],"categories_segments":[],"categories_sizes":[],"default_left":[0,0,0,0,0,0,0,0,0,0,0,0,0,0,0,0,0,0,0,0,0,0,0,0,0,0,0,0,0,0,0,0,0,0,0,0,0,0,0,0,0,0,0,0,0,0,0,0,0,0,0,0,0,0,0,0,0,0,0,0,0,0,0,0,0,0,0,0,0,0,0,0,0,0,0,0,0,0,0,0,0,0,0,0,0,0,0,0,0,0,0,0,0,0,0,0,0,0,0,0,0,0,0,0,0,0,0,0,0,0,0,0,0,0,0],"id":7,"left_children":[1,3,5,7,9,11,13,15,17,19,21,23,25,27,29,31,33,35,37,39,41,43,45,47,49,51,53,55,57,59,61,-1,63,65,67,69,71,73,75,-1,77,-1,-1,79,81,83,85,87,89,91,93,95,97,99,101,103,105,107,109,111,113,-1,-1,-1,-1,-1,-1,-1,-1,-1,-1,-1,-1,-1,-1,-1,-1,-1,-1,-1,-1,-1,-1,-1,-1,-1,-1,-1,-1,-1,-1,-1,-1,-1,-1,-1,-1,-1,-1,-1,-1,-1,-1,-1,-1,-1,-1,-1,-1,-1,-1,-1,-1,-1,-1],"loss_changes":[4.154541E3,5.508425E2,1.6338066E3,2.239541E2,4.523593E2,1.4683833E3,9.735834E2,2.1857166E2,1.04583496E2,7.064691E1,3.406376E2,1.7561476E3,1.3276887E3,1.08365E3,3.8186548E2,1.248407E2,2.6294098E2,2.488784E2,9.641748E1,6.617108E1,5.432314E0,1.1597455E2,1.6249182E2,1.6166809E3,1.4912661E3,1.421176E3,8.980068E2,7.048559E2,4.113658E2,2.9106836E2,2.4168396E-1,0E0,1.5222084E1,1.6314711E2,7.490365E1,8.042822E1,9.167839E1,9.928223E1,6.517131E1,0E0,5.9541805E1,0E0,0E0,7.560986E1,1.0502176E2,6.793395E1,1.6797797E2,1.8753119E3,1.4404465E3,8.6975024E2,1.4552855E3,8.569695E2,8.358877E2,5.572634E2,2.4846863E1,3.16977E2,2.2302588E2,4.498452E2,5.58057E2,3.4720343E2,2.2261646E2,0E0,0E0,0E0,0E0,0E0,0E0,0E0,0E0,0E0,0E0,0E0,0E0,0E0,0E0,0E0,0E0,0E0,0E0,0E0,0E0,0E0,0E0,0E0,0E0,0E0,0E0,0E0,0E0,0E0,0E0,0E0,0E0,0E0,0E0,0E0,0E0,0E0,0E0,0E0,0E0,0E0,0E0,0E0,0E0,0E0,0E0,0E0,0E0,0E0,0E0,0E0,0E0,0E0,0E0],"parents":[2147483647,0,0,1,1,2,2,3,3,4,4,5,5,6,6,7,7,8,8,9,9,10,10,11,11,12,12,13,13,14,14,15,15,16,16,17,17,18,18,19,19,20,20,21,21,22,22,23,23,24,24,25,25,26,26,27,27,28,28,29,29,30,30,32,32,33,33,34,34,35,35,36,36,37,37,38,38,40,40,43,43,44,44,45,45,46,46,47,47,48,48,49,49,50,50,51,51,52,52,53,53,54,54,55,55,56,56,57,57,58,58,59,59,60,60],"right_children":[2,4,6,8,10,12,14,16,18,20,22,24,26,28,30,32,34,36,38,40,42,44,46,48,50,52,54,56,58,60,62,-1,64,66,68,70,72,74,76,-1,78,-1,-1,80,82,84,86,88,90,92,94,96,98,100,102,104,106,108,110,112,114,-1,-1,-1,-1,-1,-1,-1,-1,-1,-1,-1,-1,-1,-1,-1,-1,-1,-1,-1,-1,-1,-1,-1,-1,-1,-1,-1,-1,-1,-1,-1,-1,-1,-1,-1,-1,-1,-1,-1,-1,-1,-1,-1,-1,-1,-1,-1,-1,-1,-1,-1,-1,-1,-1],"split_conditions":[7.203625E-4,1.11866884E-1,6.3811696E-1,-2.286E-1,7.84375E0,4.918033E-2,1.58398E3,2.061158E-1,-6.301324E-1,9.680031E-1,8.9411765E-2,2.7812228E-1,2.7812228E-1,3.135294E-1,7.2289154E-2,4.1690335E0,2.1288705E-1,-2.3846154E-1,2.4833333E-1,1.3794564E0,2.9E1,4.305926E-1,-6.430498E-3,7.5714284E-1,-8.4144306E-1,4.8782608E-1,2.8571428E-3,-4.06E-1,1.020874E0,-1.032E0,1.0091743E-1,-3.2844096E-1,2.0779043E-2,1.325E-1,8.14169E-1,-6.4769155E-1,6.0539234E-1,-2.1368422E-1,-4.63E0,-3.2163545E-1,-4.2176723E-2,-1.9469255E-1,3.3381253E-1,3.5E-2,-2.0815384E-1,-1.0596266E-1,5.8E1,5.3435113E-2,-6.7E-1,-9.426896E-2,3.6423844E-1,1.8E-1,-3.2834235E-1,-2.0125E-1,8.6656165E-1,1.0184147E-1,2.187944E-1,1.6785438E-1,1.2958823E0,4.5333335E-1,-8.6880296E-1,-4.989015E-1,-3.7954307E-1,3.8770327E-1,-2.9139853E-1,-3.2245344E-1,3.3380276E-1,-3.3495462E-1,1.8987888E-1,-3.0625415E-1,4.7275814E-1,-3.2169837E-1,2.9045033E-1,-8.703506E-2,-3.1853652E-1,3.0417028E-1,-3.246715E-1,3.03981E-1,-3.1504163E-1,-3.2115728E-1,3.1952506E-1,3.2224023E-1,-3.1465143E-1,1.4511257E-2,-3.8782087E-1,-3.4086287E-1,2.1289833E-1,7.8884326E-2,-2.4810484E-1,4.1330457E-1,-1.3487193E-1,-9.543254E-2,4.222141E-1,-2.8448626E-1,-1.2871715E-2,-4.1281745E-1,-1.15222864E-1,-1.2442962E-1,5.861361E-1,-4.945004E-1,2.2933246E-1,-4.288975E-1,-7.794336E-1,2.9580745E-1,-5.855848E-1,-4.9286643E-1,2.781743E-1,3.1194872E-1,-2.5617027E-1,-4.9752274E-1,3.2590672E-1,-1.1383816E0,3.789309E-1,-1.0241051E-2,2.953634E-1],"split_indices":[19,151,145,53,2,162,4,210,196,184,65,187,187,126,159,42,190,64,107,141,27,136,202,177,205,89,88,92,127,38,159,0,137,67,188,196,41,93,3,0,187,0,0,77,110,196,25,166,90,38,145,94,181,75,155,153,129,182,81,62,189,0,0,0,0,0,0,0,0,0,0,0,0,0,0,0,0,0,0,0,0,0,0,0,0,0,0,0,0,0,0,0,0,0,0,0,0,0,0,0,0,0,0,0,0,0,0,0,0,0,0,0,0,0,0],"split_type":[0,0,0,0,0,0,0,0,0,0,0,0,0,0,0,0,0,0,0,0,0,0,0,0,0,0,0,0,0,0,0,0,0,0,0,0,0,0,0,0,0,0,0,0,0,0,0,0,0,0,0,0,0,0,0,0,0,0,0,0,0,0,0,0,0,0,0,0,0,0,0,0,0,0,0,0,0,0,0,0,0,0,0,0,0,0,0,0,0,0,0,0,0,0,0,0,0,0,0,0,0,0,0,0,0,0,0,0,0,0,0,0,0,0,0],"sum_hessian":[7.341103E4,7.596627E3,6.581441E4,5.5211846E3,2.0754421E3,5.956443E4,6.2499766E3,8.2006915E2,4.7011157E3,7.0813586E2,1.3673063E3,5.364272E4,5.921711E3,2.3265696E3,3.923407E3,3.946443E2,4.2542487E2,3.5218332E2,4.348932E3,6.8968195E2,1.8453932E1,4.409284E2,9.2637787E2,4.5299234E4,8.343483E3,4.267877E3,1.6538337E3,8.4095166E2,1.485618E3,3.8579763E3,6.54306E1,3.6633832E2,2.8305977E1,2.4803732E2,1.7738753E2,7.875091E1,2.7343243E2,4.2876587E3,6.1273438E1,6.352826E2,5.439937E1,1.2908168E0,1.7163115E1,7.7643E1,3.632854E2,1.5203975E2,7.7433813E2,3.8741285E4,6.5579497E3,1.1937178E3,7.149766E3,3.6691836E3,5.9869336E2,1.4275449E3,2.2628874E2,2.603944E2,5.8055725E2,1.1842848E3,3.0133322E2,5.2750797E1,3.8052253E3,3.9938473E1,2.5492125E1,2.5693815E1,2.6121616E0,3.9905285E1,2.0813205E2,1.4881238E2,2.8575144E1,1.38343E1,6.491661E1,2.5006625E2,2.3366173E1,1.7470662E2,4.112952E3,3.848706E1,2.2786375E1,2.9733973E1,2.4665398E1,2.2631117E1,5.5011883E1,2.4224888E1,3.3906052E2,8.543514E1,6.6604614E1,5.2021637E1,7.223165E2,3.709357E4,1.6477178E3,4.6331348E2,6.094636E3,5.0768146E2,6.860363E2,3.870771E3,3.2789949E3,2.2451714E3,1.4240122E3,3.2499417E2,2.7369922E2,1.0224115E2,1.3253038E3,2.0520198E2,2.1086761E1,2.172005E2,4.3193905E1,5.451906E2,3.5366657E1,1.0424702E3,1.4181453E2,1.735512E2,1.2778203E2,2.7797724E1,2.4953074E1,2.2813869E2,3.5770867E3],"tree_param":{"num_deleted":"0","num_feature":"276","num_nodes":"115","size_leaf_vector":"1"}},{"base_weights":[-1.8248394E-2,2.4279421E-2,-1.025757E0,-4.5402527E-1,7.485572E-2,1.4784026E-1,-1.0742469E0,-5.8507645E-1,5.212891E-1,-1.2895664E-2,3.0450758E-1,8.5582966E-1,-3.4330943E-1,-1.0692973E0,-5.392671E-1,-8.5981596E-1,-2.1165635E-1,-1.2659547E0,9.127802E-1,4.27734E-2,-5.751695E-1,6.690242E-1,3.2937065E-2,-4.9746236E-1,1.0494155E0,-3.1253737E-1,-1.125329E0,1.9241029E-1,-1.0140507E0,-9.8647505E-1,5.903838E-2,-3.1415048E-1,-4.201028E-1,-3.4082714E-1,1.2347577E0,1.4666751E-1,-2.7764806E-1,5.538338E-1,-8.1942964E-1,-8.946586E-2,9.011376E-1,-3.4915686E-1,4.2281115E-1,-5.122177E-1,1.1751031E0,-3.470048E-1,-3.2267293E-1,2.6025438E-1,-4.1704825E-1,-3.254364E-1,-4.661461E-2,1.5886953E-1,-3.562671E-1,1.7695524E0,-4.0130396E-3,2.7752793E-1,6.49246E-1,5.5311423E-2,-2.2854821E-1,1.453966E-1,-1.3402946E-1,-3.051044E-1,3.0649295E-1,-8.917959E-3,-3.223781E-1,5.459801E-1,-1.0959714E-1,-2.2222726E-1,2.9417303E-1,1.092693E-1,-2.038619E-1,-7.3396586E-2,2.2145899E-1,-2.0639667E-1,3.6430296E-1],"categories":[],"categories_nodes":[],"categories_segments":[],"categories_sizes":[],"default_left":[0,0,0,0,0,0,0,0,0,0,0,0,0,0,0,0,0,0,0,0,0,0,0,0,0,0,0,0,0,0,0,0,0,0,0,0,0,0,0,0,0,0,0,0,0,0,0,0,0,0,0,0,0,0,0,0,0,0,0,0,0,0,0,0,0,0,0,0,0,0,0,0,0,0,0],"id":8,"left_children":[1,3,5,7,9,11,13,15,17,19,21,23,-1,25,-1,27,29,31,33,35,37,39,41,-1,43,-1,45,47,49,51,53,-1,-1,-1,55,57,59,61,63,65,67,69,71,-1,73,-1,-1,-1,-1,-1,-1,-1,-1,-1,-1,-1,-1,-1,-1,-1,-1,-1,-1,-1,-1,-1,-1,-1,-1,-1,-1,-1,-1,-1,-1],"loss_changes":[2.9744846E3,1.6113798E3,1.6016187E2,8.1448694E2,1.2139905E3,1.0384594E2,7.744873E0,5.759701E2,5.2946466E2,1.364356E3,1.648647E3,3.7371136E1,0E0,2.9645996E0,0E0,5.252219E2,4.9960843E2,2.53508E0,4.103894E2,1.320364E3,1.0833304E3,1.2519141E3,1.4220726E3,0E0,2.5772568E1,0E0,1.15112305E-1,4.4397272E2,1.712207E2,1.886355E2,7.4687976E2,0E0,0E0,0E0,1.5233136E2,1.026072E3,1.2522036E3,5.147324E2,6.505625E2,8.787085E2,7.108491E2,1.1365652E3,9.9481995E2,0E0,5.674591E0,0E0,0E0,0E0,0E0,0E0,0E0,0E0,0E0,0E0,0E0,0E0,0E0,0E0,0E0,0E0,0E0,0E0,0E0,0E0,0E0,0E0,0E0,0E0,0E0,0E0,0E0,0E0,0E0,0E0,0E0],"parents":[2147483647,0,0,1,1,2,2,3,3,4,4,5,5,6,6,7,7,8,8,9,9,10,10,11,11,13,13,15,15,16,16,17,17,18,18,19,19,20,20,21,21,22,22,24,24,26,26,27,27,28,28,29,29,30,30,34,34,35,35,36,36,37,37,38,38,39,39,40,40,41,41,42,42,44,44],"right_children":[2,4,6,8,10,12,14,16,18,20,22,24,-1,26,-1,28,30,32,34,36,38,40,42,-1,44,-1,46,48,50,52,54,-1,-1,-1,56,58,60,62,64,66,68,70,72,-1,74,-1,-1,-1,-1,-1,-1,-1,-1,-1,-1,-1,-1,-1,-1,-1,-1,-1,-1,-1,-1,-1,-1,-1,-1,-1,-1,-1,-1,-1,-1],"split_conditions":[2.794963E3,2.996E0,1E0,7.7726287E-1,5.7265306E-1,-8.071572E-1,2.6666668E-1,3.263346E-1,3.1172466E-1,6.748466E-2,6.2E-1,2.2155186E-2,-3.4330943E-1,7.203625E-4,-5.392671E-1,2.2458696E0,3.1714284E-1,7.203625E-4,1.7771429E-1,2.2222222E-1,-9.3099433E-1,3.0706668E-1,1.0222223E0,-4.9746236E-1,5.01E2,-3.1253737E-1,4.494382E-2,-1.54E-1,5.018052E-1,3.4149256E-1,-6.9475245E-1,-3.1415048E-1,-4.201028E-1,-3.4082714E-1,7.366667E-1,5.07293E-1,-1.3330612E0,-7.109547E-1,-3.8513514E-1,-2.761905E-1,5.6285715E-1,1.2838461E-2,1.4566527E-1,-5.122177E-1,5.4418606E1,-3.470048E-1,-3.2267293E-1,2.6025438E-1,-4.1704825E-1,-3.254364E-1,-4.661461E-2,1.5886953E-1,-3.562671E-1,1.7695524E0,-4.0130396E-3,2.7752793E-1,6.49246E-1,5.5311423E-2,-2.2854821E-1,1.453966E-1,-1.3402946E-1,-3.051044E-1,3.0649295E-1,-8.917959E-3,-3.223781E-1,5.459801E-1,-1.0959714E-1,-2.2222726E-1,2.9417303E-1,1.092693E-1,-2.038619E-1,-7.3396586E-2,2.2145899E-1,-2.0639667E-1,3.6430296E-1],"split_indices":[16,1,29,184,178,192,170,210,127,172,176,153,0,19,0,8,177,19,118,13,185,118,81,0,26,0,159,154,193,210,183,0,0,0,51,183,178,184,91,55,177,46,184,0,6,0,0,0,0,0,0,0,0,0,0,0,0,0,0,0,0,0,0,0,0,0,0,0,0,0,0,0,0,0,0],"split_type":[0,0,0,0,0,0,0,0,0,0,0,0,0,0,0,0,0,0,0,0,0,0,0,0,0,0,0,0,0,0,0,0,0,0,0,0,0,0,0,0,0,0,0,0,0,0,0,0,0,0,0,0,0,0,0,0,0,0,0,0,0,0,0,0,0,0,0,0,0,0,0,0,0,0,0],"sum_hessian":[6.941926E4,6.6608625E4,2.8106323E3,6.368947E3,6.0239684E4,1.1143877E2,2.6991936E3,5.6148853E3,7.540617E2,4.3586105E4,1.6653576E4,7.2212036E1,3.922673E1,2.68331E3,1.5883439E1,3.234118E3,2.380767E3,1.3509398E2,6.189677E2,3.9660375E4,3.925732E3,7.109439E3,9.544137E3,4.621988E0,6.759004E1,1.8129324E3,8.703778E2,4.134202E2,2.8206978E3,6.1572174E2,1.7650454E3,5.475071E1,8.034326E1,8.37167E1,5.3525104E2,2.9949898E4,9.710476E3,6.980381E2,3.2276938E3,1.665993E3,5.443446E3,4.820216E3,4.723921E3,2.3984523E0,6.51916E1,5.20264E2,3.5011383E2,2.901134E2,1.23306786E2,2.605771E3,2.1492686E2,7.191219E1,5.438095E2,2.0634703E1,1.7444106E3,4.029783E2,1.3227274E2,2.8757229E4,1.1926705E3,1.76278E3,7.9476953E3,1.599089E2,5.381292E2,7.884984E2,2.4391953E3,2.0960155E2,1.4563915E3,2.5082948E2,5.192616E3,1.5257018E3,3.2945142E3,1.5159218E3,3.2079993E3,1.0037044E0,6.418789E1],"tree_param":{"num_deleted":"0","num_feature":"276","num_nodes":"75","size_leaf_vector":"1"}},{"base_weights":[-1.5821433E-2,3.995551E-2,-6.163522E-1,5.8068383E-2,-1.0987363E0,-9.554248E-1,-2.6045883E-1,2.3301495E-2,5.712966E-1,1.6712193E0,-1.2360157E0,-1.4476445E-1,-1.0447925E0,-1.068471E0,2.7014855E-2,-1.7291048E-1,1.2473746E-1,1.0216627E-2,9.148694E-1,-3.6298954E-1,1.125943E0,-1.3733666E0,5.566503E-1,2.9395738E0,-5.2129185E-1,6.2817305E-1,-1.0726712E0,-1.438793E0,-2.812778E-1,4.149566E-1,-7.518573E-1,-3.3312663E-1,2.6972997E-1,-1.0240126E-1,2.6924446E-1,-1.1602019E0,3.2283103E-1,9.4691044E-1,-1.337573E0,-3.2565033E-1,-1.5120226E0,3.7217346E-1,-1.7097427E0,-2.579952E-1,1.0367608E0,-3.0994225E-1,5.6093156E-1,4.2480284E-1,-3.6692593E-1,4.7901705E-1,-1.0923618E0,-1.2896687E0,-3.2857735E0,6.474852E-1,-1.383684E0,6.439533E-1,-1.4985228E0,-1.2438731E0,7.506938E-2,-1.3904361E-1,3.156485E-2,1.6839993E-1,-9.938207E-2,2.2009276E-2,-2.3864947E-1,1.8755569E-1,5.6891125E-3,-5.616379E-1,3.454116E-1,1.8504927E-1,-4.0958393E-1,-4.5681968E-1,2.9313406E-1,-3.3742526E-1,-5.9472924E-1,-4.3596402E-1,-6.431331E-1,-2.8599122E-1,-8.325792E-1,3.2209268E-1,-3.1032956E-1,3.6495185E-1,-3.7149554E-1,1.2111445E-1,-3.3294702E-1,-4.1101357E-1,1.6838424E-1,-4.060583E-1,-1.137618E0,-3.6927718E-1,3.6126986E-1,-4.906711E-1,-3.5028586E-1,-3.9380524E-1,2.4423288E-1,-3.9158368E-1,-5.1337E-1,2.2548346E-1,-4.2472157E-1,-5.182335E-1,1.08823426E-1],"categories":[],"categories_nodes":[],"categories_segments":[],"categories_sizes":[],"default_left":[0,0,0,0,0,0,0,0,0,0,0,0,0,0,0,0,0,0,0,0,0,0,0,0,0,0,0,0,0,0,0,0,0,0,0,0,0,0,0,0,0,0,0,0,0,0,0,0,0,0,0,0,0,0,0,0,0,0,0,0,0,0,0,0,0,0,0,0,0,0,0,0,0,0,0,0,0,0,0,0,0,0,0,0,0,0,0,0,0,0,0,0,0,0,0,0,0,0,0,0,0],"id":9,"left_children":[1,3,5,7,9,11,13,15,17,19,21,23,25,27,29,31,33,35,37,-1,-1,39,41,43,45,47,49,51,53,55,57,59,61,63,65,67,69,71,73,-1,75,-1,77,-1,-1,-1,79,-1,-1,81,83,85,87,89,91,93,95,97,99,-1,-1,-1,-1,-1,-1,-1,-1,-1,-1,-1,-1,-1,-1,-1,-1,-1,-1,-1,-1,-1,-1,-1,-1,-1,-1,-1,-1,-1,-1,-1,-1,-1,-1,-1,-1,-1,-1,-1,-1,-1,-1],"loss_changes":[2.2277695E3,1.2552366E3,6.818384E2,1.0688923E3,3.6442395E2,2.0952441E2,6.40927E2,1.1166852E3,7.326312E2,2.7700284E2,2.2446082E2,3.3662262E2,1.2224829E2,2.1067188E2,6.155242E2,1.3560938E3,1.2140156E3,5.288668E2,1.7138318E2,0E0,0E0,3.2052002E1,1.03441635E2,6.484839E1,1.4349239E2,6.496688E1,7.887207E1,1.3132196E2,2.3934889E2,5.9678577E2,2.7566302E2,8.0225525E2,8.9084644E2,1.7520969E3,2.0137465E3,5.0357184E2,5.6698334E2,1.7488818E2,2.3643303E0,0E0,1.7957153E1,0E0,9.906425E0,0E0,0E0,0E0,6.940151E1,0E0,0E0,4.3083427E1,6.6605225E1,6.876581E1,3.0205444E1,1.3438524E2,3.9032745E0,4.0562482E2,3.752777E0,1.4671777E2,1.3213028E2,0E0,0E0,0E0,0E0,0E0,0E0,0E0,0E0,0E0,0E0,0E0,0E0,0E0,0E0,0E0,0E0,0E0,0E0,0E0,0E0,0E0,0E0,0E0,0E0,0E0,0E0,0E0,0E0,0E0,0E0,0E0,0E0,0E0,0E0,0E0,0E0,0E0,0E0,0E0,0E0,0E0,0E0],"parents":[2147483647,0,0,1,1,2,2,3,3,4,4,5,5,6,6,7,7,8,8,9,9,10,10,11,11,12,12,13,13,14,14,15,15,16,16,17,17,18,18,21,21,22,22,23,23,24,24,25,25,26,26,27,27,28,28,29,29,30,30,31,31,32,32,33,33,34,34,35,35,36,36,37,37,38,38,40,40,42,42,46,46,49,49,50,50,51,51,52,52,53,53,54,54,55,55,56,56,57,57,58,58],"right_children":[2,4,6,8,10,12,14,16,18,20,22,24,26,28,30,32,34,36,38,-1,-1,40,42,44,46,48,50,52,54,56,58,60,62,64,66,68,70,72,74,-1,76,-1,78,-1,-1,-1,80,-1,-1,82,84,86,88,90,92,94,96,98,100,-1,-1,-1,-1,-1,-1,-1,-1,-1,-1,-1,-1,-1,-1,-1,-1,-1,-1,-1,-1,-1,-1,-1,-1,-1,-1,-1,-1,-1,-1,-1,-1,-1,-1,-1,-1,-1,-1,-1,-1,-1,-1],"split_conditions":[4.494382E-2,7.252839E-1,4.6923077E-1,2.7145204E-1,7.3660268E-3,2.0315789E-2,2.1E-2,7.333333E-2,-2.6856372E-1,1.4E0,1.6634999E-1,-6.9475245E-1,-1.9367347E0,2.526087E-1,-1.2103321E-1,3.4805736E-1,4.8E-1,3.3E1,3.8E-1,-3.6298954E-1,1.125943E0,8.6678524E-4,-7.13125E-1,-5.2520633E-3,6.510846E-1,-6.105263E-2,-6.80625E-1,2.0293166E-1,6.901339E-1,3.6666667E0,4.6074897E-1,1.1828572E0,-9.266666E-2,4.3956045E-2,6.2E-1,1.5E-1,5.6497175E-2,8.053333E-2,-8.3673847E-1,-3.2565033E-1,7.591092E-1,3.7217346E-1,1.0344828E-1,-2.579952E-1,1.0367608E0,-3.0994225E-1,4.358344E-1,4.2480284E-1,-3.6692593E-1,5.401002E-3,-3.871905E-1,4.8335713E-1,8.5E1,3.919916E-1,-8.8875E-2,4.8919983E-2,8.012379E-1,-2.1875862E1,2.6897958E-1,-1.3904361E-1,3.156485E-2,1.6839993E-1,-9.938207E-2,2.2009276E-2,-2.3864947E-1,1.8755569E-1,5.6891125E-3,-5.616379E-1,3.454116E-1,1.8504927E-1,-4.0958393E-1,-4.5681968E-1,2.9313406E-1,-3.3742526E-1,-5.9472924E-1,-4.3596402E-1,-6.431331E-1,-2.8599122E-1,-8.325792E-1,3.2209268E-1,-3.1032956E-1,3.6495185E-1,-3.7149554E-1,1.2111445E-1,-3.3294702E-1,-4.1101357E-1,1.6838424E-1,-4.060583E-1,-1.137618E0,-3.6927718E-1,3.6126986E-1,-4.906711E-1,-3.5028586E-1,-3.9380524E-1,2.4423288E-1,-3.9158368E-1,-5.1337E-1,2.2548346E-1,-4.2472157E-1,-5.182335E-1,1.08823426E-1],"split_indices":[159,189,86,133,153,117,87,87,190,176,151,183,178,94,185,193,176,21,95,0,0,19,73,182,40,101,92,151,149,18,127,81,79,167,176,175,171,117,38,0,155,0,17,0,0,0,184,0,0,129,56,56,25,145,79,151,155,3,178,0,0,0,0,0,0,0,0,0,0,0,0,0,0,0,0,0,0,0,0,0,0,0,0,0,0,0,0,0,0,0,0,0,0,0,0,0,0,0,0,0,0],"split_type":[0,0,0,0,0,0,0,0,0,0,0,0,0,0,0,0,0,0,0,0,0,0,0,0,0,0,0,0,0,0,0,0,0,0,0,0,0,0,0,0,0,0,0,0,0,0,0,0,0,0,0,0,0,0,0,0,0,0,0,0,0,0,0,0,0,0,0,0,0,0,0,0,0,0,0,0,0,0,0,0,0,0,0,0,0,0,0,0,0,0,0,0,0,0,0,0,0,0,0,0,0],"sum_hessian":[6.650725E4,6.085592E4,5.6513286E3,5.9903992E4,9.519282E2,2.8931934E3,2.7581355E3,5.6104434E4,3.7995579E3,4.4422344E1,9.075059E2,2.8753812E2,2.605655E3,7.230677E2,2.0350679E3,1.9119688E4,3.6984746E4,1.4434032E3,2.3561545E3,1.8809965E1,2.561238E1,8.431399E2,6.436602E1,3.054234E1,2.569958E2,4.235648E1,2.5632986E3,4.9117484E2,2.3189285E2,1.3587612E3,6.763066E2,1.403859E4,5.081098E3,1.4380894E4,2.2603854E4,3.0368918E2,1.139714E3,2.32368E3,3.2474735E1,2.7696274E2,5.661771E2,4.9792725E1,1.45732975E1,3.574075E0,2.6968266E1,1.7450647E2,8.248931E1,2.987693E1,1.2479549E1,3.1827854E1,2.5314707E3,4.5605173E2,3.5123123E1,1.2608258E2,1.0581027E2,1.2141238E3,1.4463747E2,4.237023E2,2.5260426E2,1.0820724E4,3.2178662E3,3.4212134E3,1.6598846E3,1.147244E4,2.9084526E3,9.331459E3,1.3272394E4,2.3232674E2,7.136244E1,9.712045E2,1.6850949E2,2.7477667E1,2.2962021E3,2.6479801E1,5.994935E0,5.2098E2,4.5197136E1,9.630828E0,4.9424696E0,6.2674335E1,1.9814972E1,2.247001E1,9.357843E0,2.8950096E1,2.5025208E3,4.373211E2,1.8730602E1,8.054913E0,2.7068213E1,2.854929E1,9.753329E1,4.5821804E1,5.998847E1,9.659998E1,1.1175238E3,7.952593E1,6.511154E1,3.333104E1,3.9037125E2,3.4077415E1,2.1852684E2],"tree_param":{"num_deleted":"0","num_feature":"276","num_nodes":"101","size_leaf_vector":"1"}},{"base_weights":[-1.3128131E-2,1.3521967E-2,-9.79406E-1,5.2173227E-2,-4.2765215E-1,2.404826E-1,-1.049533E0,1.6491454E-3,3.8182345E-1,-1.2876961E0,-2.5461778E-1,8.3893317E-1,-3.3364347E-1,-1.0457835E0,-4.440548E-1,4.3102343E-2,-5.972556E-1,1.4695454E-1,8.115505E-1,-1.1846176E0,-1.6774726E0,1.1680939E0,-3.7147152E-1,-3.9237228E-1,1.0186516E0,-3.0694708E-1,-3.2542104E-1,6.725421E-4,5.1235336E-1,-9.778751E-1,-1.3988729E-1,-1.5667322E-1,5.9660494E-1,-2.0768125E0,8.537355E-1,-3.1243932E-1,-1.3130751E0,-3.8796398E-1,-1.9079978E0,8.716896E-1,1.6331209E0,-8.5772914E-1,-6.857858E-2,-4.1340753E-1,1.134112E0,1.0760121E-2,-2.1016714E-1,-7.711581E-2,2.3104998E-1,-3.2871997E-1,1.4449063E-1,-2.4784607E-1,1.4283866E-1,5.429201E-2,-3.6622638E-1,2.1893598E-1,-4.8172748E-1,-3.8877E-1,-7.759313E-1,2.6999187E-1,-3.1025654E-1,-3.8195023E-1,-5.3023684E-1,-5.384886E-1,-7.635291E-1,-4.353521E-1,4.1731173E-1,-4.262105E-3,-3.8800558E-1,2.36474E-2,-4.6987918E-1,2.5871024E-1,3.6682284E-1],"categories":[],"categories_nodes":[],"categories_segments":[],"categories_sizes":[],"default_left":[0,0,0,0,0,0,0,0,0,0,0,0,0,0,0,0,0,0,0,0,0,0,0,0,0,0,0,0,0,0,0,0,0,0,0,0,0,0,0,0,0,0,0,0,0,0,0,0,0,0,0,0,0,0,0,0,0,0,0,0,0,0,0,0,0,0,0,0,0,0,0,0,0],"id":10,"left_children":[1,3,5,7,9,11,13,15,17,19,21,23,-1,25,-1,27,29,31,33,35,37,39,41,-1,43,-1,-1,45,47,49,51,53,55,57,59,-1,61,-1,63,65,-1,67,69,-1,71,-1,-1,-1,-1,-1,-1,-1,-1,-1,-1,-1,-1,-1,-1,-1,-1,-1,-1,-1,-1,-1,-1,-1,-1,-1,-1,-1,-1],"loss_changes":[1.6460996E3,1.0607809E3,1.4702356E2,9.526383E2,7.454093E2,7.708916E1,1.0721436E0,1.2313479E3,7.670834E2,3.1725098E1,6.941942E2,2.6717087E1,0E0,3.1103516E-1,0E0,9.235824E2,5.5879297E2,6.712923E2,3.2906458E2,1.0897888E1,1.2864838E1,3.9696335E2,5.680214E2,0E0,1.8518398E1,0E0,0E0,1.0499333E3,7.6321124E2,3.0193506E2,6.173941E2,1.0548718E3,5.8247125E2,1.2152344E1,2.320951E2,0E0,4.0548096E0,0E0,3.0710754E0,3.6105627E2,0E0,5.4393896E2,5.250359E2,0E0,3.6668396E-1,0E0,0E0,0E0,0E0,0E0,0E0,0E0,0E0,0E0,0E0,0E0,0E0,0E0,0E0,0E0,0E0,0E0,0E0,0E0,0E0,0E0,0E0,0E0,0E0,0E0,0E0,0E0,0E0],"parents":[2147483647,0,0,1,1,2,2,3,3,4,4,5,5,6,6,7,7,8,8,9,9,10,10,11,11,13,13,15,15,16,16,17,17,18,18,19,19,20,20,21,21,22,22,24,24,27,27,28,28,29,29,30,30,31,31,32,32,33,33,34,34,36,36,38,38,39,39,41,41,42,42,44,44],"right_children":[2,4,6,8,10,12,14,16,18,20,22,24,-1,26,-1,28,30,32,34,36,38,40,42,-1,44,-1,-1,46,48,50,52,54,56,58,60,-1,62,-1,64,66,-1,68,70,-1,72,-1,-1,-1,-1,-1,-1,-1,-1,-1,-1,-1,-1,-1,-1,-1,-1,-1,-1,-1,-1,-1,-1,-1,-1,-1,-1,-1,-1],"split_conditions":[5.48331E3,4.812834E-2,1E0,2.2324E3,-1.4285714E-4,-8.071572E-1,4.3333333E-2,3.937008E-2,3.454632E-1,1.0333333E-1,-1.1664989E0,2.2155186E-2,-3.3364347E-1,7.203625E-4,-4.440548E-1,3.6571428E-1,4.3389913E-1,2.1894306E-1,2.2433333E-1,8.6678524E-4,3.995E0,1.73E-1,4.2857143E-1,-3.9237228E-1,5.01E2,-3.0694708E-1,-3.2542104E-1,6.6125E-1,-9.885714E-1,9.5E-2,-8.55E-1,3.11E2,2.682065E-1,6.995E0,-1.38375E-1,-3.1243932E-1,5.0083333E-1,-3.8796398E-1,9.1790265E-1,7.4074075E-2,1.6331209E0,-5.4E-1,1.4678423E-1,-4.1340753E-1,5.7213567E-2,1.0760121E-2,-2.1016714E-1,-7.711581E-2,2.3104998E-1,-3.2871997E-1,1.4449063E-1,-2.4784607E-1,1.4283866E-1,5.429201E-2,-3.6622638E-1,2.1893598E-1,-4.8172748E-1,-3.8877E-1,-7.759313E-1,2.6999187E-1,-3.1025654E-1,-3.8195023E-1,-5.3023684E-1,-5.384886E-1,-7.635291E-1,-4.353521E-1,4.1731173E-1,-4.262105E-3,-3.8800558E-1,2.36474E-2,-4.6987918E-1,2.5871024E-1,3.6682284E-1],"split_indices":[4,158,29,23,55,192,100,159,135,100,190,153,0,19,0,63,145,210,74,19,1,78,177,0,26,0,0,47,177,77,49,26,188,1,115,0,93,0,155,161,0,83,131,0,129,0,0,0,0,0,0,0,0,0,0,0,0,0,0,0,0,0,0,0,0,0,0,0,0,0,0,0,0],"split_type":[0,0,0,0,0,0,0,0,0,0,0,0,0,0,0,0,0,0,0,0,0,0,0,0,0,0,0,0,0,0,0,0,0,0,0,0,0,0,0,0,0,0,0,0,0,0,0,0,0,0,0,0,0,0,0,0,0,0,0,0,0,0,0,0,0,0,0,0,0,0,0,0,0],"sum_hessian":[6.3921203E4,6.2206523E4,1.7146799E3,5.719643E4,5.0100967E3,9.3080246E1,1.6215997E3,4.959606E4,7.6003706E3,8.3808185E2,4.1720146E3,6.47932E1,2.8287045E1,1.6110022E3,1.0597538E1,4.638635E4,3.2097039E3,4.915259E3,2.6851116E3,6.6599506E2,1.7208678E2,3.1597507E2,3.8560398E3,4.5201287E0,6.027307E1,1.036307E3,5.746951E2,4.2540805E4,3.845549E3,1.7512144E3,1.4584895E3,2.9344287E3,1.9808302E3,3.7957737E1,2.6471538E3,3.192877E2,3.4670737E2,6.700572E1,1.0508106E2,2.966163E2,1.935874E1,1.4793278E3,2.376712E3,2.2676263E0,5.8005444E1,4.0508637E4,2.0321687E3,9.65163E2,2.880386E3,1.6205975E3,1.3061685E2,6.897451E2,7.687444E2,2.228217E3,7.062118E2,1.8685062E3,1.1232399E2,1.638831E1,2.1569427E1,2.5843826E3,6.2771137E1,3.2221008E2,2.4497295E1,9.2488846E1,1.2592218E1,5.3872E1,2.4274431E2,5.0414822E2,9.7517957E2,2.1646162E3,2.1209569E2,1.6904778E1,4.1100666E1],"tree_param":{"num_deleted":"0","num_feature":"276","num_nodes":"73","size_leaf_vector":"1"}},{"base_weights":[-1.1886961E-2,8.398911E-3,-9.644087E-1,-2.6308304E-1,6.3015506E-2,2.763144E-1,-3.1110096E-1,-6.28264E-1,-1.14057995E-1,1.104435E0,4.786082E-2,7.696392E-1,-3.145626E-1,-7.6827836E-1,6.338769E-1,-2.3261459E-1,6.3833135E-1,1.2426044E0,-1.7161081E0,-8.2899705E-2,1.6179974E-1,-3.6265922E-1,9.3466616E-1,-1.192032E0,-3.2275626E-1,1.3786874E0,-1.433517E0,-5.5802983E-1,1.2973574E-1,9.5628035E-1,-6.468352E-1,1.3058065E0,-4.955393E-1,-2.0671701E0,-3.1276503E-1,-1.7284168E-1,4.91171E-1,8.608778E-2,6.2388045E-1,-3.2464233E-1,1.0380988E0,-3.7579218E-1,1.4624292E-1,2.9247993E-1,-1.6611114E-1,-4.258093E-1,4.47414E-1,-3.8374555E-1,-4.9340007E-1,-3.227543E-1,-9.842226E-2,-1.5149666E-1,1.4158629E-1,-4.285497E-1,3.2287964E-1,-3.9090046E-1,1.9292499E-1,4.038227E-1,-5.566186E-1,-5.0319755E-1,-7.9570955E-1,1.3520855E-1,-8.120069E-2,-3.188134E-1,1.7801628E-1,1.435294E-1,1.0376839E-3,-1.959989E-1,2.2288303E-1,-2.5957328E-1,3.301005E-1],"categories":[],"categories_nodes":[],"categories_segments":[],"categories_sizes":[],"default_left":[0,0,0,0,0,0,0,0,0,0,0,0,0,0,0,0,0,0,0,0,0,0,0,0,0,0,0,0,0,0,0,0,0,0,0,0,0,0,0,0,0,0,0,0,0,0,0,0,0,0,0,0,0,0,0,0,0,0,0,0,0,0,0,0,0,0,0,0,0,0,0],"id":11,"left_children":[1,3,5,7,9,11,-1,13,15,17,19,21,-1,23,25,27,29,31,33,35,37,-1,39,41,43,45,47,49,51,53,55,57,-1,59,-1,61,63,65,67,-1,69,-1,-1,-1,-1,-1,-1,-1,-1,-1,-1,-1,-1,-1,-1,-1,-1,-1,-1,-1,-1,-1,-1,-1,-1,-1,-1,-1,-1,-1,-1],"loss_changes":[1.1953488E3,8.9815594E2,1.1647717E2,5.5204333E2,7.9583105E2,4.792758E1,0E0,5.200425E2,6.429475E2,2.8399774E2,7.405744E2,1.8470871E1,0E0,4.993274E2,4.5488095E2,7.342073E2,4.015558E2,1.2839282E2,5.9308395E0,1.1951495E3,9.2921985E2,0E0,1.1467148E1,1.3866357E2,3.8765356E2,7.045886E1,4.5129395E-1,3.9025745E2,6.4029034E2,2.2672931E2,1.6605603E2,8.853601E1,0E0,4.4734192E-1,0E0,1.2207705E3,4.9862567E2,7.399177E2,5.691177E2,0E0,6.599743E0,0E0,0E0,0E0,0E0,0E0,0E0,0E0,0E0,0E0,0E0,0E0,0E0,0E0,0E0,0E0,0E0,0E0,0E0,0E0,0E0,0E0,0E0,0E0,0E0,0E0,0E0,0E0,0E0,0E0,0E0],"parents":[2147483647,0,0,1,1,2,2,3,3,4,4,5,5,7,7,8,8,9,9,10,10,11,11,13,13,14,14,15,15,16,16,17,17,18,18,19,19,20,20,22,22,23,23,24,24,25,25,26,26,27,27,28,28,29,29,30,30,31,31,33,33,35,35,36,36,37,37,38,38,40,40],"right_children":[2,4,6,8,10,12,-1,14,16,18,20,22,-1,24,26,28,30,32,34,36,38,-1,40,42,44,46,48,50,52,54,56,58,-1,60,-1,62,64,66,68,-1,70,-1,-1,-1,-1,-1,-1,-1,-1,-1,-1,-1,-1,-1,-1,-1,-1,-1,-1,-1,-1,-1,-1,-1,-1,-1,-1,-1,-1,-1,-1],"split_conditions":[2.794963E3,3.995E0,1E0,-5.4658365E-2,4.226297E-3,-8.071572E-1,-3.1110096E-1,1.4083333E-1,2.0882058E-1,1E0,-1.7130435E-1,4.5524143E-2,-3.145626E-1,-1.2092308E-1,-4.9E-1,2.7666667E-1,2.4193819E0,2.7210884E-2,-1.9238095E-1,1.2495935E0,5.382876E-1,-3.6265922E-1,9E-3,1.9670277E0,-3.025E-1,1.07962646E-1,2.997E0,-4.709174E-1,6.9714284E-1,-1.17142856E-1,6.3811696E-1,4.6448514E-1,-4.955393E-1,6.2803316E-1,-3.1276503E-1,-1.2184495E0,-2.5E-2,-8.886472E-1,1.4952381E-1,-3.2464233E-1,4.0189292E-2,-3.7579218E-1,1.4624292E-1,2.9247993E-1,-1.6611114E-1,-4.258093E-1,4.47414E-1,-3.8374555E-1,-4.9340007E-1,-3.227543E-1,-9.842226E-2,-1.5149666E-1,1.4158629E-1,-4.285497E-1,3.2287964E-1,-3.9090046E-1,1.9292499E-1,4.038227E-1,-5.566186E-1,-5.0319755E-1,-7.9570955E-1,1.3520855E-1,-8.120069E-2,-3.188134E-1,1.7801628E-1,1.435294E-1,1.0376839E-3,-1.959989E-1,2.2288303E-1,-2.5957328E-1,3.301005E-1],"split_indices":[16,1,29,202,153,192,0,114,133,31,98,125,0,112,140,74,8,162,115,155,185,0,78,139,48,147,1,39,178,78,145,210,0,141,0,181,88,194,101,0,137,0,0,0,0,0,0,0,0,0,0,0,0,0,0,0,0,0,0,0,0,0,0,0,0,0,0,0,0,0,0],"split_type":[0,0,0,0,0,0,0,0,0,0,0,0,0,0,0,0,0,0,0,0,0,0,0,0,0,0,0,0,0,0,0,0,0,0,0,0,0,0,0,0,0,0,0,0,0,0,0,0,0,0,0,0,0,0,0,0,0,0,0,0,0,0,0,0,0,0,0,0,0,0,0],"sum_hessian":[6.186088E4,6.057187E4,1.289009E3,1.0144236E4,5.0427633E4,7.1095634E1,1.2179133E3,2.939028E3,7.2052085E3,7.2226404E2,4.970537E4,5.2110714E1,1.8984917E1,2.6458992E3,2.9312894E2,6.225004E3,9.8020465E2,6.8906824E2,3.3195812E1,2.3144342E4,2.656103E4,3.5249505E0,4.8585766E1,1.3552203E3,1.2906788E3,2.1573883E2,7.739011E1,3.2793684E3,2.9456355E3,7.8600397E2,1.9420071E2,6.748804E2,1.4187843E1,2.046192E1,1.2733892E1,2.0009994E4,3.1343477E3,2.282271E4,3.7383174E3,1.9085802E0,4.6677185E1,1.3082632E3,4.6957222E1,1.9450998E2,1.096169E3,7.9036465E0,2.0783517E2,4.878377E1,2.8606333E1,1.0073415E3,2.2720269E3,1.0316755E3,1.9139601E3,3.7129345E1,7.488746E2,1.2871484E2,6.548587E1,6.669585E2,7.921861E0,1.4601179E1,5.860741E0,2.7131516E3,1.7296842E4,1.9287596E2,2.9414717E3,3.9695327E3,1.885318E4,3.1839114E2,3.4199263E3,1.0694046E0,4.560778E1],"tree_param":{"num_deleted":"0","num_feature":"276","num_nodes":"71","size_leaf_vector":"1"}},{"base_weights":[-8.970742E-3,6.5110447E-3,-9.5447314E-1,1.8341219E-2,-9.742377E-1,1.6288912E-1,-3.082131E-1,3.5414353E-2,-6.4198536E-1,1.3245034E0,-1.1171336E0,6.74849E-1,-3.1322265E-1,1.6111696E-1,-5.355531E-2,4.130349E-1,-9.6420956E-1,-3.8018155E-1,5.657303E-1,-1.2705772E0,4.5275876E-1,-3.1105798E-1,8.530053E-1,-6.7027533E-1,1.9679809E-1,-1.23112716E-1,3.2983518E-1,-1.2196653E0,1.0275555E0,8.7906206E-1,-1.2784826E0,-1.1715074E0,-1.4521102E0,-1.3518493E0,3.4822893E-1,-3.037596E-1,9.8345655E-1,-4.0502262E-1,6.529731E-2,-4.266464E-2,8.251206E-2,-6.947793E-2,7.117558E-2,1.3712564E-1,-3.2323438E-1,-3.13873E-1,-4.765984E-1,-5.33761E-1,4.0700477E-1,-4.7454378E-1,5.0834316E-1,-4.1250235E-1,4.439824E-4,-3.1799874E-1,-3.7169597E-1,-4.1893828E-1,-5.053653E-1,-2.8528172E-1,-5.4702365E-1,2.1509428E-1,3.20302E-1],"categories":[],"categories_nodes":[],"categories_segments":[],"categories_sizes":[],"default_left":[0,0,0,0,0,0,0,0,0,0,0,0,0,0,0,0,0,0,0,0,0,0,0,0,0,0,0,0,0,0,0,0,0,0,0,0,0,0,0,0,0,0,0,0,0,0,0,0,0,0,0,0,0,0,0,0,0,0,0,0,0],"id":12,"left_children":[1,3,5,7,9,11,-1,13,15,17,19,21,-1,23,25,27,29,-1,-1,31,33,-1,35,37,39,41,43,45,47,49,51,53,55,57,-1,-1,59,-1,-1,-1,-1,-1,-1,-1,-1,-1,-1,-1,-1,-1,-1,-1,-1,-1,-1,-1,-1,-1,-1,-1,-1],"loss_changes":[8.79026E2,6.855338E2,7.8974976E1,6.581967E2,2.3280139E2,3.7853043E1,0E0,6.364757E2,5.0063007E2,6.3008194E1,1.6041644E2,1.3942659E1,0E0,6.9982043E2,8.887352E2,3.4737158E2,6.5427563E2,0E0,0E0,9.174438E0,7.799738E1,0E0,1.0567816E1,5.8630493E2,5.999445E2,1.1027756E3,9.1697943E2,4.403824E0,2.3444727E2,3.3342844E2,1.1906287E2,1.6694336E0,3.5531616E-1,1.5400181E0,0E0,0E0,7.0884705E-2,0E0,0E0,0E0,0E0,0E0,0E0,0E0,0E0,0E0,0E0,0E0,0E0,0E0,0E0,0E0,0E0,0E0,0E0,0E0,0E0,0E0,0E0,0E0,0E0],"parents":[2147483647,0,0,1,1,2,2,3,3,4,4,5,5,7,7,8,8,9,9,10,10,11,11,13,13,14,14,15,15,16,16,19,19,20,20,22,22,23,23,24,24,25,25,26,26,27,27,28,28,29,29,30,30,31,31,32,32,33,33,36,36],"right_children":[2,4,6,8,10,12,-1,14,16,18,20,22,-1,24,26,28,30,-1,-1,32,34,-1,36,38,40,42,44,46,48,50,52,54,56,58,-1,-1,60,-1,-1,-1,-1,-1,-1,-1,-1,-1,-1,-1,-1,-1,-1,-1,-1,-1,-1,-1,-1,-1,-1,-1,-1],"split_conditions":[5.48331E3,7.252839E-1,1E0,1.097561E-1,7.3660268E-3,-8.071572E-1,-3.082131E-1,4.2538855E-2,-2.75E-2,7.0679467E-3,1.6634999E-1,2.2155186E-2,-3.1322265E-1,-5.082643E-1,1.3142857E-1,1.09304346E-1,-1.0325E0,-3.8018155E-1,5.657303E-1,2.0689656E-1,1.3246153E-1,-3.1105798E-1,9E-3,1.5445378E-1,3E-1,4.9658668E-1,1.77E2,1.6666667E-1,2.9E-1,2.6108E1,1.6552787E-1,8.484945E-4,3.6423844E-1,8.6678524E-4,3.4822893E-1,-3.037596E-1,6.619015E-2,-4.0502262E-1,6.529731E-2,-4.266464E-2,8.251206E-2,-6.947793E-2,7.117558E-2,1.3712564E-1,-3.2323438E-1,-3.13873E-1,-4.765984E-1,-5.33761E-1,4.0700477E-1,-4.7454378E-1,5.0834316E-1,-4.1250235E-1,4.439824E-4,-3.1799874E-1,-3.7169597E-1,-4.1893828E-1,-5.053653E-1,-2.8528172E-1,-5.4702365E-1,2.1509428E-1,3.20302E-1],"split_indices":[4,189,29,172,153,192,0,153,95,153,151,153,0,46,91,118,63,0,0,132,108,0,78,151,14,127,26,17,176,3,151,19,145,19,0,0,232,0,0,0,0,0,0,0,0,0,0,0,0,0,0,0,0,0,0,0,0,0,0,0,0],"split_type":[0,0,0,0,0,0,0,0,0,0,0,0,0,0,0,0,0,0,0,0,0,0,0,0,0,0,0,0,0,0,0,0,0,0,0,0,0,0,0,0,0,0,0,0,0,0,0,0,0,0,0,0,0,0,0,0,0,0,0,0,0],"sum_hessian":[6.0049273E4,5.9082836E4,9.6643744E2,5.837962E4,7.0321643E2,5.9118793E1,9.073186E2,5.6909145E4,1.4704733E3,4.067157E1,6.6254486E2,4.1820576E1,1.729822E1,2.3585326E4,3.332382E4,3.439703E2,1.1265029E3,7.015925E0,3.3655643E1,6.0372644E2,5.8818413E1,3.4880257E0,3.833255E1,9.6983276E2,2.2615492E4,2.8206988E4,5.116832E3,9.379216E1,2.5017815E2,1.6382729E2,9.626756E2,3.953964E2,2.0833006E2,1.6317616E1,4.2500797E1,2.0633626E0,3.6269188E1,5.489993E2,4.2083344E2,4.240613E3,1.8374879E4,2.168079E4,6.5261997E3,4.6931406E3,4.236911E2,6.6414055E1,2.7378107E1,2.579505E1,2.243831E2,4.0540016E1,1.2328726E2,8.950996E2,6.7576004E1,1.5536269E2,2.400337E2,1.7374184E2,3.4588238E1,1.0449929E1,5.867687E0,1.0994458E1,2.5274729E1],"tree_param":{"num_deleted":"0","num_feature":"276","num_nodes":"61","size_leaf_vector":"1"}},{"base_weights":[-7.7450387E-3,3.9519183E-3,-9.4458014E-1,-7.257586E-2,1.4938366E-1,1.4179166E-1,-3.0602267E-1,2.0395927E-1,-1.5210359E-1,-9.458638E-1,1.8368945E-1,6.0982347E-1,-3.014893E-1,-1.828398E0,2.6083997E-1,-8.373158E-1,-1.0936432E-1,-2.7565077E-2,-1.4955606E0,2.0146558E-1,-1.7761781E0,-3.03406E-1,7.758131E-1,-2.3651245E0,8.7401026E-1,3.3158395E-1,-1.0183207E0,-1.2158576E0,6.95316E-1,-5.9343696E-1,-5.0715555E-2,-1.489816E0,9.557323E-1,-1.669023E0,4.766852E-1,2.35367E-1,-7.845967E-1,-1.8739305E0,-3.6861295E-1,9.186759E-1,-3.116437E-1,-5.9502435E-1,-1.127548E0,3.1974587E-1,-7.779804E-1,-3.675328E-1,1.128794E-1,2.6358628E-1,-4.1346917E-1,-2.6897253E-2,-4.4386026E-1,2.5432453E-1,-5.9261847E-1,-1.2825017E-1,-5.7681817E-1,-1.7378533E-1,2.0020746E-3,-2.986304E-1,-4.7761196E-1,-5.935979E-1,3.4049875E-1,-4.4807532E-1,-6.56127E-1,-7.720198E-1,3.2024288E-1,7.434806E-2,-5.6056464E-1,-5.038467E-1,4.4470675E-2,-8.4317076E-1,-5.498925E-1,1.9072908E-1,3.0606067E-1],"categories":[],"categories_nodes":[],"categories_segments":[],"categories_sizes":[],"default_left":[0,0,0,0,0,0,0,0,0,0,0,0,0,0,0,0,0,0,0,0,0,0,0,0,0,0,0,0,0,0,0,0,0,0,0,0,0,0,0,0,0,0,0,0,0,0,0,0,0,0,0,0,0,0,0,0,0,0,0,0,0,0,0,0,0,0,0,0,0,0,0,0,0],"id":13,"left_children":[1,3,5,7,9,11,-1,13,15,17,19,21,-1,23,25,27,29,31,33,35,37,-1,39,41,43,45,47,49,51,53,55,57,59,61,63,65,67,69,-1,71,-1,-1,-1,-1,-1,-1,-1,-1,-1,-1,-1,-1,-1,-1,-1,-1,-1,-1,-1,-1,-1,-1,-1,-1,-1,-1,-1,-1,-1,-1,-1,-1,-1],"loss_changes":[6.434966E2,6.455233E2,5.9536987E1,8.35804E2,7.5155115E2,2.6338736E1,0E0,9.8176855E2,8.642862E2,3.0662274E2,6.759224E2,1.0111997E1,0E0,3.3745612E2,7.476564E2,1.00613245E3,7.8876025E2,3.2997385E2,1.3080042E2,6.4261224E2,7.0307007E0,0E0,9.252199E0,9.5293335E1,2.8731169E1,5.448114E2,2.968568E2,4.126079E2,1.4165291E2,6.6142834E2,7.517586E2,3.0781708E0,7.443666E1,2.8500122E1,5.950585E1,4.8752234E2,5.336654E2,4.5178223E-1,0E0,2.1891022E-1,0E0,0E0,0E0,0E0,0E0,0E0,0E0,0E0,0E0,0E0,0E0,0E0,0E0,0E0,0E0,0E0,0E0,0E0,0E0,0E0,0E0,0E0,0E0,0E0,0E0,0E0,0E0,0E0,0E0,0E0,0E0,0E0,0E0],"parents":[2147483647,0,0,1,1,2,2,3,3,4,4,5,5,7,7,8,8,9,9,10,10,11,11,13,13,14,14,15,15,16,16,17,17,18,18,19,19,20,20,22,22,23,23,24,24,25,25,26,26,27,27,28,28,29,29,30,30,31,31,32,32,33,33,34,34,35,35,36,36,37,37,39,39],"right_children":[2,4,6,8,10,12,-1,14,16,18,20,22,-1,24,26,28,30,32,34,36,38,-1,40,42,44,46,48,50,52,54,56,58,60,62,64,66,68,70,-1,72,-1,-1,-1,-1,-1,-1,-1,-1,-1,-1,-1,-1,-1,-1,-1,-1,-1,-1,-1,-1,-1,-1,-1,-1,-1,-1,-1,-1,-1,-1,-1,-1,-1],"split_conditions":[5.48331E3,1.2507318E3,1E0,1.8365917E0,4.5846155E-1,-8.071572E-1,-3.0602267E-1,2.018398E-2,-9.532937E-1,3.478261E-1,7.866333E-1,4.5524143E-2,-3.014893E-1,1.4443353E0,7.170298E-1,1.1828734E0,5.6153845E-2,1.1105069E0,1.6705199E-1,5.756474E-1,3.1395721E0,-3.03406E-1,-4.391734E-1,1.7083333E-1,2.925E-1,-1.3781888E0,4.0529412E-1,-1.80625E-1,-7.186739E-1,2.5836148E-3,5.964052E-2,9.58601E-4,9.953662E-2,6.632544E-1,1.8553846E0,8.385714E-1,-5.6428563E-2,-4.7428572E-1,-3.6861295E-1,-5.039749E-1,-3.116437E-1,-5.9502435E-1,-1.127548E0,3.1974587E-1,-7.779804E-1,-3.675328E-1,1.128794E-1,2.6358628E-1,-4.1346917E-1,-2.6897253E-2,-4.4386026E-1,2.5432453E-1,-5.9261847E-1,-1.2825017E-1,-5.7681817E-1,-1.7378533E-1,2.0020746E-3,-2.986304E-1,-4.7761196E-1,-5.935979E-1,3.4049875E-1,-4.4807532E-1,-6.56127E-1,-7.720198E-1,3.2024288E-1,7.434806E-2,-5.6056464E-1,-5.038467E-1,4.4470675E-2,-8.4317076E-1,-5.498925E-1,1.9072908E-1,3.0606067E-1],"split_indices":[4,16,29,8,136,192,0,147,184,14,37,125,0,141,181,141,95,139,151,190,8,0,220,85,93,199,103,123,44,19,133,19,191,155,50,122,199,62,0,216,0,0,0,0,0,0,0,0,0,0,0,0,0,0,0,0,0,0,0,0,0,0,0,0,0,0,0,0,0,0,0,0,0],"split_type":[0,0,0,0,0,0,0,0,0,0,0,0,0,0,0,0,0,0,0,0,0,0,0,0,0,0,0,0,0,0,0,0,0,0,0,0,0,0,0,0,0,0,0,0,0,0,0,0,0,0,0,0,0,0,0,0,0,0,0,0,0,0,0,0,0,0,0,0,0,0,0,0,0],"sum_hessian":[5.8721926E4,5.7998773E4,7.2315424E2,3.8002137E4,1.9996637E4,4.693182E1,6.762224E2,8.487544E3,2.9514592E4,6.065129E2,1.9390125E4,3.366156E1,1.3270259E1,2.3023029E2,8.257313E3,1.73176E3,2.7782832E4,2.2750444E2,3.7900845E2,1.9216725E4,1.7339975E2,2.653422E0,3.1008139E1,1.9218512E2,3.804516E1,7.8252773E3,4.3203616E2,1.38892E3,3.4284003E2,3.0013447E3,2.4781486E4,9.126706E1,1.3623738E2,3.4851013E2,3.0498323E1,1.8578738E4,6.37987E2,1.450735E2,2.8326252E1,2.9202784E1,1.8053546E0,1.5276027E2,3.9424854E1,3.6707134E1,1.3380256E0,2.1759982E2,7.6076772E3,6.866883E1,3.6336734E2,2.6374927E2,1.1251707E3,3.249745E2,1.7865534E1,2.669438E3,3.3190665E2,2.4262253E3,2.2355262E4,1.7477768E1,7.378929E1,7.2657332E0,1.2897165E2,2.6324692E2,8.526321E1,4.4043055E0,2.6094017E1,1.8470234E4,1.0850286E2,3.2520663E2,3.1278033E2,3.244672E0,1.4182883E2,9.629989E0,1.9572794E1],"tree_param":{"num_deleted":"0","num_feature":"276","num_nodes":"73","size_leaf_vector":"1"}},{"base_weights":[-6.903666E-3,4.9731773E-3,-8.1849736E-1,1.5386804E-2,-8.892965E-1,9.7963974E-2,-1.1064734E0,5.7942025E-2,-1.9939405E-1,-1.2717763E0,2.5705665E-1,-1.1599815E0,9.178381E-1,-1.1466846E0,4.3397146E-1,9.110855E-1,4.4490755E-2,-8.180824E-1,-7.42492E-2,-1.1994872E0,-1.5693878E0,1.0323381E0,-1.4912007E0,-3.2721394E-1,-1.5043528E0,-1.376833E0,1.3341672E0,1.0983871E-1,-1.170925E0,-3.2036945E-1,2.995297E-1,9.9798656E-1,-1.5491174E0,-9.630067E-1,5.5218052E-2,-1.1766244E0,1.7993157E-1,-3.150897E-1,3.632588E-1,-3.1015486E-1,-1.248282E0,-4.365811E-1,-5.526327E-1,-4.062205E-1,1.229119E0,-3.5548067E-1,-6.393333E-1,-2.5526288E-1,-5.295422E-1,-2.8928894E-1,-4.7312537E-1,1.5622337E0,-3.4018043E-1,-3.805374E-1,2.5685665E-1,-3.0875206E-1,-1.3304296E0,3.1563395E-1,-5.0996745E-1,-5.1214296E-1,-2.6241925E-1,2.403105E-1,-3.577019E-1,1.3965707E-1,6.964697E-3,-4.2457148E-1,1.9117288E-1,-6.287096E-1,1.5739787E-1,-4.6697125E-2,-2.665758E-1,-1.23263046E-1,1.6769259E-1,-3.9523128E-1,-3.3716896E-1,-4.93533E-1,4.0286437E-1,3.3245474E-1,7.080169E-1,-3.917156E-1,-7.1185845E-1],"categories":[],"categories_nodes":[],"categories_segments":[],"categories_sizes":[],"default_left":[0,0,0,0,0,0,0,0,0,0,0,0,0,0,0,0,0,0,0,0,0,0,0,0,0,0,0,0,0,0,0,0,0,0,0,0,0,0,0,0,0,0,0,0,0,0,0,0,0,0,0,0,0,0,0,0,0,0,0,0,0,0,0,0,0,0,0,0,0,0,0,0,0,0,0,0,0,0,0,0,0],"id":14,"left_children":[1,3,5,7,9,11,13,15,17,19,21,23,25,27,29,31,33,35,37,39,41,43,45,-1,47,49,51,53,55,-1,-1,57,59,61,63,65,67,69,71,-1,73,-1,-1,-1,75,-1,-1,-1,-1,-1,-1,77,-1,-1,-1,-1,79,-1,-1,-1,-1,-1,-1,-1,-1,-1,-1,-1,-1,-1,-1,-1,-1,-1,-1,-1,-1,-1,-1,-1,-1],"loss_changes":[5.53682E2,5.2722675E2,2.1875574E2,5.1150928E2,2.8605933E2,2.0630582E2,3.95506E1,5.359817E2,7.164834E2,8.63385E0,2.2364326E2,2.4279785E-1,1.1746798E2,1.885138E1,1.5277989E1,1.5653821E2,4.9704315E2,5.573259E2,8.1132214E2,1.9223633E0,1.9132996E-1,5.5252426E1,7.4213104E0,0E0,3.0223465E-1,5.5423737E-2,5.9725006E1,1.3994365E1,1.2267944E1,0E0,0E0,1.0412927E2,1.1843643E0,1.9696771E2,5.974543E2,4.9671484E2,3.245908E2,4.539123E2,4.144309E2,0E0,1.1192322E0,0E0,0E0,0E0,3.6851227E1,0E0,0E0,0E0,0E0,0E0,0E0,3.1678497E1,0E0,0E0,0E0,0E0,4.1243286E0,0E0,0E0,0E0,0E0,0E0,0E0,0E0,0E0,0E0,0E0,0E0,0E0,0E0,0E0,0E0,0E0,0E0,0E0,0E0,0E0,0E0,0E0,0E0,0E0],"parents":[2147483647,0,0,1,1,2,2,3,3,4,4,5,5,6,6,7,7,8,8,9,9,10,10,11,11,12,12,13,13,14,14,15,15,16,16,17,17,18,18,19,19,20,20,21,21,22,22,24,24,25,25,26,26,27,27,28,28,31,31,32,32,33,33,34,34,35,35,36,36,37,37,38,38,40,40,44,44,51,51,56,56],"right_children":[2,4,6,8,10,12,14,16,18,20,22,24,26,28,30,32,34,36,38,40,42,44,46,-1,48,50,52,54,56,-1,-1,58,60,62,64,66,68,70,72,-1,74,-1,-1,-1,76,-1,-1,-1,-1,-1,-1,78,-1,-1,-1,-1,80,-1,-1,-1,-1,-1,-1,-1,-1,-1,-1,-1,-1,-1,-1,-1,-1,-1,-1,-1,-1,-1,-1,-1,-1],"split_conditions":[8E-2,7.202288E-1,-5.96004E-1,2.7210884E-2,4.58924E-1,-6.8355966E-1,7.9103446E-1,4.8255464E-3,1.15384616E-1,2.5333333E-1,5.7142857E-2,4.8161034E1,5.179863E1,-1.4179965E0,4.6458778E-1,2.739726E-2,-1.5188888E0,1.6906568E-1,8E-2,8.6678524E-4,4.8045453E-1,1.04125E0,3.996E0,-3.2721394E-1,3.2197115E-1,4.724E0,6.125238E1,1.2889452E-1,8.2732877E-4,-3.2036945E-1,2.995297E-1,4.6476576E-1,5.5E1,-4.704286E-1,-1.2184495E0,6.91125E-1,8E1,5.6603774E-2,-2.4285714E-1,-3.1015486E-1,7.252839E-1,-4.365811E-1,-5.526327E-1,-4.062205E-1,-8.383333E-1,-3.5548067E-1,-6.393333E-1,-2.5526288E-1,-5.295422E-1,-2.8928894E-1,-4.7312537E-1,2.8526315E-1,-3.4018043E-1,-3.805374E-1,2.5685665E-1,-3.0875206E-1,6.7156655E-1,3.1563395E-1,-5.0996745E-1,-5.1214296E-1,-2.6241925E-1,2.403105E-1,-3.577019E-1,1.3965707E-1,6.964697E-3,-4.2457148E-1,1.9117288E-1,-6.287096E-1,1.5739787E-1,-4.6697125E-2,-2.665758E-1,-1.23263046E-1,1.6769259E-1,-3.9523128E-1,-3.3716896E-1,-4.93533E-1,4.0286437E-1,3.3245474E-1,7.080169E-1,-3.917156E-1,-7.1185845E-1],"split_indices":[159,187,38,162,145,38,208,153,13,132,5,15,3,191,143,166,154,151,162,19,60,146,1,0,143,1,3,129,19,0,0,194,28,55,181,53,25,162,177,0,189,0,0,0,83,0,0,0,0,0,0,101,0,0,0,0,208,0,0,0,0,0,0,0,0,0,0,0,0,0,0,0,0,0,0,0,0,0,0,0,0],"split_type":[0,0,0,0,0,0,0,0,0,0,0,0,0,0,0,0,0,0,0,0,0,0,0,0,0,0,0,0,0,0,0,0,0,0,0,0,0,0,0,0,0,0,0,0,0,0,0,0,0,0,0,0,0,0,0,0,0,0,0,0,0,0,0,0,0,0,0,0,0,0,0,0,0,0,0,0,0,0,0,0,0],"sum_hessian":[5.743941E4,5.6611945E4,8.2746405E2,5.5961266E4,6.506772E2,1.9800107E2,6.29463E2,4.6707656E4,9.253609E3,4.8781024E2,1.6286693E2,7.796434E1,1.2003672E2,6.136988E2,1.5764165E1,7.239598E2,4.59837E4,1.5559248E3,7.6976846E3,3.965255E2,9.128473E1,1.13114655E2,4.9752274E1,6.837778E1,9.586567E0,1.8079777E1,1.0195694E2,1.1548293E1,6.021505E2,4.062669E0,1.1701496E1,6.998341E2,2.4125696E1,4.8351657E2,4.550018E4,1.1445574E3,4.1136746E2,4.964883E3,2.7328013E3,9.527953E1,3.0124597E2,6.882267E1,2.2462067E1,8.168786E0,1.0494587E2,3.557674E1,1.4175533E1,3.950415E0,5.636152E0,7.8086586E0,1.0271119E1,9.366848E1,8.288462E0,3.8109684E0,7.7373247E0,3.2276355E2,2.79387E2,6.866677E2,1.3166365E1,1.8304981E1,5.820715E0,5.534062E1,4.2817596E2,3.2911045E3,4.220908E4,1.0116896E3,1.3286778E2,5.3450287E1,3.5791718E2,3.8858765E3,1.0790065E3,5.5125836E2,2.181543E3,1.8744124E2,1.1380474E2,3.483119E0,1.01462746E2,6.1217697E1,3.2450787E1,2.7511786E2,4.269145E0],"tree_param":{"num_deleted":"0","num_feature":"276","num_nodes":"81","size_leaf_vector":"1"}},{"base_weights":[-6.392706E-3,-2.782527E-2,3.7788782E-1,-1.0115885E-2,-6.0512644E-1,-1.24044634E-1,7.211885E-1,-1.9750969E-1,3.90657E-2,-9.562337E-1,7.286779E-1,1.1199838E-1,-1.217955E0,7.908652E-1,-8.317484E-1,-4.1647753E-1,1.8181422E-1,3.180886E-1,-1.6713884E-2,2.922785E-1,-1.2137514E0,1.0810647E0,-1.7834221E0,-9.611426E-1,4.0674084E-1,-1.8473477E0,9.929474E-1,1.2433861E0,5.7961774E-1,-1.5534286E0,6.078282E-1,-7.819193E-1,-3.7321407E-2,3.0224285E-1,-1.4356703E0,-1.1878558E0,4.0000802E-1,1.1423647E-1,-2.308276E-1,1.3540648E0,-3.5158306E-1,-1.3843765E0,2.7607673E-1,1.161822E0,-7.5294924E-1,-4.3338174E-1,-8.9608604E-1,-1.888244E0,5.66663E-1,-9.406148E-1,7.2251445E-1,-3.7001675E-1,-2.1444082E0,1.2694113E0,-5.9273255E-1,1.3049252E0,-2.008587E0,-1.0316832E0,7.2018975E-1,-3.4190974E-1,-2.0842695E0,-3.869406E-1,8.904536E-1,-3.1027395E-1,5.8841202E-2,5.5841077E-2,-2.3257531E-1,-3.4991044E-1,1.2911738E-1,-5.592597E-1,4.702387E-1,8.271429E-2,-5.9467405E-1,3.4657458E-3,2.060421E-1,-4.228225E-1,4.1254915E-2,-8.9260265E-2,1.6564146E-1,-3.037244E-1,4.854744E-1,1.6447587E-1,-4.4556385E-1,3.097019E-1,-4.0361306E-1,3.750151E-1,-5.3910077E-1,-4.2670122E-1,-9.901998E-1,3.153944E-1,-7.5973916E-1,-5.411914E-1,2.4664901E-1,-8.629874E-1,2.3179524E-1,-5.549238E-1,-8.936513E-1,2.886003E-1,4.186573E-1,3.6599985E-1,7.685407E-1,-3.5174066E-1,-9.712137E-1,3.0414647E-1,-6.375121E-1,-1.0007238E0,2.2690786E-1,-3.1511092E-1,-6.810783E-1,9.85888E-2,2.9751167E-1],"categories":[],"categories_nodes":[],"categories_segments":[],"categories_sizes":[],"default_left":[0,0,0,0,0,0,0,0,0,0,0,0,0,0,0,0,0,0,0,0,0,0,0,0,0,0,0,0,0,0,0,0,0,0,0,0,0,0,0,0,0,0,0,0,0,0,0,0,0,0,0,0,0,0,0,0,0,0,0,0,0,0,0,0,0,0,0,0,0,0,0,0,0,0,0,0,0,0,0,0,0,0,0,0,0,0,0,0,0,0,0,0,0,0,0,0,0,0,0,0,0,0,0,0,0,0,0,0,0,0,0],"id":15,"left_children":[1,3,5,7,9,11,13,15,17,19,21,23,25,27,29,31,33,35,37,39,41,43,45,47,49,51,53,55,57,59,61,63,65,67,69,71,73,75,77,79,-1,81,83,85,-1,-1,-1,87,89,91,93,-1,95,97,-1,99,101,103,105,-1,107,-1,109,-1,-1,-1,-1,-1,-1,-1,-1,-1,-1,-1,-1,-1,-1,-1,-1,-1,-1,-1,-1,-1,-1,-1,-1,-1,-1,-1,-1,-1,-1,-1,-1,-1,-1,-1,-1,-1,-1,-1,-1,-1,-1,-1,-1,-1,-1,-1,-1],"loss_changes":[4.6468607E2,5.4634296E2,5.1367444E2,4.7787613E2,7.4554913E2,3.129384E2,1.9218854E2,8.9540063E2,6.3923975E2,4.053059E2,2.958286E2,3.1584808E2,3.0113843E2,1.6127283E2,8.041825E1,9.4695544E2,7.690401E2,8.4464667E2,9.597792E2,3.3766672E2,2.6585596E2,8.753073E1,1.2493713E1,3.058808E2,3.3387305E2,2.7954773E1,4.2160892E1,1.1037579E2,2.62844E2,8.876968E0,1.5233561E1,8.5906714E2,5.5343134E2,6.917977E2,3.5502222E2,4.1128558E2,7.2309375E2,7.5360443E2,6.786455E2,8.0267426E1,0E0,1.8345374E2,1.3400522E2,7.692032E1,0E0,0E0,0E0,8.3588806E1,1.25884125E2,2.2843985E2,1.1680899E2,0E0,2.1957947E1,3.945694E-1,0E0,5.3345764E1,6.883053E0,2.107333E2,1.5874554E2,0E0,1.6987457E0,0E0,1.0080509E0,0E0,0E0,0E0,0E0,0E0,0E0,0E0,0E0,0E0,0E0,0E0,0E0,0E0,0E0,0E0,0E0,0E0,0E0,0E0,0E0,0E0,0E0,0E0,0E0,0E0,0E0,0E0,0E0,0E0,0E0,0E0,0E0,0E0,0E0,0E0,0E0,0E0,0E0,0E0,0E0,0E0,0E0,0E0,0E0,0E0,0E0,0E0,0E0],"parents":[2147483647,0,0,1,1,2,2,3,3,4,4,5,5,6,6,7,7,8,8,9,9,10,10,11,11,12,12,13,13,14,14,15,15,16,16,17,17,18,18,19,19,20,20,21,21,22,22,23,23,24,24,25,25,26,26,27,27,28,28,29,29,30,30,31,31,32,32,33,33,34,34,35,35,36,36,37,37,38,38,39,39,41,41,42,42,43,43,47,47,48,48,49,49,50,50,52,52,53,53,55,55,56,56,57,57,58,58,60,60,62,62],"right_children":[2,4,6,8,10,12,14,16,18,20,22,24,26,28,30,32,34,36,38,40,42,44,46,48,50,52,54,56,58,60,62,64,66,68,70,72,74,76,78,80,-1,82,84,86,-1,-1,-1,88,90,92,94,-1,96,98,-1,100,102,104,106,-1,108,-1,110,-1,-1,-1,-1,-1,-1,-1,-1,-1,-1,-1,-1,-1,-1,-1,-1,-1,-1,-1,-1,-1,-1,-1,-1,-1,-1,-1,-1,-1,-1,-1,-1,-1,-1,-1,-1,-1,-1,-1,-1,-1,-1,-1,-1,-1,-1,-1,-1],"split_conditions":[2.7145204E-1,3.4330463E-1,-2.6856372E-1,-2.6756757E-1,3.846154E-1,2.5220551E0,2.1828768E0,8.993E0,-7.315741E-1,-4.384264E-1,1.5896833E-1,3.3E1,1.477741E-1,3.7958932E-1,3.6858806E-1,7.4746156E-1,1.9047356E-1,1.37368E3,3.17625E1,6.1283555E-2,2.2290337E-1,-4.1789475E-1,-1.9333333E-1,2.2772223E-1,-7.2165275E-1,1.45391E3,1.5108885E-1,-4.760933E-1,2.3000732E-3,9.431094E-1,2.0060494E0,1.5992776E-1,2.3153542E-1,-1.1862667E0,9.377355E-2,3.3777776E-1,1.5422857E0,-7.213814E-1,4.4444445E-1,6.477778E-1,-3.5158306E-1,-8.89E-1,-1.3433334E0,1.5113354E-1,-7.5294924E-1,-4.3338174E-1,-8.9608604E-1,9.5666665E-1,-4.3547058E-1,5.925E-1,-1.013162E0,-3.7001675E-1,5.6594664E-1,2.3E1,-5.9273255E-1,5.656522E-1,1.1651001E0,-2.4555555E-1,3.504814E-2,-3.4190974E-1,1.0553223E1,-3.869406E-1,1.0227237E0,-3.1027395E-1,5.8841202E-2,5.5841077E-2,-2.3257531E-1,-3.4991044E-1,1.2911738E-1,-5.592597E-1,4.702387E-1,8.271429E-2,-5.9467405E-1,3.4657458E-3,2.060421E-1,-4.228225E-1,4.1254915E-2,-8.9260265E-2,1.6564146E-1,-3.037244E-1,4.854744E-1,1.6447587E-1,-4.4556385E-1,3.097019E-1,-4.0361306E-1,3.750151E-1,-5.3910077E-1,-4.2670122E-1,-9.901998E-1,3.153944E-1,-7.5973916E-1,-5.411914E-1,2.4664901E-1,-8.629874E-1,2.3179524E-1,-5.549238E-1,-8.936513E-1,2.886003E-1,4.186573E-1,3.6599985E-1,7.685407E-1,-3.5174066E-1,-9.712137E-1,3.0414647E-1,-6.375121E-1,-1.0007238E0,2.2690786E-1,-3.1511092E-1,-6.810783E-1,9.85888E-2,2.9751167E-1],"split_indices":[133,125,190,98,174,8,124,1,195,105,129,21,195,145,191,128,189,4,3,131,151,47,61,113,38,4,195,179,19,155,139,151,190,190,153,93,149,188,170,74,0,66,49,187,0,0,0,54,56,74,182,0,145,0,0,51,141,126,129,0,2,0,149,0,0,0,0,0,0,0,0,0,0,0,0,0,0,0,0,0,0,0,0,0,0,0,0,0,0,0,0,0,0,0,0,0,0,0,0,0,0,0,0,0,0,0,0,0,0,0,0],"split_type":[0,0,0,0,0,0,0,0,0,0,0,0,0,0,0,0,0,0,0,0,0,0,0,0,0,0,0,0,0,0,0,0,0,0,0,0,0,0,0,0,0,0,0,0,0,0,0,0,0,0,0,0,0,0,0,0,0,0,0,0,0,0,0,0,0,0,0,0,0,0,0,0,0,0,0,0,0,0,0,0,0,0,0,0,0,0,0,0,0,0,0,0,0,0,0,0,0,0,0,0,0,0,0,0,0,0,0,0,0,0,0],"sum_hessian":[5.641825E4,5.3438727E4,2.979523E3,5.184921E4,1.5895173E3,1.2104252E3,1.7690977E3,1.077829E4,4.107092E4,1.2585128E3,3.3100455E2,9.963346E2,2.1409058E2,1.6936005E3,7.549722E1,6.833499E3,3.9447908E3,6.8418154E3,3.4229105E4,2.1517146E2,1.0433413E3,2.907842E2,4.0220325E1,2.1419641E2,7.8213824E2,1.6677737E2,4.7313213E1,5.3744135E2,1.156159E3,5.0234745E1,2.5262478E1,3.4791396E3,3.3543591E3,3.6721934E3,2.725973E2,3.5227936E2,6.489536E3,2.1239594E4,1.2989512E4,1.2476956E2,9.040191E1,9.36193E2,1.07148315E2,